tree
version=v3
num_class=1
num_tree_per_iteration=1
label_index=0
max_feature_idx=32
objective=tweedie
feature_names=d rolling_mean_dayofweek rolling_mean_7_28 rolling_mean_28_28 rolling_mean_28_90 rolling_mean_28_180 rolling_mean_28_365 rolling_mean_dayofmonth avg_item_store std_item_store avg_item_state avg_dept_store avg_snap avg_event avg_weekofmonth n_items dept_id cat_id release weekofmonth weekofyear dayofweek dayofmonth dayofyear month event_name_1 snap_CA sell_price price_last_week price_next_week price_same_dept price_mean price_std
feature_infos=[338:1969] [0:79] [0:58.84375] [0:58.40625] [0:57.4375] [0:50.46875] [0:42.34375] [0:73.75] [0.0164947509765625:33.34375] [0.152099609375:22.625] [0.039642333984375:68.3125] [0.266845703125:1.982421875] [0.0142059326171875:33.40625] [0:58.25] [0:33.75] [57:823] -1:2:6:5:3:0:1:4 -1:0:2:1 [1:1845] [1:5] [1:53] [0:6] [1:31] [1:366] [1:12] -1:30:17:24:16:15:14:25:21:13:12:18:23:11:22:26:28:4:19:10:27:6:29:3:2:20:5:8:0:1:9 [0:1] [0.199951171875:30.984375] [-10.5546875:0.91357421875] [-4.6484375:0.91357421875] [0.044891357421875:6.8203125] [-0.662109375:0.91357421875] [0:2.50390625]
tree_sizes=3422 3501 3530 3518 3509 3517 3531 3532 3553 3549 3550 3557 3585 3561 3587 3571 3583 3603 3585 3581 3591 3587 3583 3544 3557 3578 3562 3596 3582 3581 3587 3539 3592 3599 3564 3576 3590 3575 3585 3597 3594 3571 3594 3575 3574 3575 3558 3586 3557 3591 3553 3580 3546 3535 3540 3564 3562 3535 3585 3575 3570 3525 3569 3523 3576 3570 3513 3582 3604 3507 3565 3571 3578 3497 3515 3490 3542 3510 3559 3583 3590 3571 3595 3584 3539 3593 3565 3541 3574 3568 3521 3530 3594 3542 3558 3515 3549 3556 3555 3538 3559 3530 3512 3506 3493 3490 3557 3509 3516 3541 3506 3501 3524 3507 3552 3511 3484 3543 3536 3494 3487 3463 3487 3521 3518 3581 3517 3543 3497 3507 3510 3538 3501 3521 3526 3499 3508 3540 3462 3526 3484 3507 3496 3541 3531 3527 3519 3477 3462 3496 3484 3531 3467 3477 3522 3488 3491 3519 3505 3505 3485 3495 3484 3475 3453 3443 3510 3491 3476 3444 3401 3426 3456 3431 3440 3475 3454 3424 3528 3551 3495 3445 3434 3390 3487 3426 3518 3411 3515 3405 3527 3550 3527 3499 3514 3494 3498 3497 3530 3556 3567 3604 3581 3527 3561 3548 3420 3537 3549 3525 3491 3485 3534 3495 3482 3494 3467 3500 3459 3492 3511 3560 3503 3496 3521 3571 3531 3479 3472 3556 3384 3397 3384 3396 3393 3411 3405 3405 3493 3447 3462 3464 3498 3461 3529 3506 3482 3453 3496 3499 3505 3533 3477 3529 3535 3515 3461 3526 3542 3537 3552 3553 3515 3565 3562 3536 3519 3401 3481 3457 3498 3524 3536 3510 3557 3433 3518 3495 3570 3430 3517 3528 3529 3505 3512 3499 3472 3571 3493 3486 3488 3489 3479 3481 3493 3507 3505 3488 3471 3512 3463 3432 3464 3443 3434 3423 3449 3464 3559 3436 3474 3467 3512 3481

Tree=0
num_leaves=31
num_cat=0
split_feature=2 2 1 13 2 2 1 13 21 2 21 13 13 21 13 13 13 2 2 21 6 1 13 13 13 2 8 13 13 21
split_gain=959395 143746 116760 23522.4 18091.3 16560.4 15668.2 6480.77 6039.24 5847.27 5589.79 5061.77 4051.76 3274.56 3095.95 3051.51 2551.59 2407.02 2187.02 2182.29 2139.33 2087.88 2054.22 1881.81 1612.24 1602.93 1596.52 1559.89 1276.7 1251.06
threshold=1.9106445312500002 0.62500000000000011 5.3652343750000009 1.0639648437500002 3.1962890625000004 0.26782226562500006 11.367187500000002 2.8242187500000004 4.5000000000000009 0.91088867187500011 4.5000000000000009 0.55444335937500011 3.5302734375000004 4.5000000000000009 3.7900390625000004 5.0957031250000009 2.0966796875000004 0.089263916015625014 1.2680664062500002 4.5000000000000009 7.6542968750000009 19.250000000000004 0.44677734375000006 1.6005859375000002 0.75048828125000011 1.2680664062500002 11.980468750000002 0.25024414062500006 0.25305175781250006 4.5000000000000009
decision_type=10 8 10 10 10 10 10 10 2 10 2 10 10 2 10 10 10 10 8 2 8 10 10 10 10 8 2 10 10 2
left_child=1 5 4 9 8 12 15 10 16 19 18 28 17 27 24 -4 -2 -1 -5 -3 -9 -8 -19 -13 -6 -12 -14 -11 -7 -26
right_child=2 3 6 7 14 11 21 20 -10 13 25 23 26 -15 -16 -17 -18 22 -20 -21 -22 -23 -24 -25 29 -27 -28 -29 -30 -31
leaf_value=0.1195472671262417 0.28331498259438403 0.18296892195714903 0.41327805889259978 0.22494967711562031 0.20459407946943275 0.13951830250436673 0.48748465753121073 0.309096119689098 0.34751490849025779 0.13461691195375319 0.2632363019834193 0.18665965229225229 0.20822759768889884 0.25523656469332123 0.39378663904171018 0.45206489517735049 0.31827741802425219 0.13325753717154215 0.25562744050919844 0.21554938750529148 0.40874694240964909 0.52957476791621649 0.16947933825005984 0.25109992953136784 0.35057446491810473 0.30172244597701692 0.4217986077494929 0.21817408355588117 0.16319975911585682 0.38764418733816469
leaf_weight=135322.17060106993 44197.136322379112 67981.604186415672 38796.479299783707 40481.030741274357 683.93401783704758 30770.75291955471 27441.921388447285 10471.667685985565 38887.304506838322 2314.7188478708267 18677.220132172108 63023.957813560963 3771.7656608223915 29621.129945278168 41382.452873289585 42507.50536108017 39556.265369534492 92025.822564601898 54556.944448053837 29471.490709781647 2712.3658477067947 20656.831638157368 18866.837688446045 4882.7785573601723 39349.08936047554 25730.903553783894 385.82238745689392 64241.556682825089 87501.767927229404 11844.644777595997
leaf_count=157265 33092 68121 16320 36274 648 34209 6403 7159 22814 2602 14931 62566 3539 24278 19444 13719 26126 103763 44662 27108 1172 2625 19548 4053 22781 18070 154 58664 92048 5749
internal_value=0.246581 0.18511 0.38521 0.233226 0.340191 0.146946 0.460321 0.262582 0.314948 0.210085 0.256246 0.169533 0.130151 0.227578 0.373387 0.433557 0.299828 0.128498 0.24256 0.192822 0.329597 0.505561 0.13942 0.191293 0.357114 0.285536 0.228047 0.215268 0.157039 0.359151
internal_weight=0 782812 345304 346261 215901 436552 129403 152630 122641 193631 139446 186179 250372 96177.4 93260.1 81304 83753.4 246215 95038 97453.1 13184 48098.8 110893 67906.7 51877.7 44408.1 4157.59 66556.3 118273 51193.7
internal_count=949907 780186 169721 303041 130654 477145 39067 122268 82032 180773 113937 192876 284269 85544 48622 30039 59218 280576 80936 95229 8331 9028 123311 66619 29178 33001 3693 61266 126257 28530
is_linear=0
shrinkage=1


Tree=1
num_leaves=31
num_cat=0
split_feature=2 2 2 13 1 1 2 13 13 13 21 13 13 1 21 13 2 13 1 21 2 13 2 13 2 13 2 21 13 21
split_gain=785866 117823 114406 20261 17882 16181.7 12664.5 7426.57 5379.02 5252.92 5154.33 3772.8 3767.55 3611.38 3073.13 2979.12 2516.51 2415.82 2306.27 2095.99 2262.08 1932.63 1726.61 1681.55 1556.06 1651.29 1523.82 1506.42 1437.35 1088
threshold=1.7680664062500002 0.55346679687500011 5.0175781250000009 0.83447265625000011 9.7070312500000018 3.1826171875000004 0.19641113281250003 1.9965820312500002 0.47814941406250006 2.7724609375000004 4.5000000000000009 0.25024414062500006 2.4882812500000004 17.210937500000004 4.5000000000000009 5.9843750000000009 1.1250000000000002 2.5361328125000004 6.3652343750000009 4.5000000000000009 2.5175781250000004 1.6005859375000002 0.91088867187500011 7.7773437500000009 1.0000000180025095e-35 0.39660644531250006 1.0537109375000002 4.5000000000000009 0.21997070312500003 4.5000000000000009
decision_type=10 8 10 10 10 10 10 10 10 10 2 10 10 10 2 10 8 10 10 2 10 10 10 10 10 10 8 2 10 2
left_child=1 6 5 11 18 9 12 10 28 19 16 -3 24 -6 22 -9 -5 -7 -4 20 -2 29 -13 -14 -1 -26 -12 -19 -8 -10
right_child=2 3 4 7 13 17 8 15 21 -11 26 14 23 -15 -16 -17 -18 27 -20 -21 -22 -23 -24 -25 25 -27 -28 -29 -30 -31
leaf_value=-0.12823114986738848 0.023519723897263787 -0.10279350545899166 0.14255985194860402 -0.0338019995730258 0.21112103259760168 0.088109989026495084 -0.11054388066536555 0.039370310457267001 -0.070588092575958078 0.08583624927694912 -0.0021314955985237477 -0.061234353174903111 -0.063544748585972435 0.26139753177722835 -0.019786507602216299 0.17290940835842317 -0.0047036155648056827 0.10613441169822024 0.17695851418996042 0.069735066115831551 0.057223618965470562 0.0057594357567768029 -0.033474956111683142 0.082839300016975648 -0.11591121894330067 -0.081081733021003174 0.03192517434192578 0.13895450997317188 -0.085979677837670673 -0.04245232718061575
leaf_weight=88862.503050923347 50369.531189143658 10689.9398214221 40237.6336145401 52890.086966216564 34002.572734415531 32562.864183366299 31657.065215826035 28584.229130446911 44111.292206227779 40958.897087991238 20747.928350150585 63065.889922082424 6284.4450607895851 23806.714547395706 43103.445575356483 1736.8369495272636 64840.251839697361 28088.469346225262 36369.026187598705 24182.455315172672 31863.830346286297 4412.7009689211845 33693.281674981117 876.36990493535995 78311.610154390335 16080.918808460236 33941.001469433308 26770.476545929909 88937.243648529053 19392.310685515404
leaf_count=113487 38474 12407 17327 50333 8816 18731 38406 20729 47200 23827 17644 65887 6690 3440 39117 644 55621 14695 12431 15072 21159 3667 31855 543 96724 18055 25219 11788 100626 19293
internal_value=0 -0.0597222 0.117423 -0.018594 0.190258 0.0757265 -0.0980681 0.00183614 -0.079878 0.0557095 -0.00610968 -0.0461062 -0.116076 0.231826 -0.0417735 0.0470196 -0.017776 0.109471 0.158891 0.0441138 0.0365793 -0.0575939 -0.051568 -0.0456297 -0.118829 -0.109978 0.0190047 0.12215 -0.092428 -0.0619962
internal_weight=0 732219 369212 353293 134416 234797 378926 202740 188511 147375 172419 150553 190416 57809.3 139863 30321.1 117730 87421.8 76606.7 106416 82233.4 67916.3 96759.2 7160.81 183255 94392.5 54688.9 54858.9 120594 63503.6
internal_count=949907 764147 185760 319456 42014 143746 444691 170190 209192 98532 148817 149266 235499 12256 136859 21373 105954 45214 29758 74705 59633 70160 97742 7233 228266 114779 42863 26483 139032 66493
is_linear=0
shrinkage=0.099


Tree=2
num_leaves=31
num_cat=0
split_feature=2 2 2 2 13 1 2 13 13 21 21 21 13 13 1 21 13 1 13 13 2 2 13 13 13 13 2 13 2 13
split_gain=643838 101726 101719 17706.6 17537.4 14642.2 11195.6 5875.6 4510.42 4498.24 4300.12 4011.34 3746.6 3597.38 2947.91 2620.38 2412.64 2215.78 2003.27 1905.31 1882.92 1794.08 1727.81 1628.41 1569.74 1499.61 1476.88 1174.15 1138.93 1129.07
threshold=1.6962890625000002 0.51782226562500011 5.4472656250000009 2.8750000000000004 0.83447265625000011 12.582031250000002 0.19641113281250003 1.9555664062500002 0.39660644531250006 4.5000000000000009 4.5000000000000009 4.5000000000000009 1.9965820312500002 0.35131835937500006 7.1835937500000009 4.5000000000000009 5.9843750000000009 26.585937500000004 3.0371093750000004 0.99755859375000011 1.1250000000000002 1.0000000180025095e-35 1.4472656250000002 8.4687500000000018 0.32495117187500006 1.0000000180025095e-35 0.94653320312500011 0.40930175781250006 1.0180664062500002 1.6679687500000002
decision_type=10 8 10 10 10 10 10 10 10 2 2 2 10 10 10 2 10 10 10 10 8 10 10 10 10 10 10 10 8 10
left_child=1 6 3 9 13 14 12 11 -8 22 18 20 21 25 -4 26 -9 -7 27 -10 -6 -1 -2 -14 -23 -3 -15 -5 -13 -11
right_child=2 4 5 10 7 17 8 16 19 29 -12 28 23 15 -16 -17 -18 -19 -20 -21 -22 24 -24 -25 -26 -27 -28 -29 -30 -31
leaf_value=-0.12635084021724904 0.0099739911490601928 -0.14001428530789306 0.13350329548764125 -0.12182091081259031 -0.031175447924391034 0.21106811749380336 -0.092062003884145399 0.033147478504109033 -0.066276484837458557 0.048989700269247351 0.11960182757008238 -0.0039049957211090476 -0.065610703341442478 -0.055322417195073907 0.17055283443178043 -0.017885682037991023 0.15429623078961066 0.26385409422452361 0.094968274825460192 -0.024740143580426487 -0.0057792174032486885 -0.11314864559376407 0.039273752639548222 0.078932449297652127 -0.081995476265401296 -0.069682506535764743 -0.028395752416885106 0.066041768710705356 0.02586049116338229 0.080633005069693578
leaf_weight=78884.512752592564 27334.57641595602 3433.5461310148239 40701.676582753658 322.31248360872269 53741.535507142544 28103.144881486893 86179.528046071529 27856.941942751408 65626.541702568531 17771.426463663578 41602.296188592911 19642.162426531315 9164.7594698667526 65621.339579045773 41832.023465156555 42261.238189339638 1673.9366663694382 10490.364612579346 45189.703645884991 12653.858113288879 58647.081033885479 67515.700408160686 66049.553566932678 815.30890452861786 20180.912563979626 19178.036769688129 27879.942212224007 37749.618999004364 33254.722089827061 27738.204936385155
leaf_count=110060 21650 4685 16305 356 52108 5973 106523 20110 73493 11468 18428 16888 10517 70512 12812 38847 611 1160 22901 12206 50678 90116 45740 480 24326 21586 26628 22546 24707 15487
internal_value=0 -0.0568111 0.101233 0.067088 -0.019945 0.175584 -0.0949928 -0.000253574 -0.0765926 0.0430104 0.0938709 -0.00744814 -0.112132 -0.0441675 0.152282 -0.0381392 0.0400147 0.225416 0.0810142 -0.0595622 -0.0179231 -0.115626 0.0306974 -0.0538024 -0.10598 -0.0803623 -0.0472935 0.0644513 0.0148077 0.0682764
internal_weight=0 694212 384885 263758 353190 121127 341021 194816 164460 138894 124864 165286 176561 158374 82533.7 135763 29530.9 38593.5 83261.6 78280.4 112389 166581 93384.1 9980.07 87696.6 22611.6 93501.3 38071.9 52896.9 45509.6
internal_count=949907 755081 194826 158576 327360 36250 427721 165102 192222 94345 64231 144381 235499 162258 29117 135987 20721 7133 45803 85699 102786 224502 67390 10997 114442 26271 97140 22902 41595 26955
is_linear=0
shrinkage=0.09801


Tree=3
num_leaves=31
num_cat=0
split_feature=2 2 2 2 13 2 2 13 13 13 21 21 1 1 13 21 2 3 13 4 2 2 21 13 13 13 13 21 13 13
split_gain=528279 96789.8 80714.6 19915.9 14920.9 12203 7970.34 4923.02 3857.16 3760.19 3591.81 3569.26 3530.12 3444.04 3412.22 3410.14 2816.17 1773.12 1692.63 1646.42 1611.18 1494.22 1485.17 1480.38 1254.33 1109.97 1091.89 1059.58 988.859 987.44
threshold=1.5180664062500002 4.4824218750000009 0.44641113281250006 10.160156250000002 0.77319335937500011 2.4462890625000004 0.16070556640625003 2.4882812500000004 0.36901855468750006 1.4799804687500002 4.5000000000000009 4.5000000000000009 21.414062500000004 6.9160156250000009 0.12835693359375003 4.5000000000000009 0.80346679687500011 0.053558349609375007 0.99755859375000011 8.0625000000000018 0.87500000000000011 1.0000000180025095e-35 4.5000000000000009 3.1533203125000004 1.7211914062500002 0.36499023437500006 0.23779296875000003 3.5000000000000004 0.13928222656250003 0.75048828125000011
decision_type=10 10 8 10 10 10 10 10 10 10 2 2 10 10 10 2 10 10 10 10 8 10 2 10 10 10 10 2 10 10
left_child=2 5 6 13 14 15 9 11 28 21 23 20 -5 29 -4 24 22 -9 -10 -11 -6 -1 -16 25 -2 -7 -23 -18 -8 -3
right_child=1 3 4 12 7 10 8 17 18 19 -12 -13 -14 -15 16 -17 27 -19 -20 -21 -22 26 -24 -25 -26 -27 -28 -29 -30 -31
leaf_value=-0.12513130480337295 0.0059945516964432432 -0.075274477431024375 -0.13084779765655302 0.17863060477606163 -0.036571983094669414 -0.11448819438977866 -0.1185059639088847 0.10702807276740271 -0.066879588761993791 -0.069433127303973663 0.091415324895519318 0.0098278982928762127 0.2351877557860555 0.14260303352835199 -0.061165781093286811 0.049707179171399718 -0.03840894515737709 0.02838542039550624 -0.023072310545092053 0.10336576001222371 -0.012152692891948945 -0.11359916929557935 -0.035955582735621425 0.073763360378758538 0.029091118799248441 0.049193268849414114 -0.086662967531590626 -0.011240819089977551 -0.087711321088385474 0.10776721374845401
leaf_weight=68217.474564671516 48394.017626523972 278.68745446205139 4368.7662084102631 33517.77897810936 37297.610837161541 392.81005996465683 11465.267818331718 3849.0895515680313 55003.879034757614 13872.292162179947 44591.072145402431 56166.29317098856 15058.155529499054 42497.201941251755 71053.675110220909 43456.833873271942 29798.830902338028 9035.0275814533234 9780.3933139443398 539.30282831192017 80003.522092998028 41528.760795474052 31868.167819619179 33788.797353029251 40802.05514729023 55590.915030300617 21505.108570992947 24732.908743739128 68304.688761413097 63711.15859156847
leaf_count=103989 39192 253 6395 8163 38057 447 16512 1860 65236 17330 21233 45011 1994 13667 82028 27149 30696 6367 9625 282 72104 60281 32796 17868 28771 34631 28439 22670 89832 27029
internal_value=0 0.0837037 -0.0562054 0.144677 -0.024706 0.0482952 -0.0939952 -0.00598807 -0.0778538 -0.110014 0.0689056 -0.0102861 0.196163 0.121191 -0.0462612 0.0274189 -0.0439142 0.0518797 -0.0602661 -0.0629667 -0.0199172 -0.11518 -0.0533598 0.0577248 0.0165599 0.0480448 -0.104409 -0.0260868 -0.0921374 0.10697
internal_weight=0 422079 638391 155063 348174 267017 290217 186352 144554 145663 134364 173467 48575.9 106487 161822 132653 157454 12884.1 64784.3 14411.6 117301 131251 102922 89772.5 89196.1 55983.7 63033.9 54531.7 79770 63989.8
internal_count=949907 220397 729510 51106 337984 169291 391526 163399 181205 210321 74179 155172 10157 40949 174585 95112 168190 8227 74861 17612 110161 192709 114824 52946 67963 35078 88720 53366 106344 27282
is_linear=0
shrinkage=0.0970299


Tree=4
num_leaves=31
num_cat=0
split_feature=2 1 2 13 2 13 2 13 13 13 2 13 13 21 21 1 12 2 2 3 13 8 21 21 13 2 2 21 13 13
split_gain=434714 81758.9 71634.9 14553.9 13524.9 12193.8 8087 4281.98 3791.67 3695.22 3346.56 3135.33 3061.36 3016.42 2418.9 2300.68 2264.21 2022.66 1621.21 1620.62 1441.01 1421.06 1372.42 1212.38 1132.25 1120.71 1117.23 1073.24 1036.06 1031.42
threshold=1.4819335937500002 5.1835937500000009 0.44641113281250006 9.5507812500000018 2.5537109375000004 0.70581054687500011 0.16070556640625003 1.4995117187500002 1.4799804687500002 0.36901855468750006 7.8750000000000009 4.1816406250000009 0.12835693359375003 3.5000000000000004 4.5000000000000009 26.914062500000004 5.8183593750000009 0.69653320312500011 1.0000000180025095e-35 1.0000000180025095e-35 0.36499023437500006 11.980468750000002 3.5000000000000004 4.5000000000000009 0.23779296875000003 0.83911132812500011 3.8750000000000004 4.5000000000000009 0.12118530273437501 1.4257812500000002
decision_type=10 10 8 10 10 10 10 10 10 10 10 10 10 2 2 10 2 10 10 8 10 2 2 2 10 8 10 2 10 10
left_child=2 4 6 10 13 12 8 14 18 28 -3 20 -4 -2 25 -5 27 -14 -1 -11 -6 -10 26 -12 -20 -7 -22 -9 -8 -15
right_child=1 3 5 15 11 7 9 16 21 19 23 -13 17 29 -16 -17 -18 -19 24 -21 22 -23 -24 -25 -26 -27 -28 -29 -30 -31
leaf_value=-0.12215935480466872 0.01195437521494792 0.10311978270527941 -0.12842803680607334 0.17393886384785315 -0.10948856642832268 -0.037905004530233391 -0.11919698020514938 0.0030966172705832345 -0.063694927360857995 -0.0029479209515302094 0.12637836853521192 0.088843212403489066 -0.053698956190335635 0.024155352072792017 0.0017144273832619922 0.23029862240121576 0.12990404936443886 -0.029866053846856037 -0.10966342453685908 -0.060255205435383416 0.039888984754751854 0.121728928938789 0.070870298367134071 0.16281735021217805 -0.081705429805418048 -0.016884011159899619 0.066485541669627335 0.034994237061602519 -0.083317945521733036 0.048176101509487923
leaf_weight=62739.483453691006 80460.850888252258 63581.687132656574 3969.8817933797836 25700.410357952118 476.73246014118195 35265.981953322887 8350.0891168117523 28992.956374883652 13513.9261110425 4942.9747612476349 23135.295870423317 39063.027790904045 71974.06659257412 26371.459864914417 50042.096966564655 9032.3014887571335 1607.1121515035629 60461.462792098522 38604.11338609457 57788.717503905296 42706.42969930172 392.46073991060257 44514.208534061909 13251.039679408073 20445.316120922565 69569.562268018723 22123.65101057291 14652.341226160526 67146.075431525707 44041.937179625034
leaf_count=103989 61465 24422 6352 5589 556 37799 13119 23997 17456 4953 7134 17271 84225 18713 41679 1028 581 62100 60281 69908 26189 156 22484 3126 28439 65326 11211 10225 93225 26909
internal_value=0 0.0728638 -0.0528494 0.135027 0.0449298 -0.0231619 -0.0893228 -0.00806615 -0.105981 -0.0729695 0.116416 0.06547 -0.0453099 0.0246605 -0.0156612 0.188595 0.0179283 -0.0428184 -0.111407 -0.0557396 0.0571562 -0.058462 0.0578828 0.139649 -0.0999832 -0.0239553 0.0489652 0.0138051 -0.0872863 0.0391798
internal_weight=0 434459 610459 134701 299758 336535 273923 200130 135695 138228 99968 148884 136405 150874 154878 34732.7 45252.4 132436 121789 62731.7 109821 13906.4 109344 36386.3 59049.4 104836 64830.1 43645.3 75496.2 70413.4
internal_count=949907 226097 723810 41299 184798 332284 391526 179607 210321 181205 34682 77711 152677 107087 144804 6617 34803 146325 192709 74861 60440 17612 59884 10260 88720 103125 37400 34222 106344 45622
is_linear=0
shrinkage=0.0960596


Tree=5
num_leaves=31
num_cat=0
split_feature=2 1 2 1 13 13 2 13 13 13 13 21 1 13 2 1 21 2 13 13 21 5 3 5 13 13 2 1 2 28
split_gain=359326 73495.4 57921 15467.6 11637.3 10478.4 5516.72 4364.58 4072.18 3742.31 3168.72 3039.28 2770.63 2703.59 2399.84 2027.91 1713.19 1658 1635.28 1297.34 1256.25 1249.53 1235.49 1163.67 1154.59 1135.46 1085.49 1068.05 1058.87 987.903
threshold=1.3393554687500002 4.5507812500000009 0.37500000000000006 13.707031250000002 0.59912109375000011 2.0966796875000004 0.12496948242187501 2.8242187500000004 5.3398437500000009 1.6313476562500002 0.63403320312500011 4.5000000000000009 1.9165039062500002 1.0000000180025095e-35 3.8398437500000004 29.500000000000004 4.5000000000000009 0.91088867187500011 0.21533203125000003 1.0000000180025095e-35 4.5000000000000009 6.9687500000000009 1.0000000180025095e-35 6.6367187500000009 0.10720825195312501 0.75048828125000011 1.0000000180025095e-35 7.9160156250000009 0.91088867187500011 1.0000000180025095e-35
decision_type=10 10 8 10 10 10 10 10 10 10 10 2 10 10 10 10 2 8 10 10 2 8 8 8 10 10 10 10 8 2
left_child=2 5 6 8 13 12 9 11 25 26 18 17 24 -4 20 -5 -15 -6 -8 -14 -7 -11 -12 -9 -2 -3 29 -10 -13 -1
right_child=1 3 4 15 7 14 10 23 27 21 22 28 19 16 -16 -17 -18 -19 -20 -21 -22 -23 -24 -25 -26 -27 -28 -29 -30 -31
leaf_value=-0.1196992783126417 -0.13585572129526713 -0.066136521219406885 -0.13585572084848632 0.1579735630402806 -0.034549932495364914 0.03780026826845849 -0.09761405111345893 0.028559326748076805 0.10287282417135434 -0.061352360037217855 0.022513637309814909 -0.012002907117570386 -0.13585572146800659 -0.057232136041162424 0.071385286104081264 0.21354601484742358 -0.031421803328415321 -0.014179099729239631 -0.07209245928870435 0.031326222789833859 0.061336526411073004 0.062267517260165925 -0.047423662758460224 0.10468368332131142 0.0066692608811848835 0.083526485070900741 -0.098031833008892608 0.12882446863304359 0.011428972433450651 -0.0069077662383236274
leaf_weight=58602.432491004467 517.07898062467575 461.50227522850037 3357.5582584142685 25119.716934084892 74550.79345703125 72192.809806585312 34625.13407355547 5408.3219459056854 26938.849264740944 10653.914755225182 2754.1632648706436 35571.173743903637 422.05883592367172 74829.123276472092 42698.159395217896 7777.1538114547729 33746.939350783825 70121.676610291004 65955.524860501289 77886.41187530756 28648.098459541798 794.62589240074158 13393.122654676437 2734.216935634613 87441.319358289242 69413.128444194794 39709.681199014187 30671.634458065033 34220.358935058117 710.80318987369537
leaf_count=105317 735 358 6025 5068 81588 43990 55091 3648 9391 14248 2543 33126 551 93124 19406 879 37242 65773 91756 50842 14662 521 15956 1123 68806 27984 64067 8275 26865 947
internal_value=0 0.0607171 -0.0519615 0.112973 -0.0267959 0.0336649 -0.0890165 -0.0142186 0.097971 -0.104249 -0.0746003 -0.0168133 0.0174146 -0.051809 0.0524882 0.171111 -0.0492099 -0.0246763 -0.0808783 0.0304252 0.0444867 -0.0527721 -0.0354948 0.0541214 0.0058314 0.082538 -0.110201 0.116689 -0.000513729 -0.118348
internal_weight=0 470188 561740 160382 334540 309806 227199 222607 127485 110471 116728 214464 166267 111934 143539 32896.9 108576 144672 100581 78308.5 100841 11448.5 16147.3 8142.54 87958.4 69874.6 99022.9 57610.5 69791.5 59313.2
internal_count=949907 250947 698960 51955 348514 198992 350446 212123 46008 185100 165346 207352 120934 136391 78058 5947 130366 147361 146847 51393 58652 14769 18499 4771 69541 28342 170331 17666 59991 106264
is_linear=0
shrinkage=0.095099


Tree=6
num_leaves=31
num_cat=0
split_feature=2 2 2 13 13 2 2 13 1 13 13 13 21 21 2 21 13 21 12 2 8 13 21 13 2 2 13 28 13 2
split_gain=297402 61130.4 51274.3 14060.8 9625.43 8122.63 5548.81 3753.58 3732.37 3702.41 3019.79 2623.02 2435.3 2285.08 2282.22 2169.63 1543.95 1496.03 1393.58 1260.94 1200.31 1030.58 984.941 958.497 926.379 918.035 885.278 848.342 794.576 759.627
threshold=1.3037109375000002 4.2324218750000009 0.37500000000000006 9.5507812500000018 0.59912109375000011 2.2324218750000004 0.12496948242187501 1.4038085937500002 7.7089843750000009 1.9111328125000002 0.33020019531250006 1.0000000180025095e-35 4.5000000000000009 3.5000000000000004 22.343750000000004 3.5000000000000004 1.1953125000000002 4.5000000000000009 5.8183593750000009 1.0000000180025095e-35 4.8769531250000009 0.10720825195312501 3.5000000000000004 0.075714111328125014 0.76782226562500011 0.76782226562500011 0.19085693359375003 1.0000000180025095e-35 1.4472656250000002 0.69653320312500011
decision_type=10 8 8 10 10 10 10 10 10 10 10 10 2 2 10 2 10 2 2 10 2 10 2 10 8 8 10 2 10 10
left_child=2 5 6 8 11 12 7 19 22 13 23 -4 21 24 -5 -7 -12 29 -11 27 -9 -2 -3 -8 -6 -15 -21 -1 -23 -13
right_child=1 3 4 14 9 15 10 20 -10 18 16 17 -14 25 -16 -17 -18 -19 -20 26 -22 28 -24 -25 -26 -27 -28 -29 -30 -31
leaf_value=-0.1178698733911529 -0.13449716223513031 0.064955523167808352 -0.13449716383291457 0.13365316292401982 -0.038597815780134735 0.032720432438036247 -0.1283930842889773 -0.06532551734968263 0.10514053079249137 0.018262302362576577 -0.05795959688614085 -0.059263778374609187 0.029610427727468681 -0.019029792359694191 0.18415924918454055 0.055102311668791988 -0.0009450110257002303 -0.028878574898850668 0.11062660178153158 -0.10695483698340821 0.015204161016468702 -0.0028532510772068562 0.085536172425793922 -0.080702520314644019 -0.020146741979073457 0.00067366012401245045 -0.077737837649816455 -0.011031106922571607 0.013530373235120114 -0.038061194911232936
leaf_weight=51983.752110481262 469.16235995292664 55563.540640950203 3016.9295413792133 23955.890152812004 38230.735228061676 80684.53253108263 3992.2168790698051 11627.044995009899 48297.131630241871 17763.574626266956 45117.482913017273 51111.292967259884 52101.665437340736 32922.473542928696 11854.775278091431 73234.673418223858 4643.2995497584343 33079.820353806019 1576.4235846400261 20521.739412486553 1910.1339073777199 52392.239719748497 32766.821829974651 58089.807657778263 65345.303694605827 57687.056119143963 16651.070656001568 667.22851979732513 52561.701807081699 21186.090826690197
leaf_count=101619 753 23283 5953 5389 44096 48228 7500 17106 13642 13028 60899 68304 33555 33407 1543 36283 4651 37095 538 37077 1704 44454 12252 92296 65198 49649 26687 907 38340 24471
internal_value=0 0.0528881 -0.048875 0.0978602 -0.0250915 0.0279883 -0.0844522 -0.100178 0.0840965 -0.0134924 -0.0699191 -0.0479406 0.0129589 -0.0174048 0.150373 0.0433697 -0.0526394 -0.0454625 0.025791 -0.107143 -0.0539626 0.00472942 0.0725901 -0.0837693 -0.0269572 -0.00648548 -0.0938675 -0.116516 0.00535179 -0.0530506
internal_weight=0 483882 537123 172438 321920 311444 215204 103361 136627 213526 111843 108394 157525 194186 35810.7 153919 49760.8 105377 19340 89823.8 13537.2 105423 88330.4 62082 103576 90609.5 37172.8 52651 104954 72297.4
internal_count=949907 257722 692185 56109 341739 201613 350446 185100 49177 205916 165346 135823 117102 192350 6932 84511 65550 129870 13566 166290 18810 83547 35535 99796 109294 83056 63764 102526 82794 92775
is_linear=0
shrinkage=0.094148


Tree=7
num_leaves=31
num_cat=0
split_feature=2 1 2 13 2 13 2 13 13 13 2 2 13 21 21 13 3 13 2 14 21 13 21 21 2 3 13 14 13 8
split_gain=246970 51972.1 43459.3 11226.8 8279.84 7676.98 5528.69 3743.84 3456.07 2902.61 2416.78 2338.24 2280.3 2203.66 1980.3 1859.97 1696.26 1541.9 1449.79 1389.68 1167.09 1057.66 1045.37 973.866 940.725 884.05 869.094 845.333 844.591 816.702
threshold=1.2319335937500002 4.5507812500000009 0.37500000000000006 8.4687500000000018 2.2675781250000004 0.50952148437500011 0.12496948242187501 0.99755859375000011 1.4995117187500002 0.27478027343750006 24.445312500000004 6.7324218750000009 1.0000000180025095e-35 3.5000000000000004 4.5000000000000009 3.1533203125000004 0.053558349609375007 0.99755859375000011 1.0000000180025095e-35 3.6054687500000004 4.5000000000000009 0.36499023437500006 4.5000000000000009 4.5000000000000009 0.76782226562500011 1.0000000180025095e-35 1.0000000180025095e-35 3.9472656250000004 0.25024414062500006 15.109375000000002
decision_type=10 10 8 10 10 10 10 10 10 10 10 10 10 2 2 10 10 10 10 2 2 10 2 2 8 8 10 2 10 2
left_child=2 4 6 11 13 12 7 18 14 26 -5 -3 -4 28 24 21 27 22 -1 -9 -13 -6 -11 -14 -7 -19 -8 -10 -2 -21
right_child=1 3 5 10 15 8 9 19 16 17 -12 20 23 -15 -16 -17 -18 25 -20 29 -22 -23 -24 -25 -26 -27 -28 -29 -30 -31
leaf_value=-0.11627904846163312 -0.094152907547881873 0.063072086052220117 -0.13315219201024608 0.11637487405327389 -0.099612480576510495 -0.03580612772330901 -0.13315219393590655 -0.070135290392644878 0.034155380682517882 -0.065711884175366803 0.16760090266928088 0.078540513168765716 -0.052741372575678083 0.021661171987624371 -0.0061687503725506507 0.051992978617146142 0.0017736757929733464 0.050617584023040368 -0.090701120074101804 -0.011390325876411261 0.10840295096636578 0.032347464882393658 -0.037738818725221938 -0.030478198859904704 -0.019560720937876228 -0.028908601578468217 -0.079782527305849532 0.10673257815238008 0.0017197251310914691 0.24747882694138465
leaf_weight=43854.426200270653 805.11936408281326 72850.771845251322 2679.7996867001057 32938.292641282082 530.52432632446289 54557.132337331772 2823.7519674301147 15665.839710235596 5221.084538936615 38193.884607255459 10568.211934804916 31335.102417647839 54195.83989495039 83759.44361358881 61336.691143095493 64654.82028901577 24136.150507211685 1609.4330524206161 34316.025852650404 3054.9588007926941 17844.158827900887 97668.523268640041 16672.110598802567 24917.250748991966 71615.82572466135 4947.0935904383659 43268.948940306902 1902.1009833216667 93829.990654051304 109.67664682865143
leaf_count=92880 1195 28797 5808 7468 649 65126 5877 26339 3617 56343 1339 9913 73038 57250 56026 30034 20069 1279 62633 3236 4461 55971 22641 29136 73369 5633 73573 663 75532 12
internal_value=0 0.0453105 -0.0467849 0.0881661 0.0245216 -0.0242319 -0.0799294 -0.0960634 -0.0151235 -0.0653733 0.128818 0.0736727 -0.0485937 0.0106499 -0.0199067 0.0397171 0.0135689 -0.0521067 -0.105051 -0.0587549 0.0893758 0.0316345 -0.0572117 -0.0457294 -0.0265852 -0.00938728 -0.0830521 0.0535356 0.000904077 -0.00241871
internal_weight=0 506785 505078 165537 341248 300562 204516 97000.9 218769 107515 43506.5 122030 81792.9 178395 187510 162854 31259.3 61422.5 78170.5 18830.5 49179.3 98199 54866 79113.1 126173 6556.53 46092.7 7123.19 94635.1 3164.64
internal_count=949907 272609 677298 51978 220631 326852 350446 185100 218870 165346 8807 43171 107982 133977 194521 86654 24349 85896 155513 29587 14374 56620 78984 102174 138495 6912 79450 4280 76727 3248
is_linear=0
shrinkage=0.0932065


Tree=8
num_leaves=31
num_cat=0
split_feature=2 2 2 2 13 1 5 13 13 21 13 13 1 2 21 2 13 13 13 21 13 13 13 13 28 2 3 3 13 13
split_gain=205785 46106.2 35650.8 10828.8 7853.79 6565.39 3830.77 2895.11 2484.92 2411.34 2374.91 2364.53 2174.51 1920.63 1899.08 1769.08 1512.67 1478.58 1451.49 1196.46 1144.98 1130.67 1009.75 981.85 966.989 946.448 874.656 857.496 819.851 818.518
threshold=1.1250000000000002 3.9824218750000004 0.30358886718750006 10.839843750000002 0.50952148437500011 2.3671875000000004 0.18890380859375003 2.8242187500000004 1.0000000180025095e-35 3.5000000000000004 1.4472656250000002 3.7373046875000004 23.367187500000004 1.0000000180025095e-35 4.5000000000000009 1.0000000180025095e-35 0.49707031250000006 1.0000000180025095e-35 0.68237304687500011 4.5000000000000009 0.86425781250000011 1.7524414062500002 0.99755859375000011 4.1816406250000009 0.0012207031250000002 6.7324218750000009 1.0000000180025095e-35 0.053558349609375007 5.9843750000000009 0.15563964843750003
decision_type=10 8 8 8 10 10 10 10 10 2 10 10 10 10 2 10 10 10 10 2 10 10 10 10 2 10 10 8 10 10
left_child=2 5 6 9 8 10 13 14 -4 25 17 15 -5 24 22 20 29 -2 -17 -10 -8 -7 -6 -11 -1 -3 -20 -12 -23 -15
right_child=1 3 4 12 7 21 11 -9 19 23 27 -13 -14 16 -16 18 -18 -19 26 -21 -22 28 -24 -25 -26 -27 -28 -29 -30 -31
leaf_value=-0.11614553650737672 -0.13182067121359534 0.043500247489221544 -0.13182066940247841 0.10164463839768936 -0.030514936541230716 0.021341114558315468 -0.10757165361192782 0.043649002049594481 -0.052362741292276992 0.061120202907036333 0.070000882793389271 0.014922735539416492 0.14715157027697473 -0.1000108656287941 -0.0051612494778406773 -0.067288969468400406 -0.015850104527232609 -0.00042870955805100275 0.026206417980935214 -0.030161516814643123 -0.068384107535734942 0.038581566686175434 -0.013391238145189601 0.083526061703319152 0.01522764320392337 0.06522725144768092 -0.042496730115903637 0.016561488017812664 0.081101530726468349 -0.075111743992196264
leaf_weight=28377.458486795425 734.28555530309677 49983.284896731377 2917.8019165694714 33039.777322292328 84967.799017369747 37075.934482693672 14208.518160909414 6666.9499153494835 65708.91382792592 27497.110681533813 2616.2287914156914 2901.4822300076485 12257.580021619797 22833.925432115793 63797.385011553764 51224.352231025696 2637.3435944914818 106154.24473801255 2004.5747908353806 30153.017031341791 11475.828828990459 85632.181968748569 44771.015031516552 42224.724066495895 485.21518364548683 25925.535220265388 7410.5694611668587 112280.05945414305 4043.4273415803909 22142.601397186518
leaf_count=64310 1365 21637 6875 7273 99908 23422 32067 3724 94163 10300 1399 2788 1586 46237 58792 85501 3379 88336 2044 37526 20625 43959 44850 12532 650 8558 10039 74973 1560 39529
internal_value=0 0.0381086 -0.0456689 0.0745562 -0.0266416 0.0181426 -0.0800007 -0.0161366 -0.0479328 0.0623003 0.00856848 -0.0670115 0.113959 -0.0951552 -0.0181961 -0.0697655 -0.08377 -0.00133132 -0.0611685 -0.0453794 -0.0900626 0.034895 -0.0246058 0.0746896 -0.113937 0.0509208 -0.0278692 0.0177783 0.0404988 -0.0877527
internal_weight=0 539464 464685 190928 298983 348536 165702 200203 98779.7 145631 221785 89225.3 45297.4 76476.5 193536 86323.8 47613.9 106889 60639.5 95861.9 25684.3 126752 129739 69721.8 28862.7 75908.8 9415.14 114896 89675.6 44976.5
internal_count=949907 296900 653007 61886 345838 235014 307169 207274 138564 53027 166073 153064 8859 154105 203550 150276 89145 89701 97584 131689 52692 68941 144758 22832 64960 30195 12083 76372 45519 85766
is_linear=0
shrinkage=0.0922745


Tree=9
num_leaves=31
num_cat=0
split_feature=2 2 2 1 13 1 5 13 2 13 13 2 2 21 13 21 13 1 3 13 13 13 28 3 13 2 13 13 8 21
split_gain=171622 38112.5 31322.7 9253.56 6602.88 5287.15 3770.07 2760.15 2493.69 2167.18 2145.59 1998.55 1968.93 1733.48 1693.05 1525.75 1407.68 1377.97 1313.28 1250.79 1194.57 1044.82 922.265 840.928 827.767 798.268 779.273 770.999 754 738.257
threshold=1.0893554687500002 3.8398437500000004 0.30358886718750006 14.082031250000002 0.43640136718750006 2.0830078125000004 0.18890380859375003 1.4995117187500002 7.3378906250000009 2.3291015625000004 1.0000000180025095e-35 1.0000000180025095e-35 1.0000000180025095e-35 3.5000000000000004 1.3168945312500002 4.5000000000000009 0.49707031250000006 32.078125000000007 1.0000000180025095e-35 2.2236328125000004 1.0000000180025095e-35 0.44677734375000006 0.0012207031250000002 1.0000000180025095e-35 0.13415527343750003 0.58911132812500011 0.83447265625000011 1.0000000180025095e-35 15.109375000000002 4.5000000000000009
decision_type=10 10 8 10 10 10 10 10 10 10 10 10 10 2 10 2 10 10 10 10 10 10 2 10 10 8 10 10 2 2
left_child=2 5 6 8 10 14 11 13 15 12 -4 22 26 25 20 -3 24 -5 -9 27 -2 -14 -1 -23 -13 -6 -8 -7 -11 -12
right_child=1 3 4 17 7 19 9 18 -10 28 29 16 21 -15 -16 -17 -18 -19 -20 -21 -22 23 -24 -25 -26 -27 -28 -29 -30 -31
leaf_value=-0.11314909075665452 -0.13050246378776531 0.041469237008001168 -0.13050246596429368 0.099971950333100496 -0.041025627975866341 -0.13050246409095029 -0.10444542511851236 0.045346960775511778 0.072772244215611445 -0.01441384368264291 -0.052634162488836823 -0.098865698901482529 -0.066188249392319431 -0.011511880301186115 0.012610179867452623 0.063732783544417318 -0.014347123994551812 0.14688066281329692 -0.0014475328512679663 0.036286238255036941 -0.0035967210175430362 0.0074342875378028183 0.013604157708668369 -0.047934962853931729 -0.072913972375406658 -0.023495737895684425 -0.069357946302602655 0.020446399758281837 0.22451203746072954 -0.032108639636487225
leaf_weight=26276.556763529778 623.52751740813255 77861.025010824203 2612.8765991926193 26321.81099998951 31512.844517350197 283.34436690807343 12899.753421574831 6932.0047321915627 52699.472904145718 5933.1134104728699 46196.134502410889 17146.67368337512 39795.908417105675 89628.726812362671 109909.05355244875 38335.326875269413 2619.2417698502541 6520.5538237094879 18003.887846887112 73722.54165405035 85055.8679240942 2685.5526582300663 487.93468454480171 15503.964565128088 25525.44549536705 69462.982068061829 8945.1472962796688 82604.855702221394 112.31101012229919 21396.764728844166
leaf_count=64310 1322 32413 6749 4900 42005 442 31235 4106 14462 7210 69942 37391 70945 91939 76382 12921 3379 716 15362 36942 73541 3095 650 22882 48375 79017 17683 51537 14 28040
internal_value=0 0.0332566 -0.04299 0.0649173 -0.024945 0.0151215 -0.0756389 -0.0170197 0.0562898 -0.0627101 -0.0492766 -0.0910473 -0.0667037 -0.0207588 0.00510602 0.0488144 -0.079352 0.109285 0.011561 0.0276297 -0.00452027 -0.057898 -0.110838 -0.0397601 -0.083342 -0.0289665 -0.0900776 0.0199304 -0.00997511 -0.0461367
internal_weight=0 553937 443678 201738 285746 352199 157932 215540 168896 85875.8 70205.8 72055.9 79830.3 190605 195588 116196 45291.4 32842.4 24935.9 156611 85679.4 57985.4 26764.5 18189.5 42672.1 100976 21844.9 82888.2 6045.42 67592.9
internal_count=949907 305578 644329 65412 337160 240166 307169 232429 59796 153064 104731 154105 145840 212961 151245 45334 89145 5616 19468 88921 74863 96922 64960 25977 85766 121022 48918 51979 7224 97982
is_linear=0
shrinkage=0.0913517


Tree=10
num_leaves=31
num_cat=0
split_feature=2 13 2 1 1 13 13 2 13 13 13 13 13 21 13 2 28 13 2 13 28 13 21 21 13 21 21 2 2 13
split_gain=144946 36546 23631.5 8750.09 6653.53 4700.62 3082.85 4642.78 2933.95 2040.35 1992.52 1923.16 1772.97 1471.37 1470.34 1472.19 1209.79 1061.89 972.058 956.657 870.729 841.624 809.104 796.251 782.992 713.151 696.538 814.712 649.941 608.949
threshold=0.98217773437500011 4.0820312500000009 0.26782226562500006 2.5498046875000004 10.183593750000002 0.41870117187500006 0.78100585937500011 1.0000000180025095e-35 0.40026855468750006 1.0000000180025095e-35 0.17126464843750003 15.460937500000002 1.2236328125000002 4.5000000000000009 5.3398437500000009 0.053558349609375007 1.0000000180025095e-35 0.28845214843750006 3.3750000000000004 0.98706054687500011 -0.0034179687499999996 5.9843750000000009 3.5000000000000004 3.5000000000000004 1.0000000180025095e-35 4.5000000000000009 4.5000000000000009 1.9819335937500002 0.55346679687500011 1.0000000180025095e-35
decision_type=8 10 10 10 8 10 10 10 10 10 10 10 10 2 10 10 2 10 8 10 2 10 2 2 10 2 2 8 10 10
left_child=2 3 6 8 21 9 7 -1 24 -4 29 -6 22 19 15 16 20 -5 -19 28 -8 -3 -10 -11 -2 -12 27 -14 -7 -9
right_child=1 4 5 17 11 13 14 10 12 23 25 -13 26 -15 -16 -17 -18 18 -20 -21 -22 -23 -24 -25 -26 -27 -28 -29 -30 -31
leaf_value=-0.10903519765638497 -0.1291974378486189 0.044116098889452608 -0.12919743906592915 -0.09720280646797734 0.078863452723240191 -0.040185506271202834 0.096217925027536982 -0.12919743892077235 -0.010763533033583947 -0.053459156133692752 -0.065099647048690326 0.11739797981157497 0.0011077325405460011 -0.0080262881693133042 0.035026052244401348 -0.012212170730570349 0.077426806146607421 0.024471048202563867 0.039023520349911543 -0.012178802032894835 -0.070721688446691786 0.059929017494099159 0.0052845481732485952 -0.033502110052103885 -0.04093227374555658 -0.042281711103601086 0.0219029228523537 0.015369576608628317 -0.024219653448307593 -0.083921474837869034
leaf_weight=32147.300588130951 942.28209072351456 67278.933039188385 2398.6195724308491 526.15857309103012 40829.302242875099 32785.18397128582 259.49436438083649 2704.3132005035877 58430.766040325165 35552.469924032688 37112.366444408894 14304.183470487595 66637.304742276669 61230.226651310921 1746.4146745800972 5974.2575562596321 479.83935824036598 77715.041168093681 72626.962208271027 33754.577767550945 16792.525333374739 46595.731608986855 45866.107566714287 30276.896850407124 6440.7223465144634 16046.989032298326 38880.615057826042 64443.205885529518 57305.384855091572 23925.293052077293
leaf_count=85448 2246 26480 6685 563 8854 45974 280 6881 55159 57292 68528 1964 53379 60820 1416 7514 500 43289 30003 34602 33754 14869 37365 43551 8122 27516 24051 40253 69324 52658
internal_value=0 0.0274115 -0.0433478 0.0134766 0.0630724 -0.0269747 -0.0735788 -0.080018 0.00406179 -0.0472657 -0.0683269 0.0888611 0.00557628 -0.0194945 -0.0450356 -0.0509839 -0.064196 0.0310522 0.031501 -0.0251645 -0.0681812 0.0505865 -0.00370615 -0.0442803 -0.0521974 -0.0582117 0.0112725 0.00811929 -0.0300298 -0.0885194
internal_weight=0 601517 390492 432509 169008 253303 137189 111936 281641 68228 79789 55133.5 274258 185075 25252.5 23506.1 17531.9 150868 150342 123845 17052 113875 104297 65829.4 7383 53159.4 169961 131081 90090.6 26629.6
internal_count=949340 346597 602743 294430 52167 318248 284495 241031 220575 107528 155583 10818 210207 210720 43464 42048 34534 73855 73292 149900 34034 41349 92524 100843 10368 96044 117683 93632 115298 59539
is_linear=0
shrinkage=0.0904382


Tree=11
num_leaves=31
num_cat=3
split_feature=2 13 2 1 1 13 13 2 13 13 13 13 1 3 13 1 2 13 13 28 25 13 28 2 25 21 2 13 21 25
split_gain=121766 32410.5 18578.5 7152.55 6315.42 4326.44 2935.9 3964.09 1949.04 1873.32 1805.32 1594.86 1572.71 1519.35 1245.54 1239.43 1140.76 1057.88 1041.32 1036.87 885.229 806.049 743.337 691.411 636.688 633.381 631.624 613.205 572.787 568.791
threshold=0.87500000000000011 3.3818359375000004 0.23211669921875003 9.3671875000000018 1.6333007812500002 0.34313964843750006 0.78100585937500011 1.0000000180025095e-35 0.23449707031250003 15.460937500000002 1.0000000180025095e-35 0.12118530273437501 3.0830078125000004 0.053558349609375007 5.3398437500000009 0.81665039062500011 0.053558349609375007 1.1342773437500002 5.9843750000000009 1.0000000180025095e-35 0 0.092163085937500014 -0.0034179687499999996 4.8027343750000009 1 4.5000000000000009 0.48217773437500006 1.1953125000000002 3.5000000000000004 2
decision_type=8 8 10 8 10 10 10 10 10 10 10 10 10 8 10 10 10 10 10 2 9 10 2 10 9 2 10 10 2 9
left_child=2 4 6 18 8 10 7 -1 -2 -5 -4 -9 21 -7 16 24 19 -10 23 22 -14 -6 -8 28 26 -12 -15 -22 -3 -20
right_child=1 3 5 9 12 13 14 11 17 -11 25 -13 20 15 -16 -17 -18 -19 29 -21 27 -23 -24 -25 -26 -27 -28 -29 -30 -31
leaf_value=-0.10576476831925601 -0.083633064578705119 0.021243533371328387 -0.12790546673632927 0.067478856123135991 -0.12790546522920887 0.016288638449536853 0.085007392763960146 -0.093242367305071919 -0.0097043443502054707 0.10366336978185148 -0.054741827813614079 -0.058988013109845069 0.030354750144088821 -0.03892081458302242 0.029478297054727771 -0.0127090543101924 -0.010293482555578657 0.0037844165023038323 0.048378210943663201 0.06843024102364044 -0.065573422239598514 0.012937772609636966 -0.066384242402636878 0.043853094931727982 -0.0031609737696986647 -0.032541376280005571 -0.025025035981957596 0.0083063867626457597 0.038507986187487672 0.081597005539706835
leaf_weight=29945.611076176167 2418.451827198267 32761.589880228043 2362.1639873683453 51102.992592215538 326.4661805331707 8037.9098221063614 264.24615287780762 13879.914826184511 90241.076024234295 14788.52828168869 32548.740607351065 50683.181165963411 79950.514932841063 43282.723627865314 1740.5278277993202 57088.912613064051 4710.9073238670826 96396.090011119843 38257.000074625015 488.45576843619347 1114.0275488197803 145372.93936032057 16140.472815096378 46043.400030374527 7296.9310612380505 15072.345972448587 66525.22585016489 4700.6742679476738 29077.820525527 4683.8837596178055
leaf_count=85448 4755 16575 7112 11414 694 7977 280 34258 88136 2014 56991 99174 37584 62695 1404 63092 6054 74369 12393 500 864 97491 33754 15900 8270 23029 81059 2248 12399 1407
internal_value=0 0.0228637 -0.0428641 0.0509911 0.00836828 -0.02817 -0.0718169 -0.0788402 -0.00377238 0.0756 -0.051505 -0.0663521 0.0182845 -0.0217696 -0.0433834 -0.0235257 -0.0492535 -0.00273754 0.04024 -0.0601181 0.0279038 0.0126222 -0.0639456 0.0355464 -0.0287989 -0.0477153 -0.0304995 -0.00583806 0.0293615 0.0520319
internal_weight=0 637235 350068 216715 420520 232215 117853 94508.7 189056 65891.5 49983.3 64563.1 231465 182232 23344.6 174194 21604.1 186637 150824 16893.2 85765.2 145699 16404.7 107883 117105 47621.1 109808 5814.7 61839.4 42940.9
internal_count=949340 378243 571097 72102 306141 310225 260872 218880 167260 13428 87132 133432 138881 223093 41992 215116 40588 162505 58674 34534 40696 98185 34034 44874 152024 80020 143754 3112 28974 13800
cat_boundaries=0 1 2 3
cat_threshold=1109409793 1149239296 1174405144
is_linear=0
shrinkage=0.0895338


Tree=12
num_leaves=31
num_cat=1
split_feature=2 2 2 13 13 13 13 2 13 21 13 2 13 21 1 3 25 21 13 2 2 28 28 2 21 13 21 3 21 28
split_gain=102656 27379.9 15924.2 6039.87 4702.83 3577.04 2772.05 3980.61 2129.9 1874.96 1795.96 1713.03 1694.1 1389.89 1346.99 1310.43 1006.17 990.244 961.419 929.469 797.65 858.631 746.007 706.353 705.992 667.694 641.211 598.724 579.508 532.319
threshold=0.83911132812500011 3.4101562500000004 0.23211669921875003 7.2773437500000009 1.3344726562500002 0.36499023437500006 0.99755859375000011 1.0000000180025095e-35 0.13415527343750003 4.5000000000000009 1.0000000180025095e-35 19.875000000000004 0.19476318359375003 3.5000000000000004 1.0834960937500002 0.053558349609375007 0 4.5000000000000009 5.3398437500000009 1.9819335937500002 0.053558349609375007 1.0000000180025095e-35 -0.0024414062499999996 0.48217773437500006 4.5000000000000009 1.0000000180025095e-35 4.5000000000000009 1.0000000180025095e-35 3.5000000000000004 1.0000000180025095e-35
decision_type=8 10 10 8 10 10 10 10 10 2 10 10 10 2 10 8 9 2 10 8 10 2 2 10 2 10 2 10 2 2
left_child=2 4 6 13 8 10 7 22 -2 16 -4 24 25 -3 -10 -7 19 23 20 -6 21 -8 -1 -17 -5 -9 -12 -11 -16 -24
right_child=1 3 5 11 9 15 18 12 14 27 26 -13 -14 -15 28 17 -18 -19 -20 -21 -22 -23 29 -25 -26 -27 -28 -29 -30 -31
leaf_value=0.068770831461716989 -0.10881679560994136 0.027548810805203321 -0.1266264081929418 0.051489948112303889 -0.0013760633158828145 0.015604941588718928 -0.056327609096634638 -0.12662641171943087 -0.012263330679848245 0.060274722628615024 -0.049945897768843936 0.093091763919577492 -0.048546233983302788 0.043498545104699721 -0.0047215062501271372 -0.037351481512264251 0.036233345990006299 -0.011837989748759324 0.026297313394583879 0.013023530584780233 -0.0028156278037490936 0.072293486458918838 -0.10253789365869095 -0.021785445776357614 0.073474250287129089 -0.073797336429655788 -0.028824771643498455 0.023890655805279187 0.0089063644822130941 -0.0083319174406911566
leaf_weight=204.55726188421249 1525.3594779968262 90193.054083943367 2109.1817331910133 33784.991425275803 60926.735572457314 7681.9320835769176 12832.317984461784 2028.0897211134434 79414.139757186174 3729.3984236121178 35298.277151197195 14920.076746463776 36219.413360744715 81908.391249001026 42292.45200920105 34004.672171890736 9837.558572947979 51462.967969954014 1757.7639161944389 83469.160317659378 3181.2855280935764 421.16429954767227 30157.242186933756 70161.370802640915 17381.11118543148 25680.342886090279 16605.785875707865 75313.515117764473 58326.302074164152 478.74047431349754
leaf_count=337 3832 36497 6940 8637 48065 7539 26286 6031 80595 1764 63063 1914 68760 27433 37610 50540 5935 56036 1404 49865 3896 395 91790 88099 3530 61155 25511 40628 44435 818
internal_value=0 0.0199338 -0.040705 0.0438864 0.00618086 -0.0266731 -0.0677008 -0.0737846 -0.00451687 0.0145069 -0.0464468 0.0666643 -0.0611669 0.0351398 -0.00363317 -0.0201331 0.00881802 -0.0218972 -0.0360092 0.00694725 -0.0426732 -0.0522403 -0.0999393 -0.0268669 0.058958 -0.0776641 -0.0431886 0.0256073 0.00317825 -0.101066
internal_weight=0 653022 330285 238188 414835 217324 112961 94768.4 181558 233276 54013.2 66086.2 63927.8 172101 180033 163311 154233 155629 18192.5 144396 16434.8 13253.5 30840.5 104166 51166.1 27708.4 51904.1 79042.9 100619 30636
internal_count=949340 390740 558600 78011 312729 297728 260872 228891 166472 146257 95514 14081 135946 63930 162640 202214 103865 194675 31981 97930 30577 26681 92945 138639 12167 67186 88574 42392 82045 92608
cat_boundaries=0 1
cat_threshold=1117782272
is_linear=0
shrinkage=0.0886385


Tree=13
num_leaves=31
num_cat=3
split_feature=2 13 2 2 13 13 13 2 13 13 1 21 1 13 3 1 14 21 25 2 23 25 2 28 21 25 2 21 3 21
split_gain=86989.5 25298.5 12044.7 5583 4706.12 3128.48 2755.25 3182.32 2427.43 1753.46 1674.27 1413.22 1385.15 1333.94 1108.9 1076.37 848.21 823.121 795.483 753.092 695.992 686.498 698.055 674.164 645.106 599.587 526.542 526.184 526.143 518.172
threshold=0.73217773437500011 2.8681640625000004 0.19641113281250003 8.8750000000000018 1.1450195312500002 0.34313964843750006 0.99755859375000011 1.0000000180025095e-35 0.092163085937500014 1.0000000180025095e-35 2.0830078125000004 4.5000000000000009 33.828125000000007 0.11221313476562501 1.0000000180025095e-35 0.91674804687500011 3.5097656250000004 4.5000000000000009 0 1.0000000180025095e-35 289.50000000000006 1 4.5527343750000009 -0.0024414062499999996 4.5000000000000009 2 0.48217773437500006 4.5000000000000009 1.0000000180025095e-35 3.5000000000000004
decision_type=8 8 10 8 10 10 10 10 10 10 8 2 10 10 8 10 2 2 9 10 2 9 10 2 2 9 10 2 8 2
left_child=2 4 6 11 8 9 7 23 -2 -4 28 21 -5 -9 -7 -10 19 25 29 -8 -18 22 -3 -1 -11 26 -16 -12 -6 -17
right_child=1 3 5 12 10 14 16 13 15 24 27 -13 -14 -15 17 18 20 -19 -20 -21 -22 -23 -24 -25 -26 -27 -28 -29 -30 -31
leaf_value=0.060959312091909662 -0.11852102491366458 0.016180786070079528 -0.12536014585658312 0.05615349237039502 0.041764352830520712 0.013079917882730068 -0.054351678457346508 -0.088969305783554831 -0.014938279396949274 -0.049825254474592698 0.012965714135426906 0.041403664286108685 0.10129932976812837 -0.052659594754134335 -0.037402079176915758 -0.0062611380681444574 0.025232567913395048 -0.013341063393926156 -0.029456671031874233 -0.0031695047185202963 -0.077441393030668423 0.049041855415506673 0.029937438051938048 -0.097578393633383928 -0.028780154300979372 0.0050097890023367451 -0.023492317603176726 0.024216718497037486 0.0035049606849259216 0.0070562811357801391
leaf_weight=208.04164275527 1507.0035916864872 54665.789063632488 2076.09891051054 63121.268570303917 2825.8011572957039 6840.3158336281776 10892.553442806005 9694.0260330736637 70547.208116680384 35142.93509760499 68663.507983148098 61989.55512458086 5706.4036226272583 39693.529954582453 37185.941578954458 39096.997701644897 2666.064992159605 44116.865593075752 6905.6268973052502 2778.3977419435978 628.17956948280334 8610.2685803174973 59124.78730070591 28718.558454632759 16473.94377335906 4051.3611336946487 48014.284507274628 59960.737037956715 134972.19062077999 52992.76790151
leaf_count=337 4120 27582 7349 13393 1832 6832 23726 26996 77590 66958 39441 21196 575 84594 57897 37347 2693 50991 6383 3748 837 3454 20577 92608 27020 4771 63151 29626 102553 43163
internal_value=0 0.0164949 -0.0408308 0.0385694 0.00371767 -0.0282769 -0.0663791 -0.0733245 -0.00764127 -0.0462889 0.0110104 0.0306086 0.0598965 -0.0597866 -0.0213792 -0.0066557 -0.0343179 -0.0231465 -0.000753279 -0.0439497 0.00565367 0.0251414 0.0233266 -0.0964382 -0.0431085 -0.0279934 -0.0295598 0.0182106 0.00428954 0.00140218
internal_weight=0 690690 289181 253218 437472 193902 95279.4 78314.2 171050 53693 266422 184390 68827.7 49387.6 140209 169543 16965.2 133368 98995.4 13671 3294.24 122401 113791 28926.6 51616.9 89251.6 85200.2 128624 137798 92089.8
internal_count=949340 428832 520508 86777 342055 284969 235539 204535 168603 101327 173452 72809 13968 111590 183642 164483 31004 176810 86893 27474 3530 51613 48159 92945 93978 125819 121048 69067 104385 80510
cat_boundaries=0 1 2 3
cat_threshold=1077960704 1115685156 1520961824
is_linear=0
shrinkage=0.0877521


Tree=14
num_leaves=31
num_cat=1
split_feature=2 13 2 1 1 13 13 2 13 13 13 1 13 13 13 21 21 13 2 28 13 28 13 3 3 1 13 25 2 28
split_gain=73678.2 21500.9 10177.2 4966.46 4005.53 2678.32 2621.72 3212.2 1425.6 1380.34 1351.77 1300.1 1200.34 1141.85 946.446 943.398 914.244 834.566 746.747 793.147 670.602 656.356 649.426 628.603 614.534 578.466 538.437 501.232 499.554 492.35
threshold=0.69653320312500011 2.7226562500000004 0.19641113281250003 8.9179687500000018 1.1835937500000002 0.25305175781250006 0.78100585937500011 1.0000000180025095e-35 0.068298339843750014 1.0000000180025095e-35 0.20111083984375003 33.828125000000007 0.11221313476562501 0.98706054687500011 5.4609375000000009 3.5000000000000004 3.5000000000000004 5.3398437500000009 1.0000000180025095e-35 1.0000000180025095e-35 0.75048828125000011 -1.0000000180025095e-35 1.6679687500000002 1.0000000180025095e-35 1.0000000180025095e-35 2.5498046875000004 7.2773437500000009 0 2.0175781250000004 -0.0024414062499999996
decision_type=8 10 10 8 10 10 10 10 10 10 10 10 10 10 10 2 2 10 10 2 10 2 10 8 8 10 10 9 8 2
left_child=2 4 6 14 10 9 7 29 -6 -4 -2 26 -9 15 25 -7 28 18 19 21 -12 -8 -18 -16 -20 -3 -5 -15 -10 -1
right_child=1 3 5 11 8 13 17 12 16 -11 20 -13 -14 27 23 -17 22 -19 24 -21 -22 -23 -24 -25 -26 -27 -28 -29 -30 -31
leaf_value=0.053265827977042879 -0.076115731340443027 0.013551500719431927 -0.12410654481344668 0.039460693198097904 -0.1241065443942125 -0.032551786729047155 0.085459855409526234 -0.085043945468803839 -0.0028475200531032068 -0.046405440805343895 -0.014894487551732262 0.091457622291456958 -0.04999032982721148 -0.010263809699035164 0.096348831328868484 -0.017639580950900156 0.0092792642789625256 0.022278180236452807 0.039404689815017178 0.058622071690319459 -0.0032737094229450228 -0.055943927840696767 0.021169692835620386 0.034526482121415146 -0.031676125056572441 0.025868484932801607 0.055011961515600338 0.023895528249158113 0.0089224310325784345 -0.096691627628912327
leaf_weight=166.36593568325043 2152.1808296889067 39755.160239815712 1847.0358127057552 27565.620509386063 602.97965177893639 67645.258765339851 252.26412758231163 9182.5214049220085 49009.43712246418 26225.191315859556 54112.539337813854 5879.9069654941559 37405.843144834042 19088.931925565004 1271.4640365839005 60792.971621930599 83400.670748174191 1754.1229168176651 1386.4289439618587 493.65344586968422 121919.8670873642 13825.358984082937 59328.453042447567 52292.612762868404 2716.7450715303421 104218.03720551729 43036.849759221077 3895.2512156963348 61201.9973295331 24482.705840647221
leaf_count=282 5084 21760 7128 7083 1448 106339 262 26996 42432 51931 62680 579 82672 20433 355 81712 59218 1394 1535 496 109262 32448 30244 17078 4288 41039 7918 3631 36447 85166
internal_value=0 0.0143796 -0.0388988 0.0334128 0.00229918 -0.0268714 -0.0624501 -0.0703178 0.00931415 -0.0515179 -0.00768261 0.0522089 -0.0568994 -0.0223022 0.0261353 -0.0254935 0.00963221 -0.0350143 -0.0403959 -0.0496146 -0.00684595 -0.05341 0.0142218 0.035994 -0.0076585 0.0224674 0.0489402 -0.00446871 0.0036885 -0.0956795
internal_weight=0 705748 271161 274020 431728 179495 91666 71237.4 253544 28072.2 178185 76482.4 46588.4 151422 197537 128438 252941 20428.6 18674.5 14571.3 176032 14077.6 142729 53564.1 4103.17 143973 70602.5 22984.2 110211 24649.1
internal_count=949340 442627 506713 95812 346815 271174 235539 195116 169789 59059 177026 15580 109668 212115 80232 188051 168341 40423 39029 33206 171942 32710 89462 17433 5823 62799 15001 24064 78879 85448
cat_boundaries=0 1
cat_threshold=1208223760
is_linear=0
shrinkage=0.0868746


Tree=15
num_leaves=31
num_cat=1
split_feature=2 13 2 2 13 1 13 2 13 1 13 3 13 21 21 13 13 13 8 23 13 25 21 21 28 13 27 30 15 3
split_gain=62543.9 18298.2 8520.79 4684.02 3467.87 3088.95 2742.43 1853.63 1524.82 1521.48 1447.33 1308.81 1117.52 1026.08 976.334 813.504 795.006 687.048 674.441 634.585 625.356 607.417 606.407 550.269 524.438 515.149 499.703 553.583 536.728 595.633
threshold=0.66088867187500011 2.4267578125000004 0.12496948242187501 6.2324218750000009 0.23449707031250003 1.0834960937500002 0.78100585937500011 1.0000000180025095e-35 1.0000000180025095e-35 19.414062500000004 0.068298339843750014 1.0000000180025095e-35 0.20111083984375003 4.5000000000000009 4.5000000000000009 1.1450195312500002 2.3740234375000004 0.19476318359375003 1.2055664062500002 289.50000000000006 0.65356445312500011 0 3.5000000000000004 3.5000000000000004 0.0046386718750000009 0.70581054687500011 2.1250000000000004 0.47375488281250006 320.50000000000006 1.0000000180025095e-35
decision_type=8 10 10 8 10 10 10 10 10 10 10 8 10 2 2 10 10 10 2 2 10 9 2 2 2 10 2 2 2 10
left_child=2 5 6 13 8 12 7 24 -4 22 -7 -6 -2 21 20 18 -8 -9 -12 26 -13 -3 -5 -17 -1 -14 27 28 -18 -30
right_child=1 3 4 9 11 10 16 17 -10 -11 15 14 25 -15 -16 23 19 -19 -20 -21 -22 -23 -24 -25 -26 -27 -28 -29 29 -31
leaf_value=-0.09378381079054629 -0.071920911011786021 0.013679034043263288 -0.12286547927526538 0.031529591098930984 0.010232935522656299 -0.12286547935093821 -0.047377936564427611 -0.071138216462598935 -0.048628142840692896 0.063733148649483415 0.0014631017987669281 -0.03390136616774695 -0.015550032273384957 0.02891955030322807 -0.014484316402123928 0.005030963284458523 -0.08106945993069653 -0.041877342838622017 -0.038759897048407523 -0.072196717816600461 -0.019109560043037044 0.036861548353708126 0.045009172972737148 0.014697169195290792 0.0099437611407808164 -0.0046846280233785835 -0.025263133574758505 0.098726443860969529 0.069255572663926457 -0.054649448459960628
leaf_weight=22836.898342996836 2050.2202819138765 113428.9743834734 2199.0376538187265 55572.538126468658 8499.2500084638596 638.21615965664387 12595.428459733725 13279.369376331568 29521.960671424866 19583.052198410034 82932.722402125597 68851.134085446596 46436.732472449541 62717.635859429836 48605.640128403902 81815.589604437351 399.83517101407051 10733.22336050868 3202.6273742318153 950.07739859819412 30510.420498520136 9025.7408024668694 44419.295965909958 93174.001747071743 366.33062517642975 105854.93475067616 2139.6539153158665 663.3222168982029 959.56061026453972 409.4367538690567
leaf_count=84750 5068 54285 8986 15252 9682 1765 30357 37868 65589 2539 71652 118659 56276 23945 64129 55983 774 23539 2731 1587 40123 4032 10442 54020 698 99314 3196 498 985 616
internal_value=0 0.0125303 -0.037135 0.0285421 -0.0278447 0.000803544 -0.0638953 -0.0748105 -0.0537746 0.041811 0.00649364 -0.0225878 -0.00884684 0.0199737 -0.024473 0.00680981 -0.035449 -0.0580591 -3.2443e-05 -0.00823892 -0.0293593 0.0153919 0.0375176 0.0101778 -0.0921462 -0.0079977 0.00505229 0.0317219 0.00659475 0.0321983
internal_weight=0 720852 253521 304747 188187 416105 65333.1 47215.8 31721 119575 261763 156466 154342 185172 147967 261125 18117.3 24012.6 86135.3 5521.89 99361.6 122455 99991.8 174990 23203.2 152292 4571.81 2432.15 1768.83 1369
internal_count=949340 457304 492036 110495 307168 346809 184868 146855 74575 28233 186151 232593 160658 82262 222911 184386 38013 61407 74383 7656 158782 58317 25694 110003 85448 155590 6069 2873 2375 1601
cat_boundaries=0 1
cat_threshold=1124073760
is_linear=0
shrinkage=0.0860058


Tree=16
num_leaves=31
num_cat=2
split_feature=2 2 2 13 13 5 13 13 13 13 2 21 21 13 21 13 2 25 3 28 1 23 3 21 13 2 2 25 21 3
split_gain=53091.3 15447.7 7790.65 3239.01 2763.73 2366.89 2021.15 1816.82 1750.31 1419.74 1094.5 1052.91 1025.16 982.567 882.448 844.466 793.401 760.561 735.467 716.857 710.293 651.53 611.655 575.091 545.082 530.119 529.434 475.133 489.2 471.742
threshold=0.66088867187500011 3.0175781250000004 0.19641113281250003 8.4687500000000018 1.1450195312500002 0.10562133789062501 1.0000000180025095e-35 1.0000000180025095e-35 2.1494140625000004 0.36499023437500006 1.0000000180025095e-35 4.5000000000000009 3.5000000000000004 0.068298339843750014 3.5000000000000004 0.35131835937500006 1.0000000180025095e-35 0 1.0000000180025095e-35 0.0019531250000000004 37.578125000000007 289.50000000000006 1.0000000180025095e-35 4.5000000000000009 0.47814941406250006 1.7319335937500002 5.6972656250000009 1 3.5000000000000004 1.0000000180025095e-35
decision_type=8 10 10 10 10 8 10 10 10 10 10 2 2 10 2 10 10 9 8 2 10 2 8 2 10 8 10 9 2 8
left_child=2 4 5 12 7 10 -4 -2 13 23 19 17 -3 -7 -9 -12 24 25 -11 -1 -5 -10 -18 -8 -15 -6 -14 28 -20 -13
right_child=1 3 6 20 11 8 9 14 21 18 15 29 26 16 -16 -17 22 -19 27 -21 -22 -23 -24 -25 -26 -27 -28 -29 -30 -31
leaf_value=-0.095355653555021361 -0.12163682402013348 0.017109823930059043 -0.12163682495510562 0.043140695621677758 -0.0039149097707022167 -0.11743085841989559 -0.040169464137965905 -0.011452426736992165 0.011714728358988236 0.011508696547937586 -0.064834782608523031 0.058375338091463877 0.023848300978573076 -0.083774898585383381 0.00029918567189554375 0.011038176112221429 -0.0054501383563061809 0.02559460558550011 -0.026035303057361452 0.02267730240094442 0.079183152901781254 -0.06468244183071846 -0.044759534500390059 -0.021153404893335337 -0.052245373328143344 0.0060193207012162742 0.036041748521783643 0.0032157907030381664 -0.013870350185835604 0.013809510378140601
leaf_weight=14053.392400443554 987.89176480472088 118798.35332527757 1504.4922906756401 47635.853909254074 68215.622913360596 1547.6906539797783 35456.353767007589 97370.207496255636 4788.4375310242176 6210.1479642093182 10282.544942066073 1757.1316615343094 67040.984922885895 6181.4214401841164 88368.275043994188 1186.1752912700176 3153.8310769796371 10324.173622012138 49955.134829699993 383.20933371782303 4323.818217754364 973.89046049118042 31856.182698994875 17085.81330242753 11137.331593498588 90751.973833680153 41981.936817824841 6728.4740635752678 46065.579530030489 86064.891618013382
leaf_count=53409 3919 47908 6891 9114 58142 6117 71693 107323 6328 6226 29753 823 25335 23766 80535 1876 5618 6629 75778 574 397 1686 73703 29019 32709 57625 10535 7915 58975 49019
internal_value=0 0.0112875 -0.0343249 0.0269566 0.00141029 -0.0551339 -0.0234046 -0.00647391 -0.0457995 -0.0224895 -0.0766234 0.00713611 0.0225815 -0.0505699 -0.0058614 -0.0569875 -0.0485924 0.00321165 -0.0169458 -0.0922226 0.04614 -0.00119715 -0.0412184 -0.0339858 -0.0634989 0.00175627 0.0285437 -0.0186656 -0.0201971 0.0147012
internal_weight=0 723621 248550 279781 443840 85544.1 163006 186726 59638.8 161502 25905.3 257114 227821 53876.5 185738 11468.7 52328.8 169292 108959 14436.6 51959.7 5762.33 35010 52542.2 17318.8 158968 109023 102749 96020.7 87822
internal_count=949340 457304 492036 93289 364015 235539 256497 191777 149927 249606 85612 172238 83778 141913 187858 31629 135796 122396 148894 53983 9511 8014 79321 100712 56475 115767 35870 142668 134753 49842
cat_boundaries=0 1 2
cat_threshold=1386217760 1275854848
is_linear=0
shrinkage=0.0851458


Tree=17
num_leaves=31
num_cat=1
split_feature=2 1 2 13 13 13 13 2 13 13 13 3 2 28 21 2 13 28 2 4 13 21 23 27 25 13 3 8 21 28
split_gain=45099.5 12970.7 7083.83 3370.9 2835.26 2492.86 1928.08 1782.76 1562.06 1498.4 1073.6 849.927 846.683 825.753 816.997 795.684 783.366 767.351 609.507 664.05 607.749 578.748 520.628 645.535 497.578 426.621 426.424 450.035 425.084 396.709
threshold=0.66088867187500011 2.6328125000000004 0.12496948242187501 7.2773437500000009 0.23449707031250003 0.68237304687500011 0.95581054687500011 1.0000000180025095e-35 1.0000000180025095e-35 1.0000000180025095e-35 0.99755859375000011 1.0000000180025095e-35 5.1621093750000009 -0.0073242187499999991 3.5000000000000004 1.6606445312500002 15.460937500000002 1.0000000180025095e-35 1.0000000180025095e-35 0.10055541992187501 0.12835693359375003 3.5000000000000004 289.50000000000006 1.9750976562500002 0 6.3769531250000009 0.089263916015625014 0.81811523437500011 3.5000000000000004 0.0046386718750000009
decision_type=8 10 10 10 10 10 10 10 10 10 10 8 8 2 2 8 10 2 10 8 10 2 2 2 9 10 8 2 2 2
left_child=2 6 5 12 9 7 8 29 -2 -4 14 -8 -3 -7 -6 24 -5 18 19 -15 -9 -10 23 25 28 -21 -12 -28 -13 -1
right_child=1 3 4 16 10 13 11 20 21 -11 26 15 -14 17 -16 -17 -18 -19 -20 22 -22 -23 -24 -25 -26 -27 27 -29 -30 -31
leaf_value=-0.088604277322268457 -0.12042045524516425 0.014593034566366224 -0.12042045477355566 0.033909921457417898 -0.027893700026152241 0.086190125718704574 0.036891077499913362 -0.072343142183847492 -0.012842165586320455 -0.042267952217321193 0.025050674599693162 -0.0075767946581945895 0.024788504988016206 -0.066060974387530433 -0.014627617665774584 0.0079420792278787032 0.054621628035750797 0.060312923269238733 0.00040268833450127797 0.0010081392637988679 -0.042436873329922013 -0.0016021713719509385 -0.070766997619204922 -0.03596158797516219 0.016575037157546105 0.099873440503455785 0.026432112056606925 -0.012200234879656963 0.0025759608467657655 0.004750935633776634
leaf_weight=18968.299745559692 877.85532189905643 166767.24460808933 1857.9731605947018 53929.036332011223 69467.141247034073 413.85669073462486 5502.5277858972549 7093.8330187648535 69790.787402838469 28211.255077689886 3667.7079816460609 63373.534186422825 88638.702443778515 5832.7492210119963 62812.301922798157 134586.94356399775 17086.873337626457 591.54477393627167 2619.2605366110802 1900.7677021026611 15118.621165812016 61000.918114632368 1826.4747946560383 5731.6159058958292 10132.520830154419 370.60373508930206 2506.1609949469566 14769.674366295338 54503.584294617176 329.04888436198235
leaf_count=79204 3835 78317 8986 11939 119016 395 3261 23358 81343 65589 3017 58564 26388 16956 91115 82241 2216 598 4217 3427 37243 59277 4763 13911 7744 161 2439 17006 42179 635
internal_value=0 0.0101811 -0.0317015 0.0226483 -0.0234311 -0.0566354 1.31912e-06 -0.0682703 -0.00835205 -0.047097 -0.0187867 0.00410385 0.0181314 -0.0315944 -0.0215944 0.00341681 0.0388933 -0.0341772 -0.0372347 -0.0435289 -0.0519878 -0.00759986 -0.0301586 -0.0208907 -0.00134097 0.0171393 -0.00105387 -0.00659594 -0.00288216 -0.0870124
internal_weight=0 726191 244089 326422 183292 60796.7 399769 41509.8 131670 30069.2 153223 268099 255406 19286.9 132279 262597 71015.9 18873 18281.5 15662.2 22212.5 130792 9829.46 8002.99 128010 2271.37 20943.5 17275.8 117877 19297.3
internal_count=949340 457304 492036 118860 307168 184868 338444 140440 144455 74575 232593 193989 104705 44428 210131 190728 14155 44033 43435 39218 60601 140620 22262 17499 108487 3588 22462 19445 100743 79839
cat_boundaries=0 1
cat_threshold=1140885504
is_linear=0
shrinkage=0.0842943


Tree=18
num_leaves=31
num_cat=2
split_feature=2 2 2 13 1 13 13 13 13 2 13 21 1 28 21 28 25 3 3 1 21 8 13 21 2 25 28 21 23 5
split_gain=38554.9 11695.9 5555.8 2814.69 2561.82 2515.46 1932.33 1597.38 1471.24 1088.8 996.896 924.567 723.153 712.003 680.268 678.32 649.12 631.975 588.197 582.582 555.453 548.438 538.074 532.188 478.366 416.615 415.777 410.329 401.793 390.556
threshold=0.58911132812500011 2.6601562500000004 0.089263916015625014 0.21533203125000003 8.9179687500000018 0.67675781250000011 0.86425781250000011 1.0000000180025095e-35 1.0000000180025095e-35 1.0000000180025095e-35 0.64819335937500011 3.5000000000000004 37.578125000000007 -0.0073242187499999991 3.5000000000000004 1.0000000180025095e-35 0 0.089263916015625014 0.12496948242187501 0.63330078125000011 4.5000000000000009 0.87963867187500011 4.2792968750000009 4.5000000000000009 5.8750000000000009 1 -0.0024414062499999996 4.5000000000000009 283.50000000000006 0.033447265625000007
decision_type=8 10 10 10 10 10 10 10 10 10 10 2 10 2 2 2 9 8 8 10 2 2 10 2 10 9 2 2 2 8
left_child=2 6 5 8 18 9 7 -2 -4 26 14 16 -6 -7 -5 20 -8 -12 -3 -9 -15 -21 -13 24 -20 -19 -1 -10 -22 -28
right_child=1 4 3 10 12 13 11 19 27 -11 17 22 -14 15 -16 -17 -18 25 23 21 28 -23 -24 -25 -26 -27 29 -29 -30 -31
leaf_value=0.064293416534360742 -0.1192162516545045 0.059741005123898822 -0.11921625072225193 -0.030297255662872506 0.031698848394383167 0.077028800356862742 -0.0026756830060261682 -0.016403297680174133 -0.049591491743821388 -0.051988052635872334 0.017564166004090751 0.0071237178330022452 0.065804229947161688 -0.046916170704577688 -0.01631752695186239 0.053661721332568316 0.017663560511392628 -0.015842929760595779 0.010656624374971639 -0.0030078199137108662 -0.0034292970751200126 -0.038283219935708081 0.035755109815790206 0.022143505701456428 0.020507968784299353 0.011723280499966982 -0.10071530711826064 -0.02756419252204002 -0.062378876561386645 -0.075273313920684815
leaf_weight=131.35314109921455 908.22176665067673 2160.036181807518 1870.4398604333401 51232.133288294077 74954.414666175842 412.24450507760048 146319.46147608757 40614.348567008972 18889.513661846519 12991.945628777146 5750.2805369198322 141568.76099771261 4595.0628962516785 11931.072756379843 46011.918204128742 595.48688337206841 11799.519003331661 29926.759465903044 120515.96807217598 83848.241983354092 4308.3287134766579 3186.0109731554985 4723.6596151590347 69451.506084233522 47998.642706990242 4371.5042437016964 6683.0566581785679 8557.6226777285337 990.28917840123177 11318.075459286571
leaf_count=244 4388 709 9532 96886 14818 386 121268 52893 49307 37342 5587 96155 411 30549 74278 592 8411 40147 56267 88416 9505 3514 1948 24696 14654 4806 30825 19886 2777 48143
internal_value=0 0.00858273 -0.0314168 -0.0241315 0.0206895 -0.0560071 -0.00035614 -0.008935 -0.0476039 -0.0704275 -0.0191191 0.00326682 0.0336689 -0.0313969 -0.0236826 -0.0339045 -0.00115693 -0.00803828 0.0163897 -0.00815035 -0.0369309 -0.00429913 0.0080482 0.0159962 0.0134626 -0.0123307 -0.0836394 -0.0427237 -0.0144467 -0.0847188
internal_weight=0 752644 215972 166610 319676 49361.9 432968 128557 29317.6 31124.4 137293 304411 79549.5 18237.4 97244.1 17825.2 158119 40048.5 240126 127649 17229.7 87034.3 146292 237966 168515 34298.3 18132.5 27447.1 5298.62 18001.1
internal_count=949340 488548 460792 300429 111555 160363 376993 149211 78725 116554 221704 227782 15229 43809 171164 43423 129679 50540 96326 144823 42831 91930 98103 95617 70921 44953 79212 69193 12282 78968
cat_boundaries=0 1 2
cat_threshold=1377828896 1207961600
is_linear=0
shrinkage=0.0834514


Tree=19
num_leaves=31
num_cat=2
split_feature=1 13 2 13 13 13 1 2 13 13 21 13 13 21 3 13 13 31 14 5 8 1 3 2 2 28 28 25 25 14
split_gain=33023.4 9371.41 6525.43 2228.66 2147.69 2022.55 1876.91 1510.16 2074.32 1248.91 963.5 886.87 870.915 637.852 625.572 538.346 529.865 521.766 655.77 517.514 489.513 505.922 487.239 440.913 439.571 401.118 367.717 357.956 350.25 343.978
threshold=0.63330078125000011 2.7226562500000004 0.26782226562500006 0.097869873046875014 1.0000000180025095e-35 12.300781250000002 1.2915039062500002 1.0000000180025095e-35 1.0180664062500002 1.0000000180025095e-35 4.5000000000000009 0.60864257812500011 0.64819335937500011 4.5000000000000009 1.0000000180025095e-35 0.40026855468750006 1.0000000180025095e-35 -0.028808593749999997 3.5097656250000004 0.061309814453125007 2.7275390625000004 2.8173828125000004 1.0000000180025095e-35 6.1621093750000009 5.8750000000000009 -0.027832031249999997 0.0046386718750000009 0 1 2.9814453125000004
decision_type=8 10 10 10 10 10 10 10 10 10 2 10 10 2 8 10 10 2 2 8 2 10 8 8 8 2 2 9 9 2
left_child=2 4 3 16 -2 10 14 8 19 -4 24 13 -11 -9 -6 -16 -1 25 -19 26 21 -8 -13 -12 28 -10 -5 -14 -3 -23
right_child=1 5 9 7 6 -7 20 11 17 12 23 22 27 -15 15 -17 -18 18 -20 -21 -22 29 -24 -25 -26 -27 -28 -29 -30 -31
leaf_value=-0.11802409127707311 -0.11802409000271943 0.009119703001916073 -0.11802409047361476 -0.09236668042381567 0.03059635619391194 0.039615075444054376 0.003612471088936637 -0.04160443692141684 0.070775752183906013 -0.020931854079785046 0.020332872738328598 0.023407436949375301 -0.0097922120686874652 -0.021328747749922026 -0.019462237545600693 -0.0044500087242184995 -0.071059694246274202 -0.027746673061823462 0.028366193064047678 -0.060572405093359816 -0.027312764911528311 0.011140349520533308 -0.019753465300172881 0.032632755690391528 0.01917333318636099 -0.065080063026181342 0.019057023810238157 0.012891080393082689 0.027916069639698639 0.094816276780612482
leaf_weight=2172.100167915225 1032.700167298317 90952.082073956728 806.33426409959793 6551.0314097553492 3240.9023161828518 32531.754652559757 179427.46499896049 35285.43921777606 157.25777173042297 76809.90549787879 54312.657089531422 2574.6439971327782 62284.174781411886 15131.758546680212 18237.557197853923 153828.06216670573 6689.7374746501446 6923.5724777877331 1788.8442064523697 12548.545413613319 3035.7701589614153 80338.517154172063 5822.6615289449692 31388.935091495514 67693.859104156494 2615.3445127308369 208.59744560718536 5133.2770809531212 7307.6857015788555 336.73151344060898
leaf_count=10910 4750 41934 4775 31302 2667 4942 134738 87893 134 127404 19777 2958 69027 33719 30296 156801 25612 16560 1833 49794 1669 39901 9676 6694 18738 6464 353 4804 3116 99
internal_value=0 0.00853865 -0.0266343 -0.043048 0.000978399 0.0202301 0.00125869 -0.0391393 -0.0539618 -0.0154904 0.0177242 -0.0313787 -0.0149172 -0.0355191 -0.00536386 -0.00604118 -0.082571 -0.0261593 -0.0162255 -0.0704995 0.00567073 0.0060557 -0.00652018 0.0248378 0.0140506 -0.0573745 -0.0889282 -0.00806461 0.0105214 0.0114896
internal_weight=0 723665 243503 98469.5 439478 284187 438445 89607.7 30793.2 145034 251655 58814.5 144227 50417.2 175307 172066 8861.84 11485 8712.42 19308.2 263138 260103 8397.31 85701.6 165954 2772.6 6759.63 67417.5 98259.8 80675.2
internal_count=949340 466122 483218 277208 370921 95201 366171 240686 106440 206010 90259 134246 201235 121612 189764 187097 36522 24991 18393 81449 176407 174738 12634 26471 63788 6598 31655 73831 45050 40000
cat_boundaries=0 1 2
cat_threshold=1174439953 1115685152
is_linear=0
shrinkage=0.0826169


Tree=20
num_leaves=31
num_cat=2
split_feature=1 2 13 13 2 13 2 13 13 1 21 3 13 21 13 5 31 28 25 13 13 25 3 21 0 2 28 2 3 28
split_gain=28646.5 7206.63 6695.78 2281.67 1764.52 1676.13 1464.27 1716.29 1289.73 1054.72 834.156 828.334 787.485 786.564 717.055 683.095 676.277 458.509 450.118 425.527 414.518 407.698 403.149 401.632 366.035 362.804 351.043 338.526 335.796 322.781
threshold=0.77490234375000011 0.30358886718750006 2.4267578125000004 0.11737060546875001 12.945312500000002 1.0000000180025095e-35 0.053558349609375007 2.1494140625000004 1.0000000180025095e-35 1.6333007812500002 4.5000000000000009 1.0000000180025095e-35 1.0000000180025095e-35 4.5000000000000009 0.66186523437500011 0.10028076171875001 -0.014160156249999998 0.0019531250000000004 0 0.50024414062500011 0.31311035156250006 1 1.0000000180025095e-35 4.5000000000000009 960.50000000000011 1.0000000180025095e-35 -0.0034179687499999996 4.6621093750000009 1.0000000180025095e-35 1.0000000180025095e-35
decision_type=8 10 8 10 8 10 10 10 10 10 2 8 10 2 10 8 2 2 9 10 10 9 8 2 2 10 2 10 8 2
left_child=1 3 5 12 11 -2 7 15 -3 19 20 -4 -1 21 -10 17 -9 -5 -11 -7 -8 -13 -12 -6 -23 -14 -17 -15 -16 -28
right_child=2 8 4 6 23 9 10 16 14 18 22 13 25 27 28 26 -18 -19 -20 -21 -22 24 -24 -25 -26 -27 29 -29 -30 -31
leaf_value=-0.1168438525116883 -0.11684384782116887 -0.11684384646342476 0.054804431825828961 -0.077466105380385619 0.027379502076630469 -0.013003531361374238 -0.040347529873863607 -0.042554528331275522 -0.016739873588001865 0.0069749630825427086 0.022438120076051015 0.031160790294644022 -0.088884240574875997 0.015808931178312488 0.014430185235407048 0.045789007393769884 0.016807688306567165 0.023409447694111601 -0.010465546397497409 -0.0013089207361530182 -0.0242937151790329 0.015597006702182762 -0.01668591984396434 0.044101438500395045 0.0076551693829400641 -0.053434318084953122 -0.049797948736476715 0.025741616052629337 -0.0075652174538701471 0.03475279060938459
leaf_weight=2105.4208637475967 801.66500174999237 779.51516672968864 3480.9835344552994 9016.0516163110733 28569.404068827629 23981.598793625832 23903.241666167974 2074.5248655974865 87048.196848839521 170853.1146838516 1959.1171627342701 6708.2666325569153 2550.3683641850948 46013.110587000847 4902.7010314464569 268.33527106046677 3368.4461986422539 311.85384488105774 10501.03952986002 157603.06123633683 19567.506273001432 61706.264732539654 17504.1607208848 14478.029523134232 104688.31273573637 7956.3568814247847 18580.116790190339 45805.199060440063 87729.056811779737 307.04292687773705
leaf_count=11547 3723 5069 1247 40750 5119 34206 61720 3812 137958 107621 2872 2509 12765 18471 4027 378 4861 471 6974 144668 36670 22891 35417 2054 44423 27054 64422 11130 93751 497
internal_value=0 -0.0219088 0.00882885 -0.0384649 0.0176311 0.00129201 -0.034204 -0.0479007 -0.0118653 0.00155295 -0.0268204 0.0151656 -0.0711882 0.0146448 -0.0114098 -0.0559425 -0.00581753 -0.0740936 0.0059649 -0.00285341 -0.0331212 0.0113989 -0.0127478 0.0330035 0.0105997 -0.0620393 -0.0471037 0.020764 -0.00640107 -0.0484234
internal_weight=0 289932 675190 109473 311450 363740 96860.4 33926.4 180459 362939 62934 268402 12612.1 264921 179680 28483.4 5442.97 9327.91 181354 181585 43470.7 173103 19463.3 43047.4 166395 10506.7 19155.5 91818.3 92631.8 18887.2
internal_count=949077 544041 405036 303236 107844 297192 251870 115191 240805 293469 136679 100671 51366 99424 235736 106518 8673 41221 114595 178874 98390 69823 38289 7173 67314 39819 65297 29601 97778 64919
cat_boundaries=0 1 2
cat_threshold=1077961760 541292033
is_linear=0
shrinkage=0.0817907


Tree=21
num_leaves=31
num_cat=0
split_feature=1 2 13 13 13 2 13 13 13 13 2 13 21 21 28 28 13 0 21 28 28 5 3 3 21 21 0 2 3 3
split_gain=24398.4 7510.65 4355.17 2156.05 1539.62 1378.19 1721.7 1223.44 1093.71 1030.37 935.439 816.203 781.789 602.538 596.546 498.549 495.331 474.699 448.763 501.419 444.062 454.036 424.43 394.11 389.513 377.041 359.589 356.104 350.727 342.306
threshold=0.91674804687500011 0.30358886718750006 3.6083984375000004 0.11737060546875001 1.0000000180025095e-35 1.0000000180025095e-35 0.93627929687500011 1.0000000180025095e-35 12.300781250000002 0.65356445312500011 2.0537109375000004 1.0000000180025095e-35 4.5000000000000009 4.5000000000000009 0.010498046875000002 -1.0000000180025095e-35 1.6313476562500002 1145.5000000000002 4.5000000000000009 -0.0034179687499999996 1.0000000180025095e-35 0.044540405273437507 0.089263916015625014 0.089263916015625014 3.5000000000000004 3.5000000000000004 1583.5000000000002 1.0000000180025095e-35 1.0000000180025095e-35 0.37500000000000006
decision_type=10 8 10 10 10 10 10 10 10 10 10 10 2 2 2 2 10 2 2 2 2 10 8 10 2 2 2 10 8 10
left_child=1 3 7 11 -3 6 15 -2 13 29 22 -1 16 -4 18 -5 -7 23 19 -8 21 -17 -9 -11 -24 -12 -19 -13 -14 -6
right_child=2 4 8 5 9 12 14 10 -10 17 25 27 28 -15 -16 20 -18 26 -20 -21 -22 -23 24 -25 -26 -27 -28 -29 -30 -31
leaf_value=-0.11567540808296556 -0.11567540962979633 -0.11567541143913247 0.01267358143709923 0.070918515984466232 -0.021872146347195993 -0.032416704258636728 0.078939895129660195 0.031286748869763965 0.032040069993116503 0.017867569462422739 0.0050724384775835017 -0.085854102341114735 0.017652613176471474 0.022498130832980506 0.067917807019533705 -0.087738084450131218 0.018541967452157731 -0.013012378535108617 -0.0037190181517610848 -0.041386762130276242 0.019337342283347554 -0.058011145480707689 -0.0036077181406465584 -0.0014796711957398366 0.0033593209154419864 0.012346920135172249 -0.0022013853364135643 -0.050025523463998044 -0.015875520152316035 -0.011960838260201017
leaf_weight=1946.5256108045578 556.75326971709728 893.79427315294743 118689.30964934826 177.12114217877388 34551.633030921221 45111.636747568846 233.90538266301155 2962.6036435067654 33240.491984188557 8247.1796947717667 95085.864300429821 2375.976800262928 2292.1276276409626 62473.318669527769 449.88623213768005 5048.2543717473745 1286.3174247741699 46267.077088266611 3684.7504304498434 7767.6729328334332 392.46099349856377 10125.724461585283 90808.838153421879 42364.662804335356 125092.11280274391 91833.510540425777 35766.072917073965 7756.7445547431707 19022.680297553539 67444.192391514778
leaf_count=11586 2522 6231 40369 289 59666 106229 202 2053 4908 6068 52028 12665 3526 16994 358 27185 1435 49552 8115 19953 715 45818 84574 42514 99800 40593 36394 27125 39165 100445
internal_value=0 -0.0177021 0.00920165 -0.0354186 -0.00960328 -0.0313455 -0.0464976 0.00427494 0.0185388 -0.00919923 0.00443952 -0.0676522 -0.0251068 0.0160615 -0.0235792 -0.0641646 -0.0310039 -0.00449401 -0.0271016 -0.0378693 -0.0657016 -0.067901 0.000846656 0.00167295 0.000428955 0.00864639 -0.00829884 -0.0584268 -0.01227 -0.0153183
internal_weight=0 343206 620743 107672 235535 95592.5 27879.8 406340 214403 234641 405783 12079.2 67712.8 181163 12136.2 15743.6 46398 132645 11686.3 8001.58 15566.4 15174 218864 50611.8 215901 186919 82033.2 10132.7 21314.8 101996
internal_count=949077 605236 343841 304366 300870 252990 102635 281570 62271 294639 279048 51376 150355 57363 28628 74007 107664 134528 28270 20155 73718 73003 186427 48582 184374 92621 85946 39790 42691 160111
is_linear=0
shrinkage=0.0809728


Tree=22
num_leaves=31
num_cat=2
split_feature=1 13 2 13 5 13 13 13 2 13 13 31 2 21 28 2 21 25 21 28 3 13 14 10 12 28 21 8 4 25
split_gain=20835.9 5824.99 4792.57 1684.89 1653.3 1583.95 1430.73 1080.57 1076.87 1014.98 717.066 600.805 598.619 566.035 502.774 501.776 483.833 476.9 541.393 474.824 393.492 385.273 355.688 333.21 326.906 326.28 325.611 313.144 312.759 312.591
threshold=0.63330078125000011 2.1826171875000004 0.16070556640625003 1.0000000180025095e-35 0.10028076171875001 1.0000000180025095e-35 6.7382812500000009 2.1826171875000004 1.0537109375000002 0.46032714843750006 1.0000000180025095e-35 -0.014160156249999998 1.0000000180025095e-35 3.5000000000000004 0.0019531250000000004 29.406250000000004 4.5000000000000009 0 4.5000000000000009 -1.0000000180025095e-35 0.41064453125000006 0.74389648437500011 0.23907470703125003 0.28820800781250006 5.3574218750000009 1.0000000180025095e-35 3.5000000000000004 2.1884765625000004 4.2695312500000009 1
decision_type=8 10 10 10 10 8 10 10 10 10 10 2 8 2 2 8 2 9 2 2 8 10 2 2 2 2 2 2 10 9
left_child=2 3 4 -2 12 -4 13 10 26 22 -6 -9 14 27 19 20 25 18 -10 -1 -8 -19 -7 -14 -22 -12 -5 -3 -29 -11
right_child=1 6 5 8 7 9 15 11 17 29 16 -13 23 -15 -16 -17 -18 21 -20 -21 24 -23 -24 -25 -26 -27 -28 28 -30 -31
leaf_value=0.073132812447594911 -0.11451865497775023 0.030693249857680807 -0.11451865457429054 -0.010707993685803587 -0.1145186527534279 -0.029925463822632052 0.063850686185987118 -0.032072351869698604 0.00086454119300106373 -0.0099143925363018356 -0.041404632461418747 0.027022979682080121 -0.052443666687710909 0.014674829596040386 0.019058486612952844 0.039979205197427044 -0.020461340325553842 -0.041305308409511535 0.0089761519235556086 -0.077594442635418676 0.052080992741698959 -0.005553454966011972 -0.017419010544406067 -0.014904029938148187 0.01896689365539047 0.047653194396317183 -0.0026958086087443163 0.0032212594534478528 0.011166304759743374 0.0067075083593343739
leaf_weight=136.09510046243668 831.49544289708138 3555.698395550251 1007.3753221705556 56290.248576790094 731.80171604454517 20941.196207985282 1327.5268185138702 1772.2496866881847 150808.88435581326 94612.383217275143 25234.567935749888 2938.7678744792938 6842.2080913484097 128039.79671272635 373.47520399093628 9644.4907286167145 11164.259932890534 2372.9849933385849 81421.605052709579 10220.367326751351 1966.8352692127228 10541.494682729244 48360.93899551034 1953.1953453421593 73804.88200712204 267.15836924314499 77430.375217095017 75275.316984295845 55178.452704340219 7871.967472910881
leaf_count=210 4826 1851 7389 74257 4585 50778 294 3177 115805 118694 82174 3861 24243 47783 543 1040 32327 2512 48618 52832 507 7155 89681 3747 15984 394 86178 39726 19428 8478
internal_value=0 0.00633819 -0.0211381 -0.000532109 -0.0403296 -0.0142927 0.0138172 -0.0313892 -0.000281943 -0.013705 -0.035947 0.00479176 -0.0596104 0.0108633 -0.0723185 0.0227409 -0.0343788 0.00287452 0.00370837 -0.0756137 0.0205845 -0.0121133 -0.0211981 -0.0441072 0.0198264 -0.0404717 -0.00606857 0.00722155 0.0065818 -0.00863795
internal_weight=0 728490 234428 379697 61634.1 172794 348793 42108.8 378866 171786 37397.8 4711.02 19525.3 262049 10729.9 86743.7 36666 245145 232230 10356.5 77099.2 12914.5 69302.1 8795.4 75771.7 25501.7 133721 134009 130454 102484
internal_count=949077 465964 483113 339351 208093 275020 126613 126518 334525 267631 119480 7038 81575 108788 53585 17825 114895 174090 164423 53042 16785 9667 140459 27990 16491 82568 160435 61005 59154 127172
cat_boundaries=0 1 2
cat_threshold=1078094848 1174438144
is_linear=0
shrinkage=0.0801631


Tree=23
num_leaves=31
num_cat=0
split_feature=2 1 1 13 5 13 13 2 3 13 3 2 13 2 31 21 21 13 2 28 28 13 21 14 30 2 10 6 9 13
split_gain=17853.9 4998.62 3629.65 2040.98 1739.1 1219.06 1012.84 971.421 892.092 731.131 698.547 679.804 601.916 593.367 491.513 485.9 485.849 484.741 436.898 427.205 416.976 357.742 350.126 342.647 327.637 325.117 322.971 303 302.372 292.858
threshold=0.87500000000000011 1.0000000180025095e-35 3.3671875000000004 1.0000000180025095e-35 0.12231445312500001 0.29956054687500006 0.33337402343750006 12.945312500000002 1.0000000180025095e-35 0.068298339843750014 0.16070556640625003 0.053558349609375007 2.1826171875000004 1.8037109375000002 -0.011230468749999998 3.5000000000000004 4.5000000000000009 1.0000000180025095e-35 0.053558349609375007 0.0019531250000000004 -1.0000000180025095e-35 0.29956054687500006 4.5000000000000009 0.17053222656250003 0.98608398437500011 38.515625000000007 8.6015625000000018 0.76733398437500011 2.4287109375000004 0.47814941406250006
decision_type=8 10 10 10 8 10 10 8 8 10 8 10 10 10 2 2 2 10 10 2 2 10 2 2 2 8 2 8 2 10
left_child=1 4 6 -3 11 23 17 21 28 -6 -8 19 18 16 -14 -10 -12 -2 29 20 -1 -4 -23 -5 -16 -9 -17 -19 -7 -11
right_child=2 3 7 5 9 8 10 25 15 12 13 -13 14 -15 24 26 -18 27 -20 -21 -22 22 -24 -25 -26 -27 -28 -29 -30 -31
leaf_value=0.060578349316769996 -0.11337346735635938 -0.11337346959721439 -0.09771815783751335 -0.034080823291258756 -0.10991411257615342 0.010401680937624327 0.027258656401850056 0.022979816128350813 -0.012960076791123706 -0.05514993549228802 -0.0033995181532880032 -0.035255777224439989 -0.032319403222637648 0.0054706465334714563 0.034532722519269345 -0.0048218688173907879 0.0046363176755699741 0.000179733201718477 -0.023761192007541402 0.015209188728257467 -0.07098204668914973 0.009222159463229275 0.015545893165889573 -0.018109542003028133 -0.029151087509540038 0.047526423949568929 0.083694372042774995 -0.041262806828016238 0.0487017954909034 -0.031869457723683957
leaf_weight=153.68471540510654 431.69565699249506 1218.739963106811 187.10233199596405 11812.46312636137 669.93863094598055 6682.93675583601 7077.4399790465832 37873.674047410488 87522.406401231885 5444.7492798119783 142361.30634841323 6640.8786884397268 1793.2995336651802 179078.28298872709 2290.1589188277721 85426.102849751711 71030.363935709 1792.3003267049789 29272.976095587015 388.74365398287773 11947.760536700487 122648.40651994944 100190.0545437336 29812.946730926633 654.13821229338646 3733.4100934118032 260.41055130958557 2923.6790661513805 1611.2664258182049 9076.4795732200146
leaf_count=251 2800 9392 317 34746 4659 7750 4172 5809 133874 24536 131631 20021 3163 99964 2589 108962 51312 2164 61277 570 61464 42608 31931 64689 1131 435 123 4849 984 30904
internal_value=0 -0.016676 0.00682297 -0.0109521 -0.0354685 -0.0103927 0.00209712 0.0140501 -0.00758351 -0.0275738 0.00254777 -0.0557723 -0.0264372 0.00210216 0.000434442 -0.00880102 -0.000724679 -0.0328808 -0.0293441 -0.0666807 -0.0693113 0.0119733 0.0120654 -0.0226419 0.020384 0.0251824 -0.00455286 -0.0255126 0.017842 -0.0405985
internal_weight=0 292680 669328 224347 68332.8 223129 404695 264633 181503 49201.7 399547 19131.1 48531.8 392470 4737.6 173209 213392 5147.68 43794.2 12490.2 12101.4 223026 222838 41625.4 2944.3 41607.1 85686.5 4715.98 8294.2 14521.2
internal_count=949077 571085 377992 360520 210565 351128 296892 81100 251693 128259 287079 82306 123600 282907 6883 242959 182943 9813 116717 62285 61715 74856 74539 99435 3720 6244 109085 7013 8734 55440
is_linear=0
shrinkage=0.0793614


Tree=24
num_leaves=31
num_cat=0
split_feature=2 13 13 13 1 13 2 1 13 5 21 13 2 8 31 2 0 0 8 21 30 28 28 3 0 2 3 0 28 2
split_gain=15446.9 5102.23 2806.53 1663.86 1604.23 1295.41 1105.22 1096.67 979.128 781.732 579.781 551.498 550.72 536.006 529.488 496.989 489.601 545.508 446.026 401.818 394.663 392.807 362.459 332.856 330.404 305.76 296.859 293.284 266.689 271.718
threshold=0.48217773437500006 2.1826171875000004 0.15563964843750003 1.0000000180025095e-35 1.0000000180025095e-35 1.0000000180025095e-35 9.0898437500000018 0.91674804687500011 1.9111328125000002 0.10028076171875001 4.5000000000000009 3.1533203125000004 1.0000000180025095e-35 2.1425781250000004 -0.010253906249999998 1.0000000180025095e-35 997.50000000000011 1583.5000000000002 2.3046875000000004 3.5000000000000004 1.0004882812500002 0.0019531250000000004 -1.0000000180025095e-35 2.6250000000000004 1269.5000000000002 2.1250000000000004 0.41064453125000006 1795.5000000000002 -0.0092773437499999983 0.053558349609375007
decision_type=8 8 10 10 10 10 8 10 10 10 2 10 10 2 2 10 2 2 2 2 2 2 2 10 2 10 8 2 2 10
left_child=2 3 5 -2 9 -1 13 -5 10 15 -6 28 -7 -3 -13 21 -15 24 25 -8 23 22 -4 -16 -18 -9 -19 -24 -11 -30
right_child=1 6 4 7 8 12 19 18 -10 11 -12 14 -14 16 20 -17 17 26 -20 -21 -22 -23 27 -25 -26 -27 -28 -29 29 -31
leaf_value=-0.11223973488693996 -0.11223973388995015 0.030420157252042081 0.070381066575637863 -0.0063364987343115676 -0.018620837520579143 -0.074401727873420531 0.014078346502508542 0.00048088666481814723 0.029950072316678903 0.037827682585177692 -0.0055519282442041754 -0.034652321381202077 -0.037341963251460997 0.012711841626340595 0.062523999847677009 -0.020876887972666427 0.0068818404983057406 0.042308721199546907 -0.028830662122595774 0.025523241008361123 -0.056751611756985551 0.020858262590175557 -0.070679175304534991 -0.094011872011877162 -0.0020616068352331991 0.0063257806106797303 0.010372753533064657 0.0059085904026775771 -0.036069787323222059 -0.022510257419118721
leaf_weight=1875.2068283259869 834.80833412706852 6994.0313473939896 120.73766930401325 162686.26315426826 57917.678688168526 2975.010979577899 38983.22344404459 198015.50177896023 3257.2426132261753 383.85038165748119 32833.323785603046 1034.3766000270844 14734.064519375563 101665.51160532236 1330.7212951183319 2710.1490512192249 48567.268647134304 1846.1148051023483 2906.1307586431503 36823.433818995953 237.55055376887321 349.54479399323463 6373.2533067911863 89.491972923278809 53685.2121322155 76627.961522698402 67146.079803228378 324.35242788493633 15313.276853844523 22565.587737098336
leaf_count=14378 5961 3453 159 193226 116765 17880 7993 168377 3184 543 54751 1719 49469 38763 1075 6417 19818 721 1790 6041 402 471 34689 94 25162 41560 26869 1344 57088 48915
internal_value=0 0.00422142 -0.0222282 -0.00142469 -0.0184537 -0.0501431 0.0112224 -0.00121456 -0.0123735 -0.0296983 -0.0138926 -0.0249133 -0.0435678 0.0089433 0.00945856 -0.0495372 0.0083929 0.0058288 0.00178768 0.0196378 0.0369819 -0.0603736 -0.064538 0.0526602 0.0021863 0.00211166 0.0112273 -0.0669702 -0.0273317 -0.027992
internal_weight=0 796782 164425 441071 144841 19584.3 355711 440236 94008.2 50832.9 90751 40954.9 17709.1 279904 2692.14 9878.04 272910 171245 277550 75806.7 1657.76 7167.89 6818.34 1420.21 102252 274643 68992.2 6697.61 38262.7 37878.9
internal_count=949077 539734 409343 410914 327616 81727 128820 404953 174700 152916 171516 109836 67349 114786 3290 43080 111333 72570 211727 14034 1571 36663 36192 1169 44980 209937 27590 36033 106546 106003
is_linear=0
shrinkage=0.0785678


Tree=25
num_leaves=31
num_cat=2
split_feature=13 2 1 13 13 2 2 3 8 21 23 25 2 2 13 5 14 3 3 21 31 0 21 25 13 21 31 21 28 0
split_gain=13587.1 4552.82 3890.42 2920.32 1313.51 1238.98 917.17 729.405 644.8 623.879 559.484 534.994 530.85 515.454 471.839 457.862 416.468 389.54 339.789 323.117 311.398 295.841 293.336 280.528 274.444 235.694 232.728 201.732 250.278 192.544
threshold=0.62231445312500011 0.053558349609375007 1.8164062500000002 1.0000000180025095e-35 4.5214843750000009 0.33935546875000006 1.0000000180025095e-35 1.0000000180025095e-35 0.65698242187500011 4.5000000000000009 328.50000000000006 0 18.765625000000004 1.0180664062500002 2.1826171875000004 0.050247192382812507 0.17053222656250003 1.2319335937500002 0.55346679687500011 4.5000000000000009 -0.014160156249999998 815.50000000000011 3.5000000000000004 1 1.0000000180025095e-35 3.5000000000000004 -0.017089843749999997 3.5000000000000004 0.074462890625000014 1628.5000000000002
decision_type=10 8 8 10 10 10 10 8 2 2 2 9 8 10 10 10 2 8 10 2 2 2 2 9 10 2 2 2 2 2
left_child=1 15 6 -3 22 9 10 -8 18 16 14 13 17 25 26 -1 -5 -6 -7 23 21 -16 -4 -19 -17 -9 -2 28 -22 -26
right_child=2 3 4 5 12 8 7 11 -10 -11 -12 -13 -14 -15 20 24 -18 19 -20 -21 27 -23 -24 -25 29 -27 -28 -29 -30 -31
leaf_value=-0.073810368584311822 -0.045166471709019211 -0.11111733702842198 0.003005816800927106 -0.039827740583402785 0.043004476289869267 -0.011730818444162379 0.017819527649992423 -0.010463309872499587 -0.038713972150142634 -0.011124529404971221 -0.066429988368680679 0.01040269533000383 0.025969746228858163 -5.5915456443307259e-05 -0.086637891622329252 -0.11111733679767818 -0.0227452902781725 0.031696819652170805 -0.0028706746308965422 0.017404710771232561 -0.0098587771838377376 -0.0060029182710462101 0.0080218038290971634 0.0087408338267741872 -0.050029784143269827 -0.0032702350969824427 -0.018241190149892846 0.039235732190305878 0.10502121705809579 -0.024465702136247804
leaf_weight=5902.4458748102188 2666.6342459321022 1881.6329667344689 123478.42004856467 11317.406889766455 2548.7742893099785 52633.833149045706 11605.227358013391 57915.588204473257 4114.296120673418 22670.361997917295 1452.7650963962078 19340.606808573008 21527.432306051254 151678.6967574358 346.33250254392624 393.28599029779434 36424.703374832869 3336.7859869599342 52117.276269823313 49177.059612810612 1430.077248364687 1341.7495447099209 164514.06483352184 87972.906685054302 9099.4067375063896 52582.015766531229 7148.8338554650545 1515.6476286053658 124.74225032329559 2216.7409501820803
leaf_count=36381 10079 15415 67786 37464 679 87233 9654 75247 5441 48634 5154 16471 2732 119092 815 3123 84698 859 67264 11423 2316 2362 79907 25490 42655 56484 22918 1876 59 9366
internal_value=0 -0.0183914 0.00444436 -0.014721 0.00903881 -0.0137092 -0.00228133 -0.00129068 -0.00850895 -0.0217495 -0.0203998 -0.00207848 0.0145823 -0.00299949 -0.0158114 -0.0561461 -0.0267947 0.0128685 -0.00732259 0.0123217 0.00428899 -0.0225463 0.00587117 0.00958416 -0.0472419 -0.00704037 -0.0255562 0.0190425 -0.000642023 -0.045022
internal_weight=0 198771 761704 181160 452555 179278 309149 293122 108865 70412.5 16026.8 281517 164563 262176 14574 17611.9 47742.1 143036 104751 140487 4758.55 1688.08 287992 91309.7 11709.4 110498 9815.47 3070.47 1554.82 11316.1
internal_count=949077 437674 511403 346149 188876 330734 322527 276948 159938 170796 45579 267294 41183 250823 40425 91525 122162 38451 154497 37772 7428 3177 147693 26349 55144 131731 32997 4251 2375 52021
cat_boundaries=0 1 2
cat_threshold=1275101200 560161793
is_linear=0
shrinkage=0.0777821


Tree=26
num_leaves=31
num_cat=0
split_feature=13 1 2 13 13 2 3 3 8 31 21 2 13 28 8 10 4 8 0 14 20 3 21 21 13 21 0 4 0 31
split_gain=11661.9 3947.24 3599.06 2637.54 1136.27 1006.85 906.353 679.138 601.928 555.502 524.351 513.268 502.971 466.729 440.827 414.881 392.899 342.774 336.3 320.189 270.383 267.543 258.792 254.642 249.273 239.606 236.504 232.393 213.623 209.973
threshold=0.50024414062500011 1.8164062500000002 0.053558349609375007 1.0000000180025095e-35 4.8945312500000009 1.0000000180025095e-35 0.33935546875000006 1.0000000180025095e-35 0.51733398437500011 -0.017089843749999997 3.5000000000000004 1.0180664062500002 2.4882812500000004 -0.0092773437499999983 0.48315429687500006 21.953125000000004 0.011173248291015627 4.6972656250000009 1805.5000000000002 0.14843750000000003 42.500000000000007 1.2319335937500002 3.5000000000000004 4.5000000000000009 1.0000000180025095e-35 4.5000000000000009 1820.5000000000002 1.0000000180025095e-35 815.50000000000011 0.020263671875000003
decision_type=8 8 8 10 8 10 10 8 2 2 2 10 10 2 2 2 10 2 2 2 2 10 2 2 10 2 2 8 2 2
left_child=2 5 16 -4 22 9 10 -7 -8 13 19 14 20 -2 -9 17 26 -6 -15 -5 -11 -19 -3 -23 -18 -16 -1 -12 -13 -14
right_child=1 4 3 6 15 7 8 11 -10 12 27 28 29 18 25 -17 24 21 -20 -21 -22 23 -24 -25 -26 -27 -28 -29 -30 -31
leaf_value=-0.075135966419212163 0.053643230035805678 0.0029183036152293051 -0.11000616375151771 -0.042860406525385704 0.036601265279812938 0.015511356232705902 -0.0065450193951628634 0.023553051909806583 -0.036679295849122259 -0.013841471315166378 0.024169878643657411 0.0052649099397009584 0.0047866385134551397 -0.05340459337554658 -0.0084722905405774651 0.025297656394165573 -0.11000616360755405 0.030176462492184294 0.020222694799674965 -0.023905692676113709 -0.046574885006229839 0.0084155839705165568 0.0074228496237108222 0.015703463539182005 -0.043514634738472779 -0.0018474343837296373 0.0018041641080453487 -0.014881817315585504 -0.0011140857836951551 0.053567901402100659
leaf_weight=5309.8258715867996 287.0047287940979 133010.16728892922 1740.8227751255035 6432.1729650497437 3341.1413226723671 12956.401068001986 64516.816489726305 2987.3340409398079 4185.5409107506275 7920.8235002309084 930.64560362696648 41338.776638090611 2045.7104867249727 4501.8475693017244 99878.954954206944 16210.77258682251 346.97236778587103 4449.271864593029 400.59062704443932 29616.439974397421 1844.8355988413095 81403.991644978523 175300.50970213115 43684.925157606602 9174.679814428091 47896.290365934372 247.96177804470062 31086.910753682256 126048.83475506306 703.03621435165405
leaf_count=34707 296 71990 15415 22706 964 11451 105637 3435 6093 25864 1609 32268 2853 16646 132258 2014 2941 1150 1048 70437 7400 22149 84276 9452 43176 50251 1087 69398 99483 623
internal_value=0 0.00344319 -0.0197086 -0.0158192 0.00814845 -0.0027269 -0.0146204 -0.00177025 -0.00838088 -0.0206186 -0.0209182 -0.00247403 -0.0118349 -0.0418007 -0.00573304 0.0136677 -0.055434 0.0122489 -0.0473883 -0.0272878 -0.0200252 0.0116207 0.00547952 0.0109607 -0.0459376 -0.00632507 -0.0717033 -0.0137467 0.000461299 0.0172632
internal_weight=0 806211 153589 138509 457401 348810 136769 331107 68702.4 17703.8 68066.2 318150 12514.4 5189.44 150763 149090 15079.4 132879 4902.44 36048.6 9765.66 129538 308311 125089 9521.65 147775 5557.79 32017.6 167388 2748.75
internal_count=949077 575871 373206 291295 191995 383876 275880 329146 111730 54730 164150 317695 36740 17990 185944 35729 81911 33715 17694 93143 33264 32751 156266 31601 46117 182509 35794 71007 131751 3476
is_linear=0
shrinkage=0.0770043


Tree=27
num_leaves=31
num_cat=1
split_feature=1 13 13 13 13 2 2 2 3 13 8 1 8 4 28 0 3 28 31 6 21 14 21 31 23 2 25 3 4 4
split_gain=10157.2 3305.66 2254.77 1562.32 1398.95 1354.79 888.278 870.487 718.082 666.823 507.346 564.765 467.416 423.998 403.931 384.304 381.176 373.613 393.122 326.235 323.472 300.119 297.518 284.547 282.516 281.204 273.871 253.675 252.852 251.058
threshold=0.44995117187500006 1.6914062500000002 0.28564453125000006 1.0000000180025095e-35 1.0000000180025095e-35 1.0000000180025095e-35 1.0000000180025095e-35 6.8378906250000009 0.41064453125000006 2.1826171875000004 1.7099609375000002 0.91674804687500011 1.5341796875000002 2.3574218750000004 1.0000000180025095e-35 1835.5000000000002 1.0000000180025095e-35 -1.0000000180025095e-35 -0.017089843749999997 0.013355255126953127 4.5000000000000009 0.14306640625000003 3.5000000000000004 -0.014160156249999998 278.50000000000006 31.304687500000004 0 2.6250000000000004 0.42260742187500006 1.0000000180025095e-35
decision_type=8 10 10 10 10 10 10 8 8 10 2 10 2 10 2 2 8 2 2 8 2 2 2 2 2 8 9 10 10 8
left_child=2 4 3 -1 -2 29 9 8 -3 14 11 -6 -10 -14 15 17 -8 -4 -19 -20 -9 -7 -15 24 -11 -22 28 -25 -18 -5
right_child=1 7 6 5 10 21 16 20 12 23 -12 -13 13 22 -16 -17 26 18 19 -21 25 -23 -24 27 -26 -27 -28 -29 -30 -31
