tree
version=v3
num_class=1
num_tree_per_iteration=1
label_index=0
max_feature_idx=32
objective=tweedie
feature_names=d rolling_mean_dayofweek rolling_mean_7_28 rolling_mean_28_28 rolling_mean_28_90 rolling_mean_28_180 rolling_mean_28_365 rolling_mean_dayofmonth avg_item_store std_item_store avg_item_state avg_dept_store avg_snap avg_event avg_weekofmonth n_items dept_id cat_id release weekofmonth weekofyear dayofweek dayofmonth dayofyear month event_name_1 snap_TX sell_price price_last_week price_next_week price_same_dept price_mean price_std
feature_infos=[338:1969] [0:121.1875] [0:147.625] [0:128.375] [0:120.125] [0:89.5] [0:77.125] [0:140.5] [0.01268768310546875:56.4375] [0.122802734375:44.125] [0.0262298583984375:76.4375] [0.19775390625:2.109375] [0.00852203369140625:58.71875] [0:107.75] [0:58.0625] [76:823] -1:2:6:5:3:1:0:4 -1:0:2:1 [1:1777] [1:5] [1:53] [0:6] [1:31] [1:366] [1:12] -1:30:14:15:16:17:24:25:11:12:21:26:4:19:18:23:28:22:13:27:8:29:20:6:10:2:9:5:1:3:0 [0:1] [0.04998779296875:44.875] [-7.8828125:0.9365234375] [-8.2265625:0.876953125] [0.017608642578125:7.6875] [-2.4765625:0.935546875] [0:12.5859375]
tree_sizes=3439 3465 3480 3483 3491 3526 3516 3538 3546 3558 3522 3563 3547 3572 3591 3532 3561 3561 3571 3589 3548 3554 3564 3568 3530 3552 3603 3546 3566 3580 3542 3576 3521 3571 3538 3576 3563 3585 3586 3595 3583 3591 3526 3589 3553 3570 3593 3555 3583 3556 3556 3531 3584 3561 3573 3503 3551 3560 3541 3567 3478 3564 3579 3534 3588 3490 3541 3565 3543 3528 3529 3534 3456 3545 3542 3548 3549 3550 3518 3563 3496 3516 3516 3468 3462 3547 3480 3455 3548 3469 3499 3528 3503 3477 3526 3527 3506 3510 3525 3539 3452 3563 3505 3542 3551 3495 3564 3511 3509 3406 3509 3513 3547 3516 3506 3461 3526 3457 3432 3519 3456 3516 3461 3534 3509 3516 3501 3451 3542 3556 3493 3507 3501 3491 3472 3477 3535 3485 3518 3517 3459 3512 3475 3506 3502 3504 3472 3508 3483 3440 3484 3471 3485 3445 3488 3471 3460 3457 3499 3502 3477 3489 3472 3513 3442 3473 3461 3507 3508 3454 3521 3492 3525 3484 3519 3535 3470 3442 3557 3595 3488 3479 3488 3472 3466 3482 3477 3496 3499 3501 3497 3503 3490 3453 3451 3525 3468 3495 3585 3543 3481 3499 3451 3491 3478 3504 3505 3593 3436 3525 3500 3485 3508 3499 3496 3474 3503 3495 3550 3488 3439 3444 3499 3520 3465 3449 3487 3463 3463 3443 3495 3433 3432 3448 3484 3453 3466 3419 3492 3489 3432 3422 3470 3422 3466 3421 3474 3581 3428 3506 3436 3423 3418 3410 3422 3428 3442 3414 3495 3480 3500

Tree=0
num_leaves=31
num_cat=0
split_feature=2 2 2 1 13 2 2 13 2 13 1 13 1 2 1 13 13 13 9 13 21 1 13 21 2 13 13 13 13 6
split_gain=2.02669e+06 293567 268281 50436.2 50362.9 49606.3 34080.3 12223 10395.8 8815.84 7725.02 7235.01 6698.08 6283.72 5619.3 4805.79 4328.3 3828.14 3433.24 3177.52 2948.81 2540.95 2492.45 2475.23 2410.73 2525.09 2294.69 2242.56 2089.56 1854.88
threshold=3.3037109375000004 10.480468750000002 0.98217773437500011 23.265625000000004 1.7846679687500002 5.6250000000000009 0.37500000000000006 5.5761718750000009 1.4462890625000002 0.69726562500000011 7.5507812500000009 4.1015625000000009 14.250000000000002 2.2675781250000004 40.421875000000007 9.1406250000000018 0.36914062500000006 0.23242187500000003 9.3085937500000018 6.9765625000000009 4.5000000000000009 5.0839843750000009 1.0009765625000002 4.5000000000000009 1.0000000180025095e-35 0.97631835937500011 7.9628906250000009 1.4794921875000002 0.36462402343750006 0.13153076171875003
decision_type=10 10 8 10 10 10 10 10 10 10 10 10 10 8 10 10 10 10 2 10 2 10 10 2 10 10 10 10 10 8
left_child=2 5 6 12 8 11 15 13 16 28 19 20 -3 -6 -5 17 -4 -1 27 -7 -2 -17 -10 -15 -19 -26 -13 -11 -8 -20
right_child=1 3 4 14 7 10 9 -9 22 18 -12 26 -14 23 -16 21 -18 24 29 -21 -22 -23 -24 -25 25 -27 -28 -29 -30 -31
leaf_value=0.043035041375321673 0.30050968539129963 0.6086510363565858 0.063753678290173033 0.83371556364133248 0.21304912757033617 0.42672630827169433 0.068427891937507215 0.43575145602881005 0.15138871280842331 0.11294804764832561 0.53817862094796509 0.38082613296853229 0.70975942811129644 0.25193753216850451 0.96620397582423179 0.24293655505370615 0.13833382437601638 0.045106997627506168 0.86962191128951183 0.50427956775648197 0.364714782985881 0.84197927686006868 0.19462741812500955 0.30571160806321462 0.06410873382832448 0.11882739349518345 0.47571215901171565 0.16021883630777484 0.090160300189344539 0.30886249969695984
leaf_weight=279205.99643039703 23828.971471309662 14211.344444394112 8555.2831757068634 6701.7509845495224 41948.729717254639 15580.304090023041 69274.786854028702 3324.1842269897461 18269.874065995216 79819.504110455513 19436.788134098053 18578.963661670685 12156.852929115295 28152.356301784515 6129.0102409124374 644.59445595741272 86051.308494925499 71762.323982596397 79.274832487106323 7993.6305974721909 10221.884368300438 79.545512795448303 49321.694719910622 12299.76339828968 153530.31484293938 8923.6232513189316 2953.9279396533966 11479.273928284645 122436.40974152088 230.5039529800415
leaf_count=270026 17646 6670 8118 1818 34293 9807 65449 2066 15927 72284 10328 12445 4624 22051 948 510 76005 69272 19 4486 6992 21 41120 9052 145635 8035 1732 9918 113333 169
internal_value=0.141958 0.502904 0.0948987 0.734392 0.185755 0.41087 0.0666526 0.247751 0.152988 0.0945011 0.491506 0.348474 0.655266 0.240167 0.897003 0.0513068 0.13159 0.0509437 0.120019 0.453024 0.319784 0.30874 0.18294 0.268288 0.0603715 0.0671144 0.393843 0.118892 0.0823073 0.452365
internal_weight=0 137793 1.04539e+06 39199 247923 98594.5 797466 85725 162198 283320 43010.7 55583.7 26368.2 82400.8 12830.8 514146 94606.6 513422 91608.6 23573.9 34050.9 724.14 67591.6 40452.1 234216 162454 21532.9 91298.8 191711 309.779
internal_count=1040799 77496 963303 14060 208632 63436 754671 67462 141170 261172 24621 38815 11294 65396 2766 493499 84123 492968 82390 14293 24638 531 57047 31103 222942 153670 14177 82202 178782 188
is_linear=0
shrinkage=1


Tree=1
num_leaves=31
num_cat=0
split_feature=2 1 2 13 2 13 2 2 13 13 2 2 13 13 12 2 2 13 9 7 21 13 13 2 13 21 13 1 13 1
split_gain=1.42059e+06 233982 180568 50652.1 40965.6 30092.1 24511.7 8266.07 8126.45 6513.64 6489.07 6215.3 6203.99 6153.76 4208.1 3945.52 3205.07 3204.21 2841.89 2618.2 2425.59 2260.52 2233.32 2170.45 2378.47 2057.06 1994.04 1984.25 1971.1 1889.7
threshold=2.6962890625000004 10.183593750000002 0.83911132812500011 19.914062500000004 4.9824218750000009 1.4194335937500002 0.33935546875000006 15.910156250000002 4.4843750000000009 0.67919921875000011 7.1250000000000009 44.859375000000007 2.8027343750000004 0.55908203125000011 8.0312500000000018 1.6962890625000002 1.4462890625000002 0.18859863281250003 8.6132812500000018 13.125000000000002 4.5000000000000009 5.3476562500000009 0.29089355468750006 1.0000000180025095e-35 0.93652343750000011 4.5000000000000009 6.6347656250000009 4.7089843750000009 1.3193359375000002 19.585937500000004
decision_type=10 10 8 10 10 10 10 10 10 10 10 10 10 10 2 8 10 10 2 8 2 10 10 10 10 2 10 10 10 10
left_child=2 4 6 7 12 9 14 26 15 22 20 -5 -2 -8 17 -7 -11 -1 28 -10 -6 -14 -4 -19 -25 -17 -3 -16 -15 -9
right_child=1 3 5 11 10 8 13 29 19 16 -12 -13 21 18 27 25 -18 23 -20 -21 -22 -23 -24 24 -26 -27 -28 -29 -30 -31
leaf_value=-0.098677731677061079 0.1031821157153739 0.28211261370305291 -0.084579085477282628 0.53700178991391623 0.19532581968055504 0.031900368635911953 -0.063430333414797563 0.39622279384598369 0.15208655172555713 -0.0048759223626167287 0.2769559822214343 0.67485559628796565 0.14786443994106357 -0.03781949213227781 0.061299573779434249 0.060155283066689255 0.030168977847423801 -0.096016753415741785 0.25075329102710042 0.33556284391462726 0.25437900205351976 0.20273434112583077 -0.027550502171624771 -0.078237434701630262 -0.022137682342703649 0.10021811832841546 0.35196867055406811 0.51161070203745651 0.0068624782812891222 0.47269550351901735
leaf_weight=204346.04145741463 34363.664323806763 5082.8457406759262 8223.6656333208084 7110.8548350334167 23512.161327958107 39490.841610968113 152331.33650815487 6092.5665271282196 3721.4809556007385 80479.99386203289 28384.542559623718 5836.5401511192322 37855.773239135742 93725.636494398117 983.98568749427795 41612.907409071922 37493.42381310463 73738.894432425499 346.57829397916794 958.63791024684906 9600.7729264497757 9134.5191538333893 37063.122044503689 160928.6623441577 7764.4523079991341 17992.445941925049 18885.358351945877 106.26190435886383 10790.451982438564 6595.4053875207901
leaf_count=216177 23997 2187 8350 1597 12942 32384 151310 1977 2347 71889 12786 788 24157 88750 793 32069 30909 77683 190 443 4779 5036 34301 164642 7141 13057 7010 28 9382 1698
internal_value=0 0.24557 -0.0488249 0.430815 0.181245 0.0205062 -0.0750835 0.37136 0.06219 -0.00599003 0.242222 0.599145 0.135152 -0.0507249 -0.0890718 0.0561694 0.00626178 -0.0895458 -0.0322679 0.189668 0.212448 0.158531 -0.0379064 -0.0818485 -0.0756553 0.0722486 0.337155 0.10519 -0.0332064 0.435974
internal_weight=0 192455 972099 49603.6 142851 267037 705062 36656.2 103776 163260 61497.5 12947.4 81354 257194 447868 99096.2 117973 446778 104863 4680.12 33112.9 46990.3 45286.8 242432 168693 59605.4 23968.2 1090.25 104516 12688
internal_count=1040799 98954 941845 15257 83697 225749 716096 12872 80300 145449 30507 2385 53190 249632 466464 77510 102798 465643 98322 2790 17721 29193 42651 249466 171783 45126 9197 821 98132 3675
is_linear=0
shrinkage=0.099


Tree=2
num_leaves=31
num_cat=0
split_feature=2 2 2 1 2 13 2 13 2 13 13 13 1 13 13 3 2 9 21 2 9 21 13 2 13 2 13 21 13 13
split_gain=1.03438e+06 157008 138145 39718.9 24561.5 24173.5 17001.9 7322.5 6479.4 5279.87 4619.85 4604.01 4546.94 3811.84 3756.33 3722.78 2559.76 2380.54 2255.13 2194.07 2170.15 2139.19 2006.79 1877.54 1779.44 1754.25 1751.28 1758.5 1732.13 1698.56
threshold=2.3750000000000004 8.8398437500000018 0.69653320312500011 27.585937500000004 4.3027343750000009 1.1621093750000002 0.26782226562500006 2.8798828125000004 14.480468750000002 0.47143554687500006 5.5761718750000009 0.62060546875000011 56.375000000000007 3.5830078125000004 2.6386718750000004 1.0000000180025095e-35 1.6250000000000002 7.4218750000000009 4.5000000000000009 1.2319335937500002 13.027343750000002 4.5000000000000009 0.27416992187500006 0.089263916015625014 1.2470703125000002 0.62500000000000011 13.710937500000002 4.5000000000000009 1.3520507812500002 0.44799804687500006
decision_type=10 10 8 10 10 10 10 10 10 10 10 10 10 10 10 10 8 2 2 10 2 2 10 10 10 10 10 2 10 10
left_child=2 4 6 8 14 11 13 16 18 -8 28 22 -5 23 -2 -9 -7 24 -3 -13 -15 -12 -4 -1 -11 -19 27 -16 -6 -25
right_child=1 3 5 12 10 7 9 15 -10 17 21 19 -14 20 26 -17 -18 25 -20 -21 -22 -23 -24 29 -26 -27 -28 -29 -30 -31
leaf_value=-0.096988248051681741 0.07416386358858168 0.22427365024270352 -0.08255641013599764 0.41693880400154798 0.00606954202995523 0.01562777769346127 -0.067893207982729312 0.21157276025081639 0.30905227829726939 -0.043986296009390788 0.17987652352240022 -0.016304152601683223 0.54319880568021761 -0.019233579917513562 0.09980313876885033 0.080580033645821295 0.045220025311829851 0.063144476214673825 0.27804504403411456 0.012491790320186843 0.20918174106039047 0.23296682385355408 -0.032756387140372101 -0.086181258533760699 0.0014083924522094668 0.48973159256096521 0.38574964775779502 0.14002981619882551 0.15124028543410073 -0.055220680480770452
leaf_weight=183355.24639624357 44303.681303262711 24773.37356543541 9287.9848413467407 10118.012150287628 804.04369390010834 59539.66018974781 145393.6469669342 2494.2226800918579 21156.443214416504 96087.374214231968 22935.533923387527 77003.922806441784 3757.3039274215698 3470.3258051872253 33652.292249917984 12674.004494428635 53140.446910619736 324.80371248722076 10740.446589589119 37940.560645580292 451.54689681529999 10687.91526722908 47650.505827188492 152413.34743773937 9078.6989405751228 129.52990615367889 225.99013578891754 15133.223718881607 43703.652471542358 19161.74643599987
leaf_count=210650 30001 8627 10133 1594 494 49830 155741 1276 5240 96433 9920 71267 385 3492 20325 8789 39851 213 3305 32194 252 4091 46576 171757 8030 39 74 8339 21727 20154
internal_value=0 0.179432 -0.0485672 0.302504 0.128791 0.00591626 -0.0753443 0.0381895 0.266115 -0.0557779 0.169332 -0.0180889 0.451129 -0.0890308 0.0948465 0.10212 0.0295836 -0.0391004 0.240536 -0.00679927 0.00706514 0.196752 -0.0408799 -0.0900926 -0.0400675 0.184764 0.113542 0.112281 0.148618 -0.0827235
internal_weight=0 241992 909598 70545.6 171446 299731 609866 127848 56670.3 251014 78131.1 171883 13875.3 358852 93315.2 15168.2 112680 105620 35513.8 114944 3921.87 33623.4 56938.5 354930 105166 454.334 49011.5 48785.5 44507.7 171575
internal_count=1040799 114122 926677 19151 94971 259916 666761 99746 17172 260456 36232 160170 1979 406305 58739 10065 89681 104715 11932 103461 3744 14011 56709 402561 104463 252 28738 28664 22221 191911
is_linear=0
shrinkage=0.09801


Tree=3
num_leaves=31
num_cat=0
split_feature=2 2 2 2 2 13 2 13 13 1 13 13 13 13 13 21 3 2 14 1 13 3 13 1 13 21 21 2 13 21
split_gain=779703 110621 103142 27701.4 17726 16294.1 13446.6 5506.9 4666.36 4264.96 4056.66 3556.95 3406.1 3363.55 2900.08 2507.96 2205.13 2062.79 2120.3 2596.19 2045.77 1816.15 1779.96 1612.94 1544.05 1519.29 1468.67 1415.57 1391.5 1354.31
threshold=2.0175781250000004 7.8027343750000009 0.62500000000000011 22.695312500000004 3.8750000000000004 0.98901367187500011 0.23211669921875003 2.9453125000000004 0.39672851562500006 43.000000000000007 9.7187500000000018 3.5830078125000004 2.2431640625000004 0.27416992187500006 5.0390625000000009 4.5000000000000009 1.0000000180025095e-35 1.0537109375000002 1.9204101562500002 0.18328857421875003 0.97631835937500011 11.445312500000002 2.0742187500000004 78.750000000000014 0.16516113281250003 4.5000000000000009 4.5000000000000009 1.0000000180025095e-35 4.7753906250000009 4.5000000000000009
decision_type=10 10 8 10 10 10 10 10 10 10 10 8 10 10 10 2 10 10 2 8 10 8 10 10 10 2 2 10 10 2
left_child=2 4 6 10 12 13 11 15 -8 -5 22 24 -2 -4 29 -7 -9 18 -15 -20 -10 -13 -3 -11 -1 -14 -24 -26 -22 -6
right_child=1 3 5 9 14 7 8 16 20 23 -12 21 25 17 -16 -17 -18 -19 19 -21 28 -23 26 -25 27 -27 -28 -29 -30 -31
leaf_value=-0.096611837785886931 0.048901960147957162 -0.021796486384273537 -0.077637300808784962 0.28048414278224837 0.099100882104191559 0.0065157289600188319 -0.06992794954571438 0.1646936581125342 -0.047835802143254981 0.35251242747963007 0.22038802895947845 -0.0087058963632220907 0.072352951207406868 -0.028839746560258585 0.14479024263768622 0.036085087799788577 0.062591681509789582 -0.0034779823764481631 0.84738148435759786 -0.068490951510565112 -0.014397101645044878 0.33309939809802946 0.16374369167435823 0.47780433753378887 -0.093864209518293287 0.10421167318033862 0.20126238868610391 -0.075417459872678255 0.16495898304004378 0.13373795287336507
leaf_weight=135267.6452870965 50766.993799328804 435.4488970041275 10478.713667452335 12852.071664810181 34833.441852807999 90734.621099531651 124846.20471352339 2612.5059988498688 98991.268075585365 7569.5554475784302 27647.625026464462 3710.3515033125877 44595.192800402641 102243.84446638823 39637.787779569626 38448.725699365139 8377.6972769498825 45186.263333678246 57.745827317237854 58.821120917797089 14586.842393219471 152.36396753787994 31883.854364752769 1109.0877418518066 64247.011526584625 20603.831203222275 14196.660551190376 100322.49351191521 418.9473472237587 15294.318668961525
leaf_count=169978 35061 174 12222 2018 17383 75135 144259 1163 105872 740 6716 3640 26827 101904 15569 30681 5559 40441 4 47 13764 48 9939 79 80532 11112 3849 118969 276 6838
internal_value=0 0.132894 -0.0489975 0.219081 0.0928053 -0.00315633 -0.0741932 0.020926 -0.0569682 0.315971 0.190953 -0.0877398 0.0677471 -0.0245181 0.125177 0.0153164 0.0868626 -0.0207456 -0.0283682 0.385221 -0.042775 0.00477654 0.173457 0.368524 -0.0889317 0.0824208 0.175303 -0.082619 -0.00938965 0.109669
internal_weight=0 301426 840742 95694.3 205732 298199 542543 140174 238843 21530.7 74163.6 303700 115966 158025 89765.5 129183 10990.2 147547 102360 116.567 113997 3862.72 46516 8678.64 299837 65199 46080.5 164570 15005.8 50127.8
internal_count=1040799 136305 904494 23515 112790 267156 637338 112538 264171 2837 20678 373167 73000 154618 39790 105816 6722 142396 101955 51 119912 3688 13962 819 369479 37939 13788 199501 14040 24221
is_linear=0
shrinkage=0.0970299


Tree=4
num_leaves=31
num_cat=0
split_feature=2 2 2 13 13 1 13 12 13 2 13 13 13 9 27 13 21 2 2 14 1 21 13 13 13 13 30 27 8 2
split_gain=605136 85182.1 76166.4 19902.6 13111.6 13036.4 9378.03 4166.23 4160.92 3562.46 3396.35 2951.64 2950.43 2871.41 2660.56 2138.01 1942.91 1636.53 1605.11 1946.75 1421.05 1306.1 1295.09 1272.8 1219.06 1177.21 1169.64 1090.23 1171.73 1072.49
threshold=1.6962890625000002 6.5527343750000009 0.51782226562500011 19.914062500000004 0.88012695312500011 3.1826171875000004 0.26672363281250006 9.5859375000000018 3.4736328125000004 1.0000000180025095e-35 2.3144531250000004 1.3027343750000002 0.33361816406250006 8.6132812500000018 1.2851562500000002 3.4736328125000004 4.5000000000000009 0.12496948242187501 0.91088867187500011 1.9204101562500002 9.5820312500000018 4.5000000000000009 8.1953125000000018 0.48291015625000006 0.40026855468750006 4.7753906250000009 0.35754394531250006 2.1298828125000004 13.816406250000002 1.2319335937500002
decision_type=10 10 8 10 10 10 10 2 10 10 10 10 8 2 2 10 2 10 10 2 10 2 10 10 10 10 2 2 2 8
left_child=2 5 6 7 12 10 17 20 16 13 24 23 -4 -8 26 -7 29 -1 19 -14 -3 -9 -10 -11 -2 -12 -5 28 -15 -6
right_child=1 3 4 14 8 15 9 21 22 11 25 -13 18 27 -16 -17 -18 -19 -20 -21 -22 -23 -24 -25 -26 -27 -28 -29 -30 -31
leaf_value=-0.094904363027254371 -0.077247118746945828 0.11856754725397366 -0.062649214659774868 0.24800764569678144 -0.011023739622921455 0.076086162883383296 -0.086590512951306792 0.15832205505582908 0.066272758265905521 -0.062500146446914415 0.057176766958048311 0.0094226664979249319 -0.033110647699272057 0.09164820162644563 0.23627546023270388 0.10361247722160433 0.02342428150263191 -0.079125354003352424 -0.011198515816464777 0.37688718881340555 0.14631620541143031 0.19569812827834862 0.17923806816145157 -0.044979349143609383 0.033080525212396621 0.095853286057257209 0.43440042872471168 -0.035218180540414125 0.42792740963061265 0.009665697862909951
leaf_weight=126420.16974443197 936.21852052211761 37754.577722668648 22994.826914072037 463.85597586631775 52074.108267664909 48094.723397016525 46745.136413633823 27487.001583456993 4412.8556096553802 101616.89510375261 48946.091633200645 6642.3020657896996 97971.113180100918 470.45341461896896 21008.228208303452 56772.43357872963 40128.800690591335 116586.82359719276 47819.337052106857 106.98012536764145 31023.207733035088 12573.608559608459 1188.7225457429886 61361.657524108887 71656.137956738472 8526.7901058197021 940.55965137481689 477.48384594917297 119.99930596351624 41579.485376834869
leaf_count=172465 888 12288 27552 62 47280 25815 62833 6191 2498 123297 28386 6101 103685 322 2336 23499 33063 150351 44664 41 7631 2413 420 68606 50156 3766 55 441 24 33670
internal_value=0 0.100417 -0.0496251 0.162402 -0.0126715 0.0657878 -0.0743664 0.145428 0.00913554 -0.0598735 0.0454695 -0.0533454 -0.0306686 -0.0830324 0.244833 0.0909882 0.00573941 -0.0873341 -0.0256281 -0.0326634 0.131084 0.170053 0.0902454 -0.0559035 0.0316576 0.0629149 0.372838 0.0727113 0.159991 -0.00183823
internal_weight=0 366183 768717 131251 308276 234932 460441 108838 139384 217434 130065 169621 168892 47813.1 22412.6 104867 133782 243007 145897 98078.1 68777.8 40060.6 5601.58 162979 72592.4 57472.9 1404.42 1067.94 590.453 93653.6
internal_count=1040799 163486 877313 30976 292873 132510 584440 28523 116931 261624 83196 198004 175942 63620 2453 49314 114013 322816 148390 103726 19919 8604 2918 191903 51044 32152 117 787 346 80950
is_linear=0
shrinkage=0.0960596


Tree=5
num_leaves=31
num_cat=0
split_feature=2 1 2 2 13 13 13 13 13 2 5 13 13 13 1 13 2 21 21 1 3 13 28 13 2 26 9 13 14 13
split_gain=479804 68308.6 57417.8 15813.8 10767.9 9391.4 7129.87 3873.63 3246.93 2833.13 2709.61 2526.84 2490.95 2231.12 2223.43 1706.96 1593.61 1524.33 1441.62 1330.4 1271.2 1193.58 1126.65 1029.3 1025.51 1010.04 940.629 918.906 886.847 1868.12
threshold=1.4462890625000002 5.1835937500000009 0.44641113281250006 19.156250000000004 0.70336914062500011 1.9965820312500002 0.26672363281250006 2.7216796875000004 7.9628906250000009 1.0000000180025095e-35 3.1025390625000004 3.8906250000000004 1.6416015625000002 0.25695800781250006 34.078125000000007 0.33361816406250006 0.089263916015625014 4.5000000000000009 4.5000000000000009 3.0830078125000004 1.0000000180025095e-35 0.77514648437500011 0.015380859375000002 0.48291015625000006 0.80346679687500011 1.0000000180025095e-35 13.027343750000002 0.10848999023437501 1.1508789062500002 0.74023437500000011
decision_type=10 10 8 10 10 10 10 10 10 10 10 10 10 10 10 10 10 2 2 10 10 10 2 10 10 2 2 10 2 10
left_child=2 5 6 8 13 15 16 17 21 10 22 19 23 -4 -5 -2 -1 28 -17 -7 -9 -3 -8 -11 -15 -23 -12 -18 -6 -30
right_child=1 3 4 14 7 11 9 20 -10 12 26 -13 -14 24 -16 18 27 -19 -20 -21 -22 25 -24 -25 -26 -27 -28 -29 29 -31
leaf_value=-0.094716756688265735 -0.085811496456985409 -0.081399278553980145 -0.070270757319992924 0.1566943236594078 -0.017795173876012278 0.043335765475040415 -0.08749505725870034 0.11159461697522147 0.12489410684416402 -0.06107689116346271 -0.010206995964004161 0.078546074088927692 0.025891338596806202 -0.038599956370689803 0.20337212895204049 0.01755914829038234 -0.093199783729459001 0.0095093525984930004 0.042692140847163162 0.06567418044272888 0.033710665093958189 0.089008279284540526 0.047539776392967109 -0.043326888557652564 -0.019712169825162291 0.1117223082515586 0.14062631681709464 -0.073920118499913423 0.42864789492812422 -0.00056253309224754255
leaf_weight=92296.09860265255 1276.2151663303375 342.5393528342247 16650.579352259636 20255.561435461044 68448.17908924818 60158.774662137032 41647.818023622036 2978.1782952547073 60570.965454220772 82495.099371433258 1735.4507269263268 49483.550338745117 3562.8961046338081 92125.964232623577 16953.494873523712 70949.836591243744 28936.553091287613 45055.901838004589 29108.174232602119 40240.125326037407 5212.3085939884186 53682.055201768875 566.39061415195465 46032.834883093834 36217.779615402222 26418.450653791428 476.60639142990112 98335.525875806808 91.939323425292969 36718.853985130787
leaf_count=137692 1309 181 21736 2755 66200 35837 60753 1186 13586 106322 1954 20076 3185 105437 1302 51344 42039 39691 19863 19866 3456 17595 706 53831 36590 8431 207 136049 17 31603
internal_value=0 0.0777852 -0.0499141 0.122815 -0.0187902 0.0458389 -0.0737628 -0.00165787 0.108264 -0.0595325 -0.0803071 0.0609578 -0.0525453 -0.037519 0.177962 0.0234767 -0.0852029 -0.00512817 0.0248707 0.0522891 0.0620304 0.0957422 -0.0856833 -0.0547197 -0.0332699 0.0964997 0.0222913 -0.0783035 -0.0113937 0.000509471
internal_weight=0 429440 699585 178223 303500 251217 396085 158505 141014 176517 44426.3 149882 132091 144994 37209.1 101334 219568 150315 100058 100399 8190.49 80443 42214.2 128528 128344 80100.5 2212.06 127272 105259 36810.8
internal_count=1040799 192145 848654 43850 305916 148295 542738 142153 39793 226958 63620 75779 163338 163763 4057 72516 315780 137511 71207 55703 4642 26207 61459 160153 142027 26026 2161 178088 97820 31620
is_linear=0
shrinkage=0.095099


Tree=6
num_leaves=31
num_cat=0
split_feature=2 13 2 13 13 13 13 13 2 13 2 2 13 13 1 1 13 13 1 2 21 21 3 31 14 28 21 21 28 21
split_gain=387682 54960.9 44971.9 11653.4 8379.26 8313.15 6219.44 3254.71 2938.25 2773.59 3746.67 2554.07 2116.26 1966.73 1661.84 1592.22 1350.16 1181.09 1178.68 1080.48 1050.97 1040.78 1027.44 1017.43 997.434 935.767 920.567 818.066 809.058 804.283
threshold=1.2680664062500002 4.3730468750000009 0.41064453125000006 13.710937500000002 1.9028320312500002 0.70336914062500011 0.23242187500000003 2.8798828125000004 6.4121093750000009 2.2431640625000004 1.0000000180025095e-35 3.0537109375000004 0.20025634765625003 0.33361816406250006 50.828125000000007 1.9165039062500002 0.49914550781250006 0.10107421875000001 1.0000000180025095e-35 0.66088867187500011 4.5000000000000009 4.5000000000000009 6.1250000000000009 0.24975585937500003 12.847656250000002 0.020751953125000003 3.5000000000000004 4.5000000000000009 -0.080566406249999986 4.5000000000000009
decision_type=10 10 8 10 10 10 10 10 10 10 10 10 10 10 10 10 10 10 10 10 2 2 10 2 2 2 2 2 2 2
left_child=2 4 6 8 13 12 17 21 29 10 -8 27 -4 -2 22 -15 -12 -1 25 -14 -10 -7 -5 -16 -9 28 -13 -6 -11 -3
right_child=1 3 5 14 11 7 9 24 20 18 16 26 19 15 23 -17 -18 -19 -20 -21 -22 -23 -24 -25 -26 -27 -28 -29 -30 -31
leaf_value=-0.094922366209090753 -0.080662166409005184 0.061673828649235575 -0.077979467195860352 0.20520885073468328 0.029899528779416731 -0.013713382699688532 -0.087448176865908819 0.053237641483285449 0.089497200134858998 0.29113578407544521 -0.060356181090054001 0.051617447310671659 -0.040840507112861954 0.0087531076820166268 0.16661074868567752 0.030627362214974248 -0.038965150178200868 -0.078853954429464121 0.058617030365299687 -0.024167844579884742 0.11001726968516844 0.0047480304677568249 0.12763015017017146 0.28851728866089416 0.24493788971008162 0.23908781435752746 0.071865426659074166 0.051208162409869876 -0.036337759655467039 0.085679225478509202
leaf_weight=63664.838438212872 1825.0653731226921 38929.486363887787 10382.271212458611 1577.2182121276855 50491.133995175362 88960.832747280598 39643.642641663551 6140.8252968788147 70322.625136613846 67.76044750213623 93678.441964328289 43373.847222566605 83339.241906762123 71299.076806604862 8561.3534860610962 50307.441123843193 36284.955719470978 111663.19996720552 2006.4071232676506 58734.765481233597 32278.583570480347 38905.137878119946 37272.547594070435 653.13637447357178 250.3904857635498 115.34356278181076 36779.829804897308 23357.549723863602 5105.1140404939651 18133.980164170265
leaf_count=102924 1938 14620 14597 288 31108 85229 62973 3209 16588 47 128996 19238 101948 55667 488 33646 43951 171677 1686 63807 6502 34743 4650 28 58 89 14695 12850 6448 6111
internal_value=0 0.0620422 -0.049587 0.0986629 0.0346225 -0.0219023 -0.0721222 -0.00481894 0.0864281 -0.0596675 -0.0621123 0.0492707 -0.0369464 0.0163464 0.139305 0.0178023 -0.0543839 -0.0846887 -0.00282318 -0.0339479 0.0959529 -0.00809622 0.13078 0.175252 0.0607479 -0.0261343 0.0609086 0.0366392 -0.0320481 0.0693024
internal_weight=0 485163 638943 207729 277434 286713 352230 134257 159665 176902 169607 154002 152456 123432 48064.3 121607 129963 175328 7294.63 142074 102601 127866 38849.8 9214.49 6391.22 5288.22 80153.7 73848.7 5172.87 57063.5
internal_count=1040799 218417 822382 49275 169142 303591 518791 123239 43821 244190 235920 77891 180352 91251 5454 89313 172947 274601 8270 165755 23090 119972 4938 516 3267 6584 33933 43958 6495 20731
is_linear=0
shrinkage=0.094148


Tree=7
num_leaves=31
num_cat=0
split_feature=2 1 2 2 13 13 13 13 13 2 2 13 13 13 13 13 3 21 21 14 9 13 21 26 13 13 21 2 21 3
split_gain=317081 42660.6 39218 8425.66 7582.47 5747.99 5307.51 3059.87 2561.28 3402.28 1976.13 1959.81 1431.75 1348.51 1316.36 1206.12 1142.45 1139.8 1026.7 999.471 997.559 936.752 877.932 785.479 746.059 709.828 686.918 646.755 618.43 609.89
threshold=1.1962890625000002 4.1835937500000009 0.37500000000000006 12.769531250000002 0.62060546875000011 1.6127929687500002 0.20605468750000003 2.2431640625000004 2.2431640625000004 1.0000000180025095e-35 29.906250000000004 0.13037109375000003 2.9453125000000004 0.49914550781250006 4.3730468750000009 0.20336914062500003 1.0000000180025095e-35 4.5000000000000009 4.5000000000000009 0.36828613281250006 8.6132812500000018 0.097564697265625014 4.5000000000000009 1.0000000180025095e-35 7.4785156250000009 0.76269531250000011 4.5000000000000009 1.0000000180025095e-35 4.5000000000000009 1.0000000180025095e-35
decision_type=10 10 8 10 10 10 10 10 10 10 10 10 10 10 10 10 10 2 2 2 2 10 2 2 10 10 2 10 2 8
left_child=2 5 6 14 11 15 21 18 9 -8 22 -4 28 -11 25 -2 -9 -17 -6 -13 -10 -1 -5 -16 -14 -3 -21 -23 -7 -15
right_child=1 3 4 10 7 12 8 16 20 13 -12 19 24 29 23 17 -18 -19 -20 26 -22 27 -24 -25 -26 -27 -28 -29 -30 -31
leaf_value=-0.093298828484403767 -0.096537114416900507 -0.052993537050952 -0.09313763939237435 0.087275886561088326 -0.017068263162771179 0.025469211712913695 -0.085659105993007245 0.082416686899294836 -0.021016756579920637 -0.059671559766822008 0.12759196668272227 -0.047307277528085549 0.044233576237918029 0.0010993741551886631 0.068152887112351068 0.0041940744635448448 0.016894303432054586 0.025627209996133209 0.00035836574030895235 -0.035644394130264989 0.06978282453552509 -0.095198195403426389 0.11256717371831988 0.084359374813495383 0.076667255689429378 0.056621106381037893 -0.017263992414132321 -0.074071417591196856 0.041647818270488274 -0.041538777422463452
leaf_weight=55793.861716449261 923.87764519453049 518.62458622455597 5487.8663855791092 36968.835199594498 96472.171624481678 72395.520814657211 39477.111643493176 3773.9434751272202 5755.9768218398094 93638.810265421867 23857.589998722076 46523.322721600533 63289.973825931549 3281.6265109777451 77606.03959107399 74101.383631706238 5967.0318323373795 30397.287552297115 42225.514243721962 61379.082522153854 1285.9931884407997 15292.919854223728 17600.492170810699 39055.39090359211 6825.8099144697189 49305.611371874809 24801.415009617805 71177.785129129887 28648.343276977539 26042.920186340809
leaf_count=98280 1215 339 8452 5597 97168 44133 67823 1525 7305 138339 1565 62782 28208 3976 19871 58418 4242 22385 39596 73719 802 26840 2190 9670 2123 18932 29209 117000 15961 33134
internal_value=0 0.051698 -0.0477288 0.0800277 -0.0228435 0.0266122 -0.0706091 -0.00821643 -0.0594667 -0.0618524 0.105216 -0.0385552 0.0371574 -0.0542093 0.0681621 0.00949129 0.0422796 0.0104287 -0.0117629 -0.036298 -0.00443508 -0.0838831 0.0954332 0.0735784 0.047391 0.0554801 -0.0303548 -0.0778078 0.0300562 -0.0367673
internal_weight=0 521495 598377 244913 286630 276582 311747 148439 169482 162440 78426.9 138192 171160 122963 166486 105423 9740.98 104499 138698 132704 7041.97 142265 54569.3 116661 70115.8 49824.2 86180.5 86470.7 101044 29324.5
internal_count=1040799 230607 810192 58164 316693 172443 493499 142531 251379 243272 9352 174162 90425 175449 48812 82018 5767 80803 136764 165710 8107 242120 7787 29541 30331 19271 102928 143840 60094 37110
is_linear=0
shrinkage=0.0932065


Tree=8
num_leaves=31
num_cat=1
split_feature=2 1 2 13 13 13 13 13 13 2 13 2 13 13 13 14 2 2 21 4 21 14 1 3 25 26 23 21 13 28
split_gain=261995 34844.1 32801.1 7641.94 6653.37 4971.24 3746.41 3078.64 2433.52 2618.13 1963.82 1509.24 1259.61 1208.89 1178.59 1162.71 1081.42 1076.81 1032.46 830.374 783.926 869.185 1395.97 751.416 744.664 714.739 686.235 686.017 680.105 598.437
threshold=1.0893554687500002 3.9169921875000004 0.30358886718750006 0.55908203125000011 11.421875000000002 1.5922851562500002 0.17163085937500003 4.4843750000000009 2.2431640625000004 1.0000000180025095e-35 0.085296630859375014 9.1953125000000018 1.1816406250000002 0.49914550781250006 0.20336914062500003 0.34472656250000006 36.828125000000007 2.4462890625000004 4.5000000000000009 4.4707031250000009 4.5000000000000009 1.9204101562500002 0.18328857421875003 1.0000000180025095e-35 0 1.0000000180025095e-35 12.500000000000002 4.5000000000000009 2.1230468750000004 1.0000000180025095e-35
decision_type=10 10 8 10 10 10 10 10 10 10 10 10 10 10 10 2 10 10 2 8 2 2 8 8 9 2 2 2 10 2
left_child=2 5 6 10 11 14 -1 12 9 29 -4 27 20 -11 -2 -12 24 23 -16 -10 21 -5 -23 -7 -6 -19 -21 -3 -13 -8
right_child=1 4 3 7 16 17 8 -9 19 13 15 28 -14 -15 18 -17 -18 25 -20 26 -22 22 -24 -25 -26 -27 -28 -29 -30 -31
leaf_value=-0.084711177108235072 -0.093758740713068181 0.047186914573311214 -0.098947090017075995 -0.02303636603095606 0.080204217365377098 0.086832547055350151 -0.085476404246741342 0.082978290809932534 -0.023568110185977542 -0.061283835091005899 -0.049275067556612463 -0.0579025175268882 0.0030030437905704901 -0.035648405793958914 0.0014988732498212431 -0.032052115255598999 0.10887522692633614 0.031609868460225871 0.020282393580798305 0.2761483016093777 -0.0063931284067517847 0.4629699042182126 -0.074468127227973649 0.021303167631735117 0.12127697518487025 0.048823692531186715 0.037805618842770318 0.060288116784231183 0.070605486063080716 0.0089343718733304565
leaf_weight=101296.12290835381 996.50322145223618 84646.757344782352 4848.1030107140541 83511.994387686253 49400.172667503357 1520.1441894769669 40341.223138868809 2876.2936981320381 5305.5192207694054 86739.070631742477 57011.51099383831 352.70715439319611 31601.634483456612 19114.218833088875 84956.937057137489 80500.233375072479 19359.750570297241 60782.106780529022 35256.167124211788 112.31135356426239 36374.455173432827 80.776357054710388 83.887400269508362 75010.211589097977 4154.7510194778442 31019.052383780479 1221.8158614635468 56911.606158792973 60235.730883598328 579.87780219316483
leaf_count=188700 1477 27827 8288 91769 6505 731 75136 980 6826 139343 83772 99 26694 25309 69378 103282 1026 27680 26501 30 37384 13 53 47168 557 13841 961 17862 10711 896
internal_value=0 0.0427706 -0.0466456 -0.0258036 0.0662894 0.0204279 -0.070939 -0.0115942 -0.0618455 -0.0643173 -0.0412276 0.0576703 -0.0133879 -0.0566548 0.00617928 -0.0391926 0.0901847 0.0306878 0.00700771 -0.00720444 -0.0177025 -0.0226188 0.189174 0.0226048 0.0834282 0.0374263 0.0578701 0.0524541 0.0698574 -0.0841385
internal_weight=0 564603 551599 296889 275061 289541 254710 154529 153414 146774 142360 202147 151653 105853 121210 137512 72914.7 168332 120213 6639.65 120051 83676.7 164.664 76530.4 53554.9 91801.2 1334.13 141558 60588.4 40921.1
internal_count=1040799 251363 789436 352235 64587 186776 437201 156893 248501 240684 195342 56499 155913 164652 97356 187054 8088 89420 95879 7817 129219 91835 66 47899 7062 41521 991 45689 10810 76032
cat_boundaries=0 1
cat_threshold=1621504329
is_linear=0
shrinkage=0.0922745


Tree=9
num_leaves=31
num_cat=2
split_feature=2 13 2 13 13 14 13 2 13 1 13 13 13 2 21 9 3 2 14 25 1 2 25 2 14 26 1 28 13 21
split_gain=218302 31813.9 25578 6604.67 5576.51 4982.15 3195.38 2741.49 2587.6 2188.95 1576.83 1510.7 1350.26 1300.16 1124.38 994.109 902.492 838.703 862.555 807.293 765.803 763.044 705.58 677.055 629.611 587.708 574.857 573.798 567.429 477.916
threshold=0.98217773437500011 3.4736328125000004 0.26782226562500006 1.2543945312500002 0.42333984375000006 8.7929687500000018 1.3193359375000002 0.089263916015625014 0.33361816406250006 2.5498046875000004 0.074249267578125014 0.92578125000000011 0.17163085937500003 20.765625000000004 4.5000000000000009 8.6132812500000018 1.0000000180025095e-35 0.62500000000000011 1.9204101562500002 0 1.3666992187500002 6.4121093750000009 1 1.0000000180025095e-35 0.25988769531250006 1.0000000180025095e-35 78.750000000000014 0.0056152343750000009 0.44799804687500006 4.5000000000000009
decision_type=8 10 10 10 10 2 10 10 10 8 10 10 10 8 2 2 8 10 2 9 10 10 9 10 2 2 10 2 10 2
left_child=2 3 6 8 10 14 7 -1 -2 25 -4 17 -9 -7 19 23 -13 -6 29 -3 -10 -21 -18 27 -12 -5 -15 -8 -14 -19
right_child=1 5 4 9 11 13 15 12 20 -11 24 16 28 26 -16 -17 22 18 -20 21 -22 -23 -24 -25 -26 -27 -28 -29 -30 -31
leaf_value=-0.083270430016200353 -0.062437190758372757 0.074323557749681482 -0.099826400725376643 0.011814433220588068 -0.030446956533233826 0.063484590543080074 -0.048867452192042964 -0.075590585462529378 -0.0060496746191779872 0.034969482918209963 -0.053320677683612733 0.046739510406165842 -0.058591201523547173 0.080818582729517474 0.057535781259735963 0.052171982062518663 -0.012264986187461272 -0.021436763550497884 0.20974927326354995 0.033148216009681306 0.0096302210664270822 0.04830175297158925 0.019962328682280605 0.012522489478685554 -0.037593001712470354 0.025284971058516095 0.12755209457887934 0.13058235432889972 -0.037535646794668101 -0.0038281739920928933
leaf_weight=100565.16566634178 5743.6601305007935 6068.7688940763474 4255.1291615962982 79177.537999749184 66989.512496829033 71104.402968049049 7282.8493194282055 40284.544096618891 62182.397192955017 94945.318786144257 32295.077525794506 2736.5260744690895 54904.484215915203 44027.877799510956 56116.866880536079 1331.6140850186348 37054.152534544468 43282.500769853592 141.31207853555679 60843.551779866219 44663.83805590868 50952.83904004097 6684.544243812561 2196.5047107338905 62057.57074213028 41037.71961671114 2311.8644695281982 151.7977539896965 13260.689720034599 18301.767066955566
leaf_count=200314 8535 1848 8014 51650 85480 12061 12169 78510 56605 42992 52515 2234 93247 3313 14476 785 35285 49447 39 22337 34701 11323 6020 2326 89749 26208 79 160 18794 19583
internal_value=0 0.0347466 -0.0466885 0.0152207 -0.0280522 0.0567062 -0.0698844 -0.0724059 -0.00270609 0.0246015 -0.0454295 -0.0182712 -0.0623312 0.071244 0.0468927 -0.0218096 -0.0041538 -0.0233686 -0.0156865 0.0418254 0.000504832 0.0400511 -0.00733796 -0.0320384 -0.0429763 0.0164129 0.0831501 -0.0452035 -0.0544951 -0.0162038
internal_weight=0 619177 493776 327750 273798 291426 219978 209015 112590 215161 98607.8 175190 108450 117444 173982 10962.8 46475.2 128715 61725.6 117865 106846 111796 43738.7 9631.15 94352.6 120215 46339.7 7434.65 68165.2 61584.3
internal_count=1040799 286128 754671 220691 348366 65437 406305 390865 99841 120850 150278 198088 190551 15453 49984 15440 43539 154549 69069 35508 91306 33660 41305 14655 142264 77858 3392 12329 112041 69030
cat_boundaries=0 1 2
cat_threshold=407535113 1073741824
is_linear=0
shrinkage=0.0913517


Tree=10
num_leaves=31
num_cat=2
split_feature=2 2 2 13 13 1 13 13 2 13 1 13 21 13 13 13 14 13 15 21 28 7 25 13 25 14 6 3 21 3
split_gain=182671 25877 22068.2 5105.61 4518.37 3578.24 3257.16 2042.39 2375.55 1823.73 1593.23 1406.38 1135.98 1073.72 907.821 895.275 877.522 862.501 845.104 833.41 801.654 792.087 768.162 716.979 620.316 596.425 1128.01 581.859 512.373 503.597
threshold=0.91088867187500011 3.5898437500000004 0.26782226562500006 1.2011718750000002 0.39672851562500006 17.750000000000004 0.15527343750000003 1.9965820312500002 1.0000000180025095e-35 0.20336914062500003 2.2919921875000004 0.034194946289062507 4.5000000000000009 6.6347656250000009 0.45959472656250006 11.421875000000002 10.761718750000002 0.50024414062500011 662.50000000000011 4.5000000000000009 0.64721679687500011 0.41662597656250006 0 0.86450195312500011 1 1.9204101562500002 0.13153076171875003 0.16070556640625003 4.5000000000000009 1.0180664062500002
decision_type=8 10 10 10 10 10 10 10 10 10 8 10 2 10 10 10 2 10 2 2 2 10 9 10 9 2 10 8 2 8
left_child=2 3 6 9 11 13 -1 8 -8 -2 24 -4 23 17 -10 -12 -9 -3 -18 -11 28 -20 29 25 27 -6 -27 -5 -19 -15
right_child=1 5 4 10 12 -7 7 16 14 19 15 -13 -14 22 -16 -17 18 20 21 -21 -22 -23 -24 -25 -26 26 -28 -29 -30 -31
leaf_value=-0.082044325089511871 -0.076334626597912597 -0.088781648594941198 -0.10048689732488682 0.052446303090356319 -0.028344562964836579 0.066619701207691603 -0.08072679791848994 -0.021896482637573888 -0.057635437035118142 -0.0072025276303474108 0.027283989298580974 -0.042164937368605951 -0.0074952240880168854 0.10057482662929683 -0.034016099663213159 0.11570797417912003 -0.05051355874169744 0.033653247897049585 0.43879059881801469 0.0097084741301791729 0.26094504896967952 0.10804504383260911 0.077189762901021072 -0.011973093911609693 0.035248006982311293 0.3726956926036048 -0.072402931020083772 0.0097277867984952946 0.045629917556917331 0.046423349262718065
leaf_weight=76539.874317258596 2770.1710219979286 442.75157588720322 3534.0884746313095 2672.4920368790627 84999.997776031494 64245.177224516869 36289.305465757847 6595.2419257462025 70541.651025682688 78338.532572031021 98506.693435311317 78457.393372535706 50908.384716749191 1422.6873373985291 16404.99386125803 945.51630139350891 235.11635076999664 92536.58534514904 70.998687267303467 34259.300666689873 131.37622082233429 357.06375813484192 7450.2658584117889 31245.991976618767 9157.6515744328499 86.545199871063232 100.82252794504166 107883.98218858242 42695.77334177494 110757.04474544525
leaf_count=166125 5025 289 7282 1447 108899 5065 78162 8995 128980 72858 48498 124939 57311 285 23920 197 138 30443 17 28912 25 90 1320 31464 5656 4 54 71151 11946 20792
internal_value=0 0.0291413 -0.0454081 0.0115586 -0.027286 0.047541 -0.0672327 -0.0585451 -0.061291 -0.00384067 0.0196647 -0.0446788 -0.0187641 0.0427425 -0.053179 0.0281247 -0.011925 0.0372393 0.0872404 -0.00205714 0.0376515 0.162903 0.0489899 -0.0236912 0.0126366 -0.0279893 0.133188 0.0107595 0.0374345 0.0471059
internal_weight=0 654216 456367 334534 249333 319682 207034 130494 123236 115368 219166 81991.5 167342 255436 86946.6 99452.2 7258.42 135806 663.179 112598 135364 428.062 119630 116433 119714 85187.4 187.368 110556 135232 112180
internal_count=1040289 303909 736380 233744 329953 70165 406427 240302 231062 106795 126949 132221 197732 65100 152900 48695 9240 42703 245 101770 42414 107 22397 140421 78254 108957 58 72598 42389 21077
cat_boundaries=0 1 2
cat_threshold=1913749832 1073745984
is_linear=0
shrinkage=0.0904382


Tree=11
num_leaves=31
num_cat=1
split_feature=2 13 2 1 13 13 13 2 13 2 13 13 1 14 13 3 21 26 2 21 28 31 21 28 3 14 29 25 2 26
split_gain=154151 25035.4 16473.5 4492.45 3801.1 3753.09 2935.96 2238.86 1964.18 1459.05 1370.41 1307.04 1245.79 997.828 933.429 804.144 759.065 751.954 738.453 710.617 706.7 685.178 642.866 621.83 603.605 525.962 509.635 507.885 483.329 457.318
threshold=0.76782226562500011 2.4716796875000004 0.23211669921875003 6.3652343750000009 1.0009765625000002 0.38793945312500006 0.84082031250000011 0.053558349609375007 0.14538574218750003 1.8750000000000002 1.0000000180025095e-35 0.13897705078125003 17.750000000000004 10.761718750000002 1.5922851562500002 0.30358886718750006 4.5000000000000009 1.0000000180025095e-35 1.0000000180025095e-35 4.5000000000000009 -0.072753906249999986 0.096923828125000014 4.5000000000000009 0.0056152343750000009 1.0000000180025095e-35 0.20977783203125003 0.74755859375000011 0 3.5898437500000004 1.0000000180025095e-35
decision_type=8 10 10 8 10 10 10 10 10 8 10 10 8 2 10 8 2 2 10 2 2 2 2 2 8 2 2 9 10 2
left_child=2 4 6 15 8 10 7 -1 -2 19 -4 -9 26 18 22 -3 -10 27 20 -6 -8 -15 -7 -22 -20 -12 -5 28 -17 -11
right_child=1 3 5 12 9 14 13 11 16 29 25 -13 -14 21 -16 17 -18 -19 24 -21 23 -23 -24 -25 -26 -27 -28 -29 -30 -31
leaf_value=-0.083033927957327558 -0.087782405374834699 0.068587969004578045 -0.099482028106229858 0.042229920041204856 -0.00045794492790487171 -0.026198033007774443 0.17240088118985575 -0.075887838636259808 -0.011911042377698283 0.015692983944996918 -0.053800660583894842 -0.053906791945668671 0.056945479955875768 0.047397091525753388 0.012194950555240181 0.015003385196412202 0.0042190087904372944 0.035357136690429357 0.05731788613744191 0.015611638037461663 -0.052355917034795946 0.36790072562888876 -0.012380075963799702 0.087320825968384697 -0.021901696045581266 -0.037652780143138019 0.20994689307695685 0.04428102822753098 0.026787219238073406 0.02915321391258472
leaf_weight=63879.506974190474 2465.6878599822521 3877.4811192750931 3443.3248840868473 143619.54403281212 70010.204100608826 88996.14674949646 116.51900798082352 32947.060861468315 76535.673363000154 60448.263851225376 21853.29551038146 63442.212849646807 70268.989702701569 637.33711731433868 6733.7203215956688 49003.30740070343 33678.798554360867 62770.294716715813 996.15191322565079 32208.392097473145 11322.774377912283 58.36699104309082 38738.722921848297 261.40269589424133 3411.4342368841171 62169.91860884428 145.38487529754639 8610.8543725013733 64799.541372299194 30415.473932802677
leaf_count=148781 4503 1345 7804 26826 56399 115978 139 75896 79114 33146 40959 120637 5875 236 5486 23086 31592 23131 1136 22805 21841 9 47142 305 4400 101991 19 3203 20204 16301
internal_value=0 0.023637 -0.0459349 0.0382916 0.00431745 -0.029685 -0.0663018 -0.0700349 -0.00875019 0.0119435 -0.0441213 -0.0614202 0.0471751 -0.0306974 -0.0202947 0.0282346 -0.0069821 0.0273897 -0.0352315 0.00460547 -0.0469972 0.0742862 -0.0220074 -0.049204 -0.0039974 -0.0418526 0.0423995 0.0233042 0.0217112 0.0201986
internal_weight=0 708858 399008 403095 305762 221935 177073 160269 112680 193082 87466.5 96389.3 214034 16804 134469 189061 110214 185184 16108.3 102219 11700.7 695.704 127735 11584.2 4407.59 84023.2 143765 122414 113803 90863.7
internal_count=1040289 347549 692740 103689 243860 319360 373380 345314 115209 128651 150754 196533 32720 28066 168606 70969 110706 69624 27821 79204 22285 245 163120 22146 5536 142950 26845 46493 43290 49447
cat_boundaries=0 1
cat_threshold=1143111744
is_linear=0
shrinkage=0.0895338


Tree=12
num_leaves=31
num_cat=0
split_feature=2 1 2 13 13 13 13 2 13 13 13 21 13 13 14 1 2 3 21 14 26 13 7 13 28 28 1 15 3 29
split_gain=130862 20794.4 14517.7 3373.83 3195.26 3187.85 2854.36 2225.33 1496.47 1226.12 1175.83 1036.75 982.641 883.683 866.965 860.708 749.49 717.575 646.699 681.842 633.957 614.318 611.147 608.135 603.469 619.034 583.327 558.444 525.084 459.502
threshold=0.73217773437500011 2.5498046875000004 0.23211669921875003 1.1816406250000002 6.0527343750000009 0.33264160156250006 0.74023437500000011 0.053558349609375007 0.14538574218750003 0.13897705078125003 1.0000000180025095e-35 4.5000000000000009 0.92578125000000011 0.25695800781250006 10.761718750000002 0.77490234375000011 1.0000000180025095e-35 0.37500000000000006 4.5000000000000009 1.9204101562500002 1.0000000180025095e-35 13.710937500000002 1.0000000180025095e-35 4.4843750000000009 -1.0000000180025095e-35 0.0056152343750000009 1.2915039062500002 662.50000000000011 1.0000000180025095e-35 0.64672851562500011
decision_type=8 10 10 10 10 10 10 10 8 10 10 2 10 10 2 10 10 10 2 2 2 10 10 10 2 2 10 2 8 2
left_child=2 3 6 8 13 10 7 -1 -2 -9 -4 21 18 -3 16 -10 24 -5 19 -7 -15 -6 -21 -14 -8 -26 -19 -16 -18 -22
right_child=1 4 5 17 11 12 14 9 15 -11 -12 -13 23 20 27 -17 28 26 -20 22 29 -23 -24 -25 25 -27 -28 -29 -30 -31
leaf_value=-0.081277774772007066 -0.083474092039297815 -0.090566428987173583 -0.098487206863413126 0.033377643126269223 0.032524298972711772 -0.028825503664632764 0.11177292270633968 -0.073334392142991464 -0.01503926948915147 -0.051551849184551052 -0.042232631713478623 0.049876266827686748 -0.0065634825253927933 0.022376471938468961 -0.049363085979809151 -0.00060565203805562704 0.041177990032097989 0.0022958071193249162 -0.014314230012925786 0.28867418203065975 0.032625307084279208 0.044963714650092072 -0.061687315948116862 0.079544558618677888 -0.052516743458918949 0.074405215961688656 0.013872989301116731 0.11662570054527747 -0.022971959070066987 0.28937751701479636
leaf_weight=57676.234102755785 1960.9601602256298 513.42252230644226 3069.4264360964298 11288.384403824806 92969.529856920242 83780.482418894768 185.2468593120575 30829.472746759653 49210.025837510824 59462.700505822897 59669.156561553478 70552.264279842377 21867.769741356373 136505.304048419 234.49420672655106 95365.471779584885 1297.4229119420052 49768.665023684502 36317.139732837677 100.19187092781067 68355.118475675583 46940.243215322495 64.168586790561676 663.96853196620941 12241.810007959604 309.55013671517372 109267.65272921324 496.24757248163223 4410.0230034589767 54.808952569961548
leaf_count=144761 4318 502 7614 5717 17535 119583 243 75896 54057 118856 108254 9097 22189 51364 138 89912 1528 35540 48556 9 24662 3827 41 332 25371 358 63792 108 6121 8
internal_value=0 0.0204061 -0.0441073 0.00329917 0.0334396 -0.0283308 -0.0635073 -0.0676771 -0.00656172 -0.0589893 -0.0449848 0.0411155 -0.0210136 0.0255757 -0.0313299 -0.00551851 -0.0350814 0.0117828 -0.0241964 -0.0284717 0.0258667 0.0366978 0.151888 -0.00402604 -0.0470425 -0.0493865 0.01025 0.0633601 -0.00838932 0.032831
internal_weight=0 732752 372676 316861 415891 205532 167143 147968 146536 90292.2 62738.6 210462 142794 205429 19174.8 144575 18444.1 170325 120262 83944.8 204915 139910 164.36 22531.7 12736.6 12551.4 159036 730.742 5707.45 68409.9
internal_count=1040289 360331 679958 253336 106995 306578 373380 339513 148287 194752 115868 30459 190710 76536 33867 143969 33621 105049 168189 119633 76034 21362 50 22521 25972 25729 99332 246 7649 24670
is_linear=0
shrinkage=0.0886385


Tree=13
num_leaves=31
num_cat=2
split_feature=2 13 13 1 13 2 13 13 13 2 13 2 13 21 2 0 3 25 12 25 21 28 21 21 13 28 28 3 8 1
split_gain=111485 21309.1 9915.61 3558.18 3305.91 3212.57 1960.52 1820.95 1683.81 1543.74 1477.62 1212.76 1086.55 834.276 683.843 649.692 644.686 608.157 572.99 568.216 554.181 538.242 520.418 498.808 475.465 468.958 465.465 462.515 453.998 437.808
threshold=0.58911132812500011 2.0742187500000004 0.24066162109375003 4.5507812500000009 0.67919921875000011 0.12496948242187501 0.10848999023437501 1.9965820312500002 0.12713623046875003 1.5893554687500002 0.99951171875000011 1.0000000180025095e-35 13.710937500000002 4.5000000000000009 1.0000000180025095e-35 897.50000000000011 1.0000000180025095e-35 0 19.453125000000004 1 4.5000000000000009 0.032714843750000007 4.5000000000000009 4.5000000000000009 0.39672851562500006 1.0000000180025095e-35 -0.0063476562499999991 0.23211669921875003 0.64843750000000011 1.3666992187500002
decision_type=8 10 10 8 10 10 10 10 10 10 10 10 10 2 10 2 8 9 2 9 2 2 2 2 10 2 2 8 2 10
left_child=2 4 6 18 8 7 -1 14 -2 20 13 -8 15 24 25 -5 -12 -14 19 27 -6 -9 -10 -11 -7 26 -4 -3 -18 -29
right_child=1 3 5 12 9 10 11 21 22 23 16 -13 17 -15 -16 -17 28 -19 -20 -21 -22 -23 -24 -25 -26 -27 -28 29 -30 -31
leaf_value=-0.08070764034224491 -0.087720530803705288 0.046141969925380583 0.054474283435797258 0.037192388099262626 -0.0051536253857295926 -0.041289833436272405 -0.084347080714098355 -0.015157003135019876 -0.019076627410777432 0.0083610469884794845 0.050964074082928697 -0.052804434814461593 0.041288115435086585 -0.019403796943948066 -0.045979510096428047 0.027409485772206987 0.032790344680727883 0.073029571249773453 0.27949433446921657 0.035337916613613553 0.0062826928666443547 0.13406328514256052 -0.0032322429411916764 0.021766818410767119 -0.028831216964610128 0.023467184410315176 -0.073841645994192392 0.0029551330788631543 -0.014470923824164204 0.017554123115061129
leaf_weight=42193.61251360178 2482.9190048873425 3975.2743012905121 219.79203242063522 84461.420478105545 103039.18837189674 42808.395041942596 10915.203136771917 6003.7558456659317 52726.646697938442 68379.232220053673 1724.6518369317055 67008.617727905512 67773.270023584366 40594.467472583055 13166.460549682379 137170.74852716923 1876.3858267664909 5023.6166534423828 64.603494167327881 13556.122574687004 47748.110646009445 192.09461563825607 22894.404072523117 31090.896269798279 52536.848322987556 397.93609201908112 22774.742575854063 17952.415313720703 9436.3548963665962 133047.96618187428
leaf_count=114726 5480 1505 447 16828 98060 77638 30032 8533 67114 42696 1531 148533 5026 62965 25477 28844 1967 401 8 5586 39626 103 26882 16861 77966 704 59897 10384 9890 54579
internal_value=0 0.0162457 -0.0457031 0.0283717 -0.000853379 -0.033318 -0.0654723 -0.0545213 -0.0166144 0.00406555 -0.0272328 -0.0572228 0.0341928 -0.0299393 -0.0619767 0.0311376 0.000987149 0.0434943 0.018206 0.0181059 -0.00153222 -0.0105306 -0.0142797 0.0125512 -0.0344249 -0.0709807 -0.0726151 0.0165952 -0.00663194 0.0158185
internal_weight=0 791387 311849 463025 328361 191732 120117 42754.8 78104 250257 148977 77923.8 294429 135940 36558.9 221632 13037.4 72796.9 168596 168532 150787 6195.85 75621.1 99470.1 95345.2 23392.5 22994.5 154976 11312.7 151000
internal_count=1040289 419880 620409 123161 296719 327118 293291 95161 99476 197243 231957 178565 51099 218569 86525 45672 13388 5427 72062 72054 137686 8636 93996 59557 155604 61048 60344 66468 11857 64963
cat_boundaries=0 1 2
cat_threshold=1377548360 1082425344
is_linear=0
shrinkage=0.0877521


Tree=14
num_leaves=31
num_cat=1
split_feature=2 1 13 2 1 13 13 13 13 13 2 2 14 2 26 2 21 10 3 25 21 31 4 28 21 28 13 3 26 14
split_gain=95572.2 17189.1 9508.45 3444.47 2655.91 2552.25 1801.67 1453.46 1434.83 1261.45 968.422 909.8 828.146 781.852 778.686 736.978 557.275 536.469 532.577 527.583 494.163 477.752 499.229 464.775 454.196 444.254 434.28 431.828 429.431 419.878
threshold=0.58911132812500011 2.0830078125000004 0.20025634765625003 0.12496948242187501 6.3652343750000009 0.77001953125000011 1.9965820312500002 0.078979492187500014 0.98901367187500011 0.12713623046875003 1.0000000180025095e-35 1.8750000000000002 0.34033203125000006 32.718750000000007 1.0000000180025095e-35 1.0000000180025095e-35 4.5000000000000009 7.9492187500000009 1.0000000180025095e-35 0 4.5000000000000009 0.087646484375000014 0.15588378906250003 1.0000000180025095e-35 4.5000000000000009 -0.0063476562499999991 0.25695800781250006 0.26782226562500006 1.0000000180025095e-35 0.14569091796875003
decision_type=8 10 10 10 10 10 10 10 10 10 10 8 2 8 2 10 2 2 8 9 2 2 8 2 2 2 10 8 2 2
left_child=2 5 7 6 14 9 15 -1 12 -2 -9 19 -5 16 26 23 28 -13 -10 24 -14 22 -8 25 -7 -4 -3 -28 -6 -12
right_child=1 4 3 8 13 11 21 10 18 -11 29 17 20 -15 -16 -17 -18 -19 -20 -21 -22 -23 -24 -25 -26 -27 27 -29 -30 -31
leaf_value=-0.084142418734372906 -0.083662740805677496 -0.081855614968121201 0.043299412980743079 -0.037278007653527657 0.022172241584753814 -0.0041427049546553137 -0.051302374556161309 -0.083481867900268042 0.044333698154763922 -0.011744883782165762 -0.062095819812678789 0.011232046982621702 -0.028206739203126198 0.044181642645939441 0.025293616194435965 -0.045779668419158273 0.035029055207241581 0.055492519318959391 -0.0063127164732156649 0.018330226706560003 -0.014182836421216521 0.093627477794247085 0.0026781901025344102 0.020299518626683135 0.00663161608984731 -0.072445233073899398 0.057138104308824454 0.014790670070965239 0.033068786203832572 -0.046986373740771331
leaf_weight=25130.236495584249 1877.3622608780861 348.26076123118401 252.93485525250435 58116.500714570284 83482.219858407974 104258.2862200737 1939.194415807724 10757.463173240423 1814.8039743304253 94251.855457365513 29605.724986284971 59627.843842029572 62827.76203301549 31042.041889429092 84402.920511901379 16282.169918596745 80156.641764700413 2141.0065673589706 11476.314161300659 11372.609003543854 27161.788465350866 320.57601246237755 3880.5517509281635 426.15120604634285 41197.355594158173 23784.028158068657 1837.6303635239601 164785.05183249712 40557.035539865494 26133.419664770365
leaf_count=74351 4931 534 511 111964 13380 91159 3370 32096 1556 114501 77726 32737 99327 1377 33267 33983 12023 463 12131 8562 39801 216 5050 755 31952 67058 614 68089 6291 60514
internal_value=0 0.014469 -0.0430218 -0.032762 0.0247016 -0.00135213 -0.0534899 -0.0663439 -0.0267406 -0.0131494 -0.0596175 0.00383579 -0.0291944 0.0313362 0.0184929 -0.0601009 0.0293834 0.0127662 0.000602677 0.000318435 -0.0239739 -0.00962127 -0.0153086 -0.0696329 -0.00109102 -0.0712273 0.0150552 0.0152577 0.0257351 -0.0550117
internal_weight=0 801338 299910 208283 486612 314726 46885.6 91626.8 161397 96129.2 66496.6 218597 148106 235238 251374 40745.3 204196 61768.9 13291.1 156828 89989.6 6140.32 5819.75 24463.1 145456 24037 166971 166623 124039 55739.1
internal_count=1040289 419880 620409 375722 135575 284305 110943 244687 264779 119432 170336 164873 251092 33071 102504 102307 31694 33200 13687 131673 139128 8636 8420 68324 123111 67569 69237 68703 19671 138240
cat_boundaries=0 1
cat_threshold=1342177792
is_linear=0
shrinkage=0.0868746


Tree=15
num_leaves=31
num_cat=0
split_feature=2 13 13 2 1 13 13 13 13 13 1 2 2 2 21 22 8 13 3 1 21 13 14 28 4 29 27 28 14 21
split_gain=82107.7 15056.1 8273.74 2898.08 2886.59 2133.67 1676.94 1509.87 1458.98 1231.58 985.501 970.518 725.824 714.977 690.874 614.86 568.507 513.544 488.87 533.526 470.995 468.627 438.792 432.479 428.729 425.764 416.035 405.843 405.546 400.203
threshold=0.55346679687500011 1.7480468750000002 0.20025634765625003 0.12496948242187501 4.5507812500000009 0.62060546875000011 1.9965820312500002 0.076141357421875014 0.078979492187500014 0.98901367187500011 1.0834960937500002 1.0000000180025095e-35 1.0000000180025095e-35 17.445312500000004 4.5000000000000009 24.500000000000004 1.6020507812500002 3.3984375000000004 0.23211669921875003 2.0830078125000004 4.5000000000000009 0.38793945312500006 10.761718750000002 1.0000000180025095e-35 33.796875000000007 0.49877929687500006 2.1298828125000004 -0.0063476562499999991 0.14569091796875003 4.5000000000000009
decision_type=8 10 10 10 8 10 10 10 10 10 8 10 10 8 2 2 2 10 8 10 2 10 2 2 10 2 2 2 2 2
left_child=2 5 8 6 16 7 12 -2 -1 14 -7 -10 23 15 21 24 -3 -11 -18 -20 -12 -5 -8 27 -6 -17 -24 -4 -13 -9
right_child=1 4 3 9 13 10 22 29 11 17 20 28 -14 -15 -16 25 18 -19 19 -21 -22 -23 26 -25 -26 -27 -28 -29 -30 -31
leaf_value=-0.082178106386051358 -0.09279998771576646 0.042890344818101632 0.037819204333906647 -0.038049952371689143 0.026179854516541302 -0.0054723984038984952 -0.017585298578739535 -0.018338906932283582 -0.081539099824579686 -0.0042627680196652392 0.001906708157283397 -0.059418168929070654 -0.043097639714031896 0.033499302239314015 -0.018687330477712125 0.014898171295011709 0.038762127062797164 0.062647214126943906 0.0058328386858187255 0.015234500698322322 0.012655743618816372 -0.025887259895845605 0.088471966452275674 0.018048692724025411 0.14826587940894895 0.16621928974932929 -0.057972548267078775 -0.069977451857682518 -0.044338367186500194 -0.0040735071798844872
leaf_weight=23216.381622344255 1847.4177660942078 4777.4202288985252 261.37185859680176 48245.062991142273 184772.91517603397 96872.430393397808 5320.581437766552 47947.192036479712 9990.5742932260036 10774.630003809929 78489.398348689079 27997.8509285748 15663.42920473218 80213.715820908546 40377.909495711327 47233.401348590851 5265.6861929893494 921.03119999170303 65699.778843581676 139340.58498591185 48963.434313416481 45562.685984671116 576.04540592432022 432.95281562209129 213.01363778114319 137.94047033786774 191.10004341602325 22324.53449255228 24945.460351169109 20882.367031663656
leaf_count=74032 4734 2780 511 96121 36703 95798 8391 65661 32096 11555 61338 77595 33983 6177 67917 9568 2065 586 37016 54759 34538 71924 132 755 19 17 113 67058 60180 26167
internal_value=0 0.0125217 -0.0416304 -0.031635 0.0212216 -0.00303931 -0.0507762 -0.0160704 -0.0637505 -0.0257607 0.00106631 -0.0569525 -0.0573795 0.0264984 -0.0280937 0.0240816 0.0135529 0.00100638 0.0128865 0.012222 0.00603615 -0.0321425 -0.00881753 -0.0670978 0.0263204 0.0153388 0.0519919 -0.06873 -0.052313 -0.0140109
internal_weight=0 822657 276802 190651 527654 295002 44770 70677 86150.3 145881 224325 62933.9 38682.3 312571 134186 232357 215083 11695.7 210306 205040 127453 93807.7 6087.73 23018.9 184986 47371.3 767.145 22585.9 52943.3 68829.6
internal_count=1040289 437340 602949 359046 149104 288236 110943 96562 243903 248103 191674 169871 102307 52484 235962 46307 96620 12141 93840 91775 95876 168045 8636 68324 36722 9585 245 67569 137775 91828
is_linear=0
shrinkage=0.0860058


Tree=16
num_leaves=31
num_cat=1
split_feature=2 2 13 2 14 13 13 13 13 2 13 3 21 2 13 0 21 10 25 21 31 23 28 28 3 14 3 14 13 21
split_gain=70609.1 12358.5 7847.17 2788.68 1939.44 1709.38 1613.79 1338.92 1158.13 971.89 968.339 790.895 775.098 753.294 678.244 628.868 605.54 579.437 572.219 514.818 498.797 492.991 460.1 433.17 428.362 422.759 422.161 410.717 407.62 384.001
threshold=0.55346679687500011 2.0898437500000004 0.18859863281250003 0.12496948242187501 0.90942382812500011 6.0527343750000009 1.3520507812500002 0.064300537109375014 0.38793945312500006 1.0000000180025095e-35 0.14538574218750003 1.0000000180025095e-35 4.5000000000000009 1.0000000180025095e-35 0.40026855468750006 968.50000000000011 4.5000000000000009 0.48999023437500006 0 3.5000000000000004 0.090087890625000014 133.50000000000003 0.64721679687500011 0.020751953125000003 0.053558349609375007 0.14569091796875003 1.7680664062500002 19.007812500000004 0.59765625000000011 4.5000000000000009
decision_type=8 10 10 10 2 10 10 10 10 10 10 8 2 10 10 2 2 2 9 2 2 2 2 2 10 2 8 2 10 2
left_child=2 4 7 6 10 14 13 -1 -5 -9 -2 -10 17 -4 -3 20 -12 -6 -13 22 -7 -22 -16 27 -14 -11 -17 -8 -19 -28
right_child=1 5 3 8 12 15 23 9 11 25 16 18 24 -15 19 26 -18 28 -20 -21 21 -23 -24 -25 -26 -27 29 -29 -30 -31
leaf_value=-0.085100333964583968 -0.072735700276743628 -0.076519636472886371 -0.066874625403201549 -0.032141833232852537 0.17528567652358865 0.029091335059427584 -0.021799515308860429 -0.080318233934341218 0.017399245872009361 -0.05792533316250973 -0.01222169522240283 -0.021582904659332498 0.040064705325364013 -0.042330358988579821 0.011550574530081258 0.053287315914132105 -0.0002081879945515499 -0.054291786398894114 0.0052126582124924917 0.019134024287321433 0.0040513866354435837 0.088495012619535199 0.19278467146243616 0.089380141050917045 0.010236378882909448 -0.041719555665464668 0.017248213511270542 0.080266242710216762 0.00048956256572188234 0.026826443449578134
leaf_weight=15114.35221645236 1718.1218821704388 586.88561373949051 20701.897099345922 70983.232782542706 136.95145297050476 93917.41397190094 7544.6777085959911 10466.560381382704 4549.8827660381794 30682.875016599894 96241.443696886301 65235.437187045813 3728.0295611917973 16128.043075293303 145563.58140128851 2903.865522146225 44474.404844820499 992.69796016812325 6341.5464661717415 124475.74074524641 675.07858300209045 1946.2511758804321 101.62522983551025 282.5219144821167 54767.837115496397 18833.594251185656 90015.083359003067 297.08607637882233 122648.18559616804 45776.920201301575
leaf_count=52150 5010 704 65897 144962 19 11546 13693 36249 5833 91631 117681 98717 1760 37139 56976 529 47775 1687 8603 42739 97 162 15 165 37003 47846 13264 64 94861 5512
internal_value=0 0.0112078 -0.0391145 -0.0299897 -0.00175641 0.0195277 -0.0485496 -0.0624514 -0.0243181 -0.0567444 -0.00920048 -0.0170231 0.0040606 -0.0561265 0.0149144 0.024837 -0.00842473 0.000243616 -0.0192112 0.0151131 0.0301138 0.066748 0.011677 -0.0142009 0.0121374 -0.0517615 0.0211641 -0.0179327 4.97296e-05 0.0204771
internal_weight=0 830670 267162 192064 324708 505962 44954.2 75097.4 147110 59983 142434 76126.9 182274 36829.9 270728 235235 140716 123778 71577 270141 96538.7 2621.33 145665 8124.29 58495.9 49516.5 138696 7841.76 123641 135792
internal_count=1040289 437340 602949 375073 305796 131544 116958 227876 258115 175726 170466 113153 135330 103036 100434 31110 165456 96567 107320 99730 11805 259 56991 13922 38763 139477 19305 13757 96548 18776
cat_boundaries=0 1
cat_threshold=1107296272
is_linear=0
shrinkage=0.0851458


Tree=17
num_leaves=31
num_cat=1
split_feature=2 13 13 2 2 13 1 13 2 13 13 21 2 14 21 21 9 13 6 8 14 25 28 2 28 8 23 9 15 21
split_gain=60776 11929 6213.11 2437.01 2233.37 1932.18 1651.5 1555.48 1068.96 977.986 943.997 723.537 650.306 604.814 589.695 512.75 510.01 487.469 435.904 423.902 746.313 421.619 404.076 401.205 398.127 381.591 369.562 388.682 437.644 363.509
threshold=0.48217773437500006 1.5546875000000002 0.15850830078125003 0.16070556640625003 4.1972656250000009 0.076141357421875014 1.0834960937500002 1.3520507812500002 1.0000000180025095e-35 0.058090209960937507 0.70898437500000011 3.5000000000000004 1.0000000180025095e-35 0.54858398437500011 4.5000000000000009 4.5000000000000009 14.726562500000002 3.3984375000000004 20.968750000000004 1.6220703125000002 2.4267578125000004 0 1.0000000180025095e-35 1.7680664062500002 -1.0000000180025095e-35 0.52905273437500011 283.50000000000006 8.6132812500000018 662.50000000000011 4.5000000000000009
decision_type=8 10 10 10 8 10 10 10 10 10 10 2 10 2 2 2 2 10 8 2 2 9 2 8 2 2 2 2 2 2
left_child=2 5 9 7 14 -2 13 8 22 -1 15 -6 -11 -7 21 -5 -15 25 -13 20 23 -3 24 -8 -4 -12 27 -9 -29 -30
right_child=1 4 3 10 11 6 19 26 -10 12 17 18 -14 16 -16 -17 -18 -19 -20 -21 -22 -23 -24 -25 -26 -27 -28 28 29 -31
leaf_value=-0.084674318548371597 -0.090822077906717882 0.0057956215798941352 0.04134235702506258 -0.031462911202609231 0.017116013745248005 -0.016771020741351131 0.0009416044950645413 -0.012304621964045847 -0.040604360735744617 -0.078974435534021878 0.028512680127931594 0.022847220608484174 -0.052680074705298632 -0.0061013329126851151 0.01609096431244143 -0.018480674331592253 0.15188857827504421 0.061485566964131801 0.034422544127617083 -0.029476787182353872 0.27904487467835365 0.024997218651345372 0.018320234643516425 0.011614764025542528 -0.068222703075578081 -0.013551491840382167 -0.045976761544519677 -0.034865913229311755 0.035693257074987897 0.15382297987743807
leaf_weight=12472.945239067078 1828.3574964106083 141748.34331423044 238.3615994155407 72011.488549411297 183553.42598152161 53426.339248806238 86875.453226566315 5333.5020147562027 29404.366154909134 8309.6351484954357 1720.9652720689774 133228.9688782692 34147.049695253372 113697.45858222246 73960.746104478836 30890.519560754299 145.36898505687714 730.81198769807816 27969.435038208961 2719.1611942350864 70.14729905128479 8612.2980685830116 402.18504279851913 35150.515896141529 20742.831561863422 13985.139935493469 1761.7315865755081 378.22652405500412 566.28564167022705 274.97093486785889
leaf_count=46541 5536 71681 520 144315 32997 80265 80263 10319 70546 30980 2050 22858 106170 121511 31462 58141 14 448 2032 1713 26 4087 787 21488 71412 18223 3281 305 221 97
internal_value=0 0.00935287 -0.039133 -0.0315019 0.0164752 -0.00443739 -0.00389665 -0.0454999 -0.0510331 -0.0639228 -0.0245694 0.0207349 -0.0578264 -0.00937196 0.00992866 -0.0275657 -0.00589959 -0.00581105 0.0248556 0.003441 0.0041741 0.00689749 -0.0653737 0.00401609 -0.066978 -0.00894239 -0.0117025 -0.0024881 0.0404452 0.0743048
internal_weight=0 862986 233371 178441 569073 293913 292084 59102.5 50787.7 54929.6 119339 344752 42456.7 167269 224321 102902 113843 16436.9 161198 124815 122096 150361 21383.4 122026 20981.2 15706.1 8314.72 6552.99 1219.48 841.257
internal_count=1040289 475933 564356 380665 165117 310816 305280 157488 143265 183691 223177 57887 137150 201790 107230 202456 121525 20721 24890 103490 101777 75768 72719 101751 71932 20273 14223 10942 623 318
cat_boundaries=0 1
cat_threshold=1386483780
is_linear=0
shrinkage=0.0842943


Tree=18
num_leaves=31
num_cat=2
split_feature=2 1 13 2 13 13 2 13 13 13 2 3 2 2 22 21 25 26 14 12 21 3 3 12 28 21 28 27 7 25
split_gain=52478.2 9890.89 5906.66 2292.57 1613.83 1524.5 1509.8 1077.04 1009.87 960.568 848.222 617.941 617.544 615.127 592.545 512.827 446.306 418.876 410.409 376.067 372.388 368.923 361.493 359.327 350.763 333.866 303.351 291.631 286.325 276.662
threshold=0.48217773437500006 1.8164062500000002 0.15527343750000003 0.12496948242187501 0.62060546875000011 0.84082031250000011 5.3027343750000009 0.076141357421875014 0.36462402343750006 0.058090209960937507 1.0000000180025095e-35 1.0000000180025095e-35 1.0000000180025095e-35 1.0537109375000002 19.500000000000004 4.5000000000000009 0 1.0000000180025095e-35 10.761718750000002 12.769531250000002 4.5000000000000009 1.0000000180025095e-35 1.0000000180025095e-35 19.453125000000004 -0.0092773437499999983 4.5000000000000009 1.0000000180025095e-35 2.1298828125000004 44.875000000000007 1
decision_type=8 10 10 10 10 10 8 10 10 10 10 8 10 8 2 2 9 2 2 2 2 8 8 2 2 2 2 2 8 9
left_child=2 4 9 5 7 10 14 -2 25 -1 26 -10 -11 22 21 17 -13 28 24 -15 -9 -3 -6 -23 -7 -5 -4 -20 -8 -24
right_child=1 6 3 8 13 18 15 20 11 12 -12 16 -14 19 -16 -17 -18 -19 27 -21 -22 23 29 -25 -26 -27 -28 -29 -30 -31
leaf_value=-0.08304968780986996 -0.088771040537310886 0.056569430693828943 -0.068450605976539652 -0.03455238198044381 0.02471112938435455 0.083357447658745462 0.012828583517352549 -0.016280158013064337 0.015483635193496308 -0.077020175744181116 -0.041225053602493129 -0.020479074391383086 -0.050461341629029266 0.0033212609705311402 0.0052784670537109404 0.024041840039952328 0.0053941478113341979 0.022130830965184915 0.063967733504822405 0.090480582998492542 -0.0037829839684675242 0.012967584062514836 -0.0075765256306320116 0.1290844823571389 -0.025579082118851432 -0.021700112815457345 0.014609536411983232 -0.0551396633973553 0.027605812390386019 0.009575549313765884
leaf_weight=11567.534457117319 1311.5966157019138 1370.5974618196487 17093.699082776904 47285.757603257895 2713.6683232784271 209.82138288021088 121181.24650910497 55240.907564133406 4082.4659286439419 7577.2198130190372 18285.926514804363 51280.347368866205 31210.779563844204 136020.70307666063 97547.932404994965 98433.088767409325 5107.0163004696369 65118.464724063873 642.70046305656433 345.62641525268555 23741.494840204716 167088.13036373258 81989.921277880669 185.80133295059204 10852.862656027079 20042.19361320138 311.80078929662704 184.18823099136353 9875.6236153841019 7110.6754783391953
leaf_count=46541 4817 458 63042 108222 2252 246 19884 82729 5432 30296 47737 84406 102084 96042 45358 12101 7146 9647 132 42 32281 74966 88399 26 24883 43427 649 113 423 6508
internal_value=0 0.00840864 -0.0367514 -0.029518 -0.00359373 -0.0451549 0.0150107 -0.0137691 -0.0236962 -0.0619439 -0.0537764 -0.0158685 -0.0556496 -1.31457e-05 0.0104554 0.0191266 -0.0181384 0.0166603 -0.019274 0.00354217 -0.0125236 0.0134499 -0.00529365 0.0130966 -0.0235129 -0.0307265 -0.0669627 0.0374367 0.0139421 -0.00620748
internal_weight=0 869275 225734 175379 308475 47581 560801 80294 127798 50355.5 35691.4 60469.8 38788 228181 266192 294608 56387.4 196175 11889.6 136366 78982.4 168645 91814.3 167274 11062.7 67328 17405.5 826.889 131057 89100.6
internal_count=1040289 475933 564356 385435 313070 136802 162863 119827 248633 178921 111428 96984 132380 193243 120808 42055 91552 29954 25374 96084 115010 75450 97159 74992 25129 151649 63691 245 20307 94907
cat_boundaries=0 1 2
cat_threshold=1107296272 1073741888
is_linear=0
shrinkage=0.0834514


Tree=19
num_leaves=31
num_cat=1
split_feature=2 13 13 2 13 2 13 1 2 13 13 2 31 21 14 21 21 26 21 13 14 25 3 14 9 26 3 23 2 14
split_gain=45328.4 8342.47 5585.65 2130.35 1663.43 1596.06 1364.39 1195.11 1007.92 979.933 777.767 690.053 566.383 518.406 568.66 484.369 440.154 418.08 403.839 393.303 383.804 380.122 341.949 336.003 486.864 333.46 328.455 327.702 321.505 319.702
threshold=0.48217773437500006 1.4794921875000002 0.15527343750000003 0.16070556640625003 0.076141357421875014 3.6962890625000004 1.3520507812500002 0.77490234375000011 1.0000000180025095e-35 0.040435791015625007 0.70898437500000011 1.0000000180025095e-35 0.060302734375000007 3.5000000000000004 19.007812500000004 4.5000000000000009 4.5000000000000009 1.0000000180025095e-35 4.5000000000000009 3.3984375000000004 0.56225585937500011 0 1.0000000180025095e-35 0.46716308593750006 14.726562500000002 1.0000000180025095e-35 0.41064453125000006 289.50000000000006 26.343750000000004 0.10281372070312501
decision_type=8 8 10 10 10 8 10 10 10 10 10 10 2 2 2 2 2 2 2 10 2 9 8 2 2 2 8 2 8 2
left_child=2 4 9 6 -2 13 8 23 20 -1 16 -11 15 21 26 17 -5 -7 25 -12 -4 -3 -10 -6 -25 -9 -15 -8 -17 -13
right_child=1 5 3 10 7 12 27 18 22 11 19 29 -14 14 -16 28 -18 -19 -20 -21 -22 -23 -24 24 -26 -27 -28 -29 -30 -31
leaf_value=-0.088174230653442043 -0.088536842166696147 0.0021220457611750183 -0.068568110653390676 -0.02746820866842169 -0.018289762402883537 0.010701373733651751 -0.0013080558267064054 -0.0057712081398570434 -0.013041966450394488 -0.075559085738225965 -0.0071607478418519938 -0.058002727092974014 0.027151770200079615 0.03775666747080425 0.24951341271579167 0.018043801415056911 -0.015500449973950595 0.018052898017663618 0.0058294133766705379 0.053743693860233303 -0.043534837556196138 0.020341841857980592 -0.039734264945617534 -0.008083407301155518 0.14274263400276394 0.0040556270314260623 0.010658293343837064 -0.043315647775163918 0.031266583912350314 -0.041509245325834242
leaf_weight=6935.1089510917664 1588.5901269763708 104380.26970356703 13208.33061426878 69058.59657612443 28328.0923140347 157436.71286988258 6540.6554934084415 71354.63109433651 3781.6714711785316 8478.3058298677206 15434.142839998007 14821.768636092544 29969.999640226364 3154.316669523716 68.579640865325928 104431.82735443115 30126.108300417662 79445.176886081696 62745.452416986227 759.31777155399323 6116.0035334825516 8439.1901911497116 24492.399945288897 78982.054349154234 146.35126638412476 35195.379534006119 95053.559226870537 1572.2222957909107 14265.498672366142 17483.715147644281
leaf_count=30198 5536 56081 51706 145732 46502 30584 11127 69410 9191 36427 20273 55575 4151 1435 7 17379 58668 14811 54256 448 21697 4270 63497 92338 10 33457 44747 3096 959 56721
internal_value=0 0.00757295 -0.0344696 -0.0274984 -0.00423801 0.0130829 -0.0407654 -0.00375413 -0.0461032 -0.0594639 -0.0210923 -0.0545818 0.0162447 0.0073081 0.0116947 0.0153254 -0.0238332 0.0131669 0.000571227 -0.00430491 -0.0606453 0.00348693 -0.0361642 -0.0105686 -0.00780445 -0.00252523 0.0115287 -0.00944885 0.019633 -0.0490765
internal_weight=0 874986 218808 171089 278341 596645 55711.3 276752 47598.4 47718.9 115378 40783.8 385549 211096 98276.5 355579 99184.7 236882 169295 16193.5 19324.3 112819 28274.1 107456 79128.4 106550 98207.9 8112.88 118697 32305.5
internal_count=1040289 475933 564356 385435 301509 174424 160314 295973 146091 178921 225121 148723 67884 106540 46189 63733 204400 45395 157123 20721 73403 60351 72688 138850 92348 102867 46182 14223 18338 112296
cat_boundaries=0 1
cat_threshold=1403257156
is_linear=0
shrinkage=0.0826169


Tree=20
num_leaves=31
num_cat=2
split_feature=13 2 1 13 2 13 2 31 13 3 14 26 2 6 25 8 2 30 9 21 16 15 0 0 9 28 26 2 27 21
split_gain=38062.3 7570.18 6576.74 2207.71 1721.26 1666.61 1080.28 964.956 951.103 826.166 811.354 757.705 708.056 663.586 602.794 569.004 561.989 547.308 546.074 501.133 486.532 405.869 390.566 1217.58 538.151 365.401 362.986 357.384 430.714 350.359
threshold=0.54174804687500011 0.19641113281250003 1.3666992187500002 0.058090209960937507 1.0000000180025095e-35 8.1953125000000018 1.0000000180025095e-35 0.21948242187500003 0.097564697265625014 1.0000000180025095e-35 0.27502441406250006 1.0000000180025095e-35 0.80346679687500011 3.6943359375000004 0 0.49584960937500006 5.0175781250000009 0.88500976562500011 14.726562500000002 5.5000000000000009 1 690.50000000000011 1645.5000000000002 1590.5000000000002 14.726562500000002 1.0000000180025095e-35 1.0000000180025095e-35 3.1962890625000004 0.31506347656250006 4.5000000000000009
decision_type=10 10 8 10 8 10 10 2 10 8 2 2 10 10 9 2 10 2 2 2 1 2 2 2 2 2 2 10 2 2
left_child=1 4 6 -3 -1 11 13 14 -6 -8 -5 19 15 25 -7 -11 -16 22 -9 27 21 -13 23 24 -15 -2 -14 -4 -29 -12
right_child=2 3 5 10 8 7 9 18 -10 12 29 20 26 17 16 -17 -18 -19 -20 -21 -22 -23 -24 -25 -26 -27 -28 28 -30 -31
leaf_value=-0.069542290972297915 -0.037412060471672511 -0.089534616046430732 0.0013139824179730279 -0.027028320608650333 -0.061740684788816148 0.01637996769283968 0.021442794444319575 0.022251589400706328 -0.037682385214025664 0.022263966026656177 -0.016662675172374034 0.02232196361570794 -0.003498617911446622 0.032355893795375602 0.088080995949834318 -0.011372865050746511 0.029628928259745269 -0.054189220460645289 0.10614567592380496 0.013590251448061412 0.0080006978859197241 0.011305201859311732 -0.028639671263237323 0.50649599215506902 0.23957664924140451 0.049342260067169512 0.0054599187850783888 -0.0095765750456459804 0.0088315046215404879 -0.0059766607866024628
leaf_weight=21972.573705494404 10892.027551472187 2906.1423173993826 105525.47934733331 41721.570719659328 14112.771058097482 155698.21914297342 8794.9685401022434 863.78366732597351 49723.077831372619 3509.6812583208084 66704.11981099844 50009.695310503244 88384.4682726264 880.8704332113266 1238.9428126811981 81209.748370587826 9837.4743847846985 517.18363004922867 1300.4667320251465 54279.611929357052 62425.864107489586 40478.349198997021 360.2978395819664 41.11089813709259 92.657715439796448 334.76631787419319 46006.28729134798 9098.588794708252 129933.79079473019 29648.222395181656
leaf_count=96001 33663 12310 63563 101310 59038 15764 8273 73 140836 4486 117809 18213 74923 1022 224 107483 970 820 29 20860 25920 14426 347 14 13 409 37853 1810 34515 46845
internal_value=0 -0.0306434 0.00701606 -0.0189852 -0.0497974 0.0114687 -0.00445055 0.0183993 -0.0430012 -0.0031368 -0.0175003 0.00887694 -0.00412341 -0.0272734 0.0176951 -0.00997939 0.0361344 0.0175348 0.0726623 0.00648081 0.0135597 0.0173919 0.0445138 0.0704906 0.0520786 -0.0348252 -0.000431822 0.00490287 0.00762684 -0.0133745
internal_weight=0 226788 861714 140980 85808.4 620690 241024 168939 63835.8 227905 138074 451751 219110 13118.9 166775 84719.4 11076.4 1892.12 2164.25 298837 152914 90488 1374.94 1014.64 973.528 11226.8 134391 244558 139032 96352.3
internal_count=1039822 574149 465673 278274 295875 196367 269306 17060 199874 233018 265964 179307 224745 36288 16958 111969 1194 2216 102 120748 58559 32639 1396 1049 1035 34072 112776 99888 36325 164654
cat_boundaries=0 1 2
cat_threshold=1694794340 6
is_linear=0
shrinkage=0.0817907


Tree=21
num_leaves=31
num_cat=2
split_feature=13 2 1 13 2 13 2 13 31 1 3 22 2 6 25 25 30 0 2 9 14 14 13 21 3 28 28 22 0 0
split_gain=32839.7 6987.68 5483.98 2103.5 1689.55 1360.57 944.95 936.86 747.727 746.165 688.242 645.591 610.928 576.852 499.503 480.565 461.685 413.85 403.276 397.607 392.195 371.54 351.334 327.444 327.199 319.964 314.445 313.134 311.319 839.504
threshold=0.54174804687500011 0.19641113281250003 1.3666992187500002 1.0000000180025095e-35 1.0000000180025095e-35 8.1953125000000018 1.0000000180025095e-35 0.064300537109375014 0.21948242187500003 0.36657714843750006 1.0000000180025095e-35 17.500000000000004 0.87500000000000011 3.6943359375000004 0 1 0.88500976562500011 982.50000000000011 5.0175781250000009 14.726562500000002 0.18963623046875003 0.27502441406250006 19.914062500000004 5.5000000000000009 1.1962890625000002 1.0000000180025095e-35 1.0000000180025095e-35 18.500000000000004 1645.5000000000002 1590.5000000000002
decision_type=10 10 8 10 8 8 10 10 2 10 8 2 10 10 9 9 2 2 10 2 2 2 10 2 8 2 2 2 2 2
left_child=1 4 6 -3 25 11 13 -6 15 21 -8 17 14 26 -12 24 28 -4 22 -10 -9 -5 -17 -13 -7 -1 -2 -14 29 -15
right_child=2 3 5 9 7 8 10 20 19 -11 12 23 27 16 -16 18 -18 -19 -20 -21 -22 -23 -24 -25 -26 -27 -28 -29 -30 -31
leaf_value=-0.068511925785010697 -0.03514310381355229 -0.089969763377569331 0.01456115630849476 -0.02916246581700746 -0.072218837708780292 0.045805391002482279 0.019155477865496439 -0.043799801675626041 0.019865325648471363 -0.0098701939032008815 -0.010407456336263464 0.0029518118635049441 0.0033992428026305252 0.045522742300113418 0.0094662654741478301 0.057020986970422349 -0.051710748281258503 0.0079708434213519169 0.025700441283385528 0.089356284316387716 -0.030213046806371279 -0.017203259971191796 0.18550421064584294 0.011511368509650668 0.014164705407324675 0.021022425974840935 0.043154366004669972 -0.0050280072041956917 -0.026689000126687186 0.39242151868173908
leaf_weight=20409.305813208222 10555.008509337902 2580.7181434929371 105814.63686802983 27940.678273975849 5589.5422782599926 2173.1408433914185 8942.8368649184704 29816.772496178746 878.84243559837341 64636.475079745054 88174.624658286572 160731.12501709163 73332.547158837318 1009.0322863459587 9147.0855697393417 1336.8862715363503 493.6729451417923 152536.34733581543 11519.948905467987 1399.5900602340698 26143.985690489411 43628.060017973185 155.80485868453979 35836.414971277118 153904.85864377022 265.09695471823215 347.36793717741966 47722.360886693001 351.82823726534843 47.911810994148254
leaf_count=95257 33663 11861 38987 72224 26758 303 8273 105787 73 111337 116018 65591 58917 1035 10237 246 820 60993 1105 29 67329 82852 13 13736 15291 744 409 39573 347 14
internal_value=0 -0.028631 0.00633681 -0.0175488 -0.0473366 0.0103257 -0.00406702 -0.0406095 0.0164749 -0.0161766 -0.00286145 0.00800935 -0.00376307 -0.0254691 -0.00853966 0.015854 0.0156732 0.0106701 0.0308079 0.0625521 -0.0374523 -0.0218722 0.0704319 0.00451231 0.0146043 -0.0673639 -0.0326484 7.70457e-05 0.0392864 0.0612478
internal_weight=0 221011 866412 138786 82224.7 626288 240124 61550.3 171369 136205 227319 454919 218377 12804.8 97321.7 169091 1902.45 258351 13012.6 2278.43 55960.8 71568.7 1492.69 196568 156078 20674.4 10902.4 121055 1408.77 1056.94
internal_count=1039822 574149 465673 278274 295875 196367 269306 199874 17060 266413 233018 179307 224745 36288 126255 16958 2216 99980 1364 102 173116 155076 259 79327 15594 96001 34072 98490 1396 1049
cat_boundaries=0 1 2
cat_threshold=1073743872 1090814560
is_linear=0
shrinkage=0.0809728


Tree=22
num_leaves=31
num_cat=1
split_feature=2 13 13 13 1 13 1 3 13 13 2 31 22 25 2 13 31 28 27 3 13 13 0 21 8 2 14 9 0 28
split_gain=28655.1 5732.64 4036.73 1520.29 1352.75 1096.12 943.765 884.67 805.765 753.555 1076.8 587.772 585.645 416.429 411.88 400.187 380.414 376.787 369.166 566.962 344.377 318.985 317.103 301.616 294.768 335.998 292.573 286.111 282.433 276.15
threshold=0.41064453125000006 1.3520507812500002 0.13037109375000003 0.046081542968750007 1.0000000180025095e-35 8.1953125000000018 0.70825195312500011 1.0000000180025095e-35 0.040435791015625007 0.91674804687500011 1.0000000180025095e-35 0.21948242187500003 17.500000000000004 0 1.0000000180025095e-35 0.29455566406250006 0.055908203125000007 1.0000000180025095e-35 0.21496582031250003 4.8027343750000009 11.421875000000002 0.31103515625000006 809.50000000000011 5.5000000000000009 1.3759765625000002 1.7680664062500002 0.61840820312500011 14.726562500000002 1304.5000000000002 0.0056152343750000009
decision_type=8 10 10 10 10 8 10 8 10 10 10 2 2 9 10 10 2 2 2 10 10 8 2 2 2 10 2 2 2 2
left_child=2 3 8 -2 9 12 26 21 -1 10 17 13 16 28 -10 -9 22 -4 19 -11 -17 -6 -3 -14 25 -8 -5 -13 -7 -20
right_child=1 5 4 6 7 11 24 15 14 18 -12 27 23 -15 -16 20 -18 -19 29 -21 -22 -23 -24 -25 -26 -27 -28 -29 -30 -31
leaf_value=-0.084462084108070101 -0.088461453857472686 0.013522759844646097 -0.058334070073365836 -0.013162793677142483 -0.017042376934973263 0.015717456218801822 -0.0011178989372997257 -0.026520860896411112 -0.069466843342717979 0.028527894617180066 -0.030255650178113273 0.018499216108096923 0.0024785800428417 0.0301739749937198 -0.04511336924348127 -0.015996703796339468 0.021361560144512085 0.030350470283416368 -0.019366413733850677 0.351206753716366 0.063130595886564306 0.028484738134103647 0.0070822016580194096 0.010968650493963174 -0.024029643081007582 0.009025219327952104 -0.0053164225865642576 0.075619256549780772 0.0087675246404179761 0.051168350257643568
leaf_weight=5388.9554865807295 1378.4889600723982 68366.99173861742 14454.140131831169 62951.23335313797 1399.2835294157267 102429.23822283745 129607.81846052408 37435.053831711411 5706.9481129646301 218.45218607783318 31835.446639299393 904.30754375457764 162294.9264113903 9818.879772901535 20468.75359711051 46275.743954271078 16818.197445452213 314.55632011592388 9068.0275186896324 41.665338456630707 356.17231261730194 3372.5349162220955 174540.27793091536 32229.200250685215 3206.9540601670742 25041.407827407122 59310.587500244379 1495.3170304298401 59346.056205391884 371.29138532280922
leaf_count=28960 6260 22774 66822 105142 3939 9701 135767 102527 29634 165 85119 78 64049 1026 83852 90331 5821 690 21396 10 51 5009 67319 10715 2311 15582 68086 30 6371 285
internal_value=0 0.00502394 -0.0302532 -0.00448256 -0.024603 0.0092835 -0.00406929 -0.018442 -0.0562344 -0.0343242 -0.038555 0.0146938 0.00721118 0.0141428 -0.050423 -0.0203479 0.00970218 -0.0564452 -0.0139958 0.0802142 -0.0153923 0.0151344 0.00889492 0.00388523 2.56803e-05 0.000524514 -0.00935643 0.0540934 0.0131671 -0.016592
internal_weight=0 909740 176707 281496 145142 628243 280118 88838.8 31564.7 56303.6 46604.1 173994 454250 171594 26175.7 84067 259725 14768.7 9699.44 260.118 46631.9 4771.82 242907 194524 157856 154649 122262 2399.62 161775 9439.32
internal_count=1039822 521032 518790 333148 376344 187884 326888 201857 142446 174487 152631 17206 170678 17098 113486 192909 95914 67512 21856 175 90382 8948 90093 74764 153660 151349 173228 108 16072 21681
cat_boundaries=0 1
cat_threshold=1104978532
is_linear=0
shrinkage=0.0801631


Tree=23
num_leaves=31
num_cat=1
split_feature=2 13 13 13 1 13 1 13 3 13 2 26 28 8 21 2 21 16 15 2 27 2 28 31 14 6 27 20 23 8
split_gain=24847.6 4812.55 3783.66 1413.06 1234.74 933.007 807.798 793.216 761.917 692.103 1045.64 587.61 693.497 440.879 413.383 400.115 399.323 393.009 412.311 374.858 362.585 372.691 360.858 324.952 315.562 312.293 436.633 442.975 696.436 311.967
threshold=0.41064453125000006 1.3520507812500002 0.12713623046875003 0.046081542968750007 1.0000000180025095e-35 11.421875000000002 0.81665039062500011 0.040435791015625007 1.0000000180025095e-35 0.88012695312500011 1.0000000180025095e-35 1.0000000180025095e-35 0.50146484375000011 9.1054687500000018 5.5000000000000009 1.0000000180025095e-35 4.5000000000000009 0 785.50000000000011 2.8037109375000004 0.31506347656250006 20.765625000000004 1.0000000180025095e-35 0.24975585937500003 0.30664062500000006 5.5839843750000009 2.6748046875000004 19.500000000000004 104.50000000000001 1.3159179687500002
decision_type=8 10 10 10 10 10 10 10 8 10 10 2 2 2 2 10 2 1 2 10 2 10 2 2 2 10 2 2 2 2
left_child=2 3 7 -2 9 11 -5 -1 -6 10 22 14 17 -7 19 -9 24 18 -13 29 21 -21 -4 -15 -10 -11 27 28 -27 -3
right_child=1 5 4 6 8 13 -8 15 16 25 -12 12 -14 23 -16 -17 -18 -19 -20 20 -22 -23 -24 -25 -26 26 -28 -29 -30 -31
leaf_value=-0.08321768046640525 -0.087521152044639103 0.027397271709313338 -0.056490679659014449 -0.0085815785031753845 0.013405802112581402 0.051952777754802781 2.8379269462989232e-05 -0.067854813830602698 -0.029072878633850722 -0.018457470392040966 -0.02843220535593206 0.016783860451769831 0.13546894407321408 0.013684548397380095 0.011207938736894957 -0.043047876619274936 -0.011110239971203016 0.0059469710460228796 0.0060303508675387408 -0.0099199603661183182 0.006679481786613488 0.12246080275209838 0.029327243803530741 0.044291397087046415 -0.017121633500523734 -0.00520148451704235 -0.068972306744637127 0.0013157368733784627 0.20536697130851364 -0.0010470061700240002
leaf_weight=4996.7691041529179 1273.0757664442062 2494.8510773777962 13642.796639099717 121542.60930174589 4847.6213468164206 1995.2684154510498 157650.94194349647 5238.2633912712336 26567.901892468333 8826.8119198232889 31314.921151548624 74338.665872216225 279.98220062255859 107112.06498384476 57267.421499848366 18763.390241503716 27372.563269898295 72202.273007214069 32176.585679888725 10705.228124022484 180595.87182211876 135.63933038711548 315.74496951699257 2230.2367718219757 29217.172714009881 176.18997007608414 242.81115129590034 503.99729028344154 225.59125089645386 91312.540535628796
leaf_count=28960 6260 1661 66605 173489 9026 247 153399 28932 74782 22023 86485 22615 39 7976 17313 80344 61122 25946 10725 2105 45780 12 683 78 58814 158 352 404 100 53387
internal_value=0 0.00455336 -0.0283081 -0.00410022 -0.0230161 0.00838848 -0.00371983 -0.0544507 -0.0171783 -0.0323152 -0.0364846 0.00698051 0.0106655 0.0149834 0.00505472 -0.0484619 -0.0189612 0.01047 0.0135341 0.00381936 0.00583327 -0.00826363 -0.0545495 0.0143088 -0.0228135 -0.0133922 0.0255343 0.0508686 0.113028 -0.000290517
internal_weight=0 913313 172253 280467 143254 632847 279194 28998.4 88005.3 55248.9 45273.5 521509 178998 111338 342512 24001.7 83157.6 178718 106515 285244 191437 10840.9 13958.5 109342 55785.1 9975.4 1148.59 905.779 401.781 93807.4
internal_count=1039822 521032 518790 333148 380554 187884 326888 138236 203744 176810 153773 179583 59325 8301 120258 109276 194718 59286 33340 102945 47897 2117 67288 8054 133596 23037 1014 662 258 55048
cat_boundaries=0 1
cat_threshold=6
is_linear=0
shrinkage=0.0793614


Tree=24
num_leaves=31
num_cat=0
split_feature=13 2 1 13 2 13 2 14 3 27 8 23 4 30 9 2 31 3 13 23 21 21 8 0 19 28 12 28 28 26
split_gain=21792 4414.95 4365.3 2056.9 875.781 845.571 823.552 802.33 615.774 553.654 512.034 505.33 696.719 601.239 495.125 492.435 470.541 469.026 444.637 433.715 429.99 428.852 405.711 313.998 284.757 279.505 270.121 252.338 252.028 251.33
threshold=0.43676757812500006 0.12496948242187501 1.2915039062500002 0.046081542968750007 1.0000000180025095e-35 3.7539062500000004 1.0000000180025095e-35 0.19903564453125003 1.0000000180025095e-35 2.0351562500000004 3.3710937500000004 164.50000000000003 4.1054687500000009 0.71362304687500011 14.726562500000002 0.73217773437500011 0.24975585937500003 0.053558349609375007 0.064300537109375014 158.50000000000003 4.5000000000000009 3.5000000000000004 0.42041015625000006 1304.5000000000002 3.5000000000000004 -1.0000000180025095e-35 8.7031250000000018 0.041748046875000007 1.0000000180025095e-35 1.0000000180025095e-35
decision_type=8 8 8 10 10 10 10 2 8 2 2 2 10 2 2 10 2 8 10 2 2 2 2 2 2 2 2 2 2 2
left_child=1 6 4 -3 9 21 28 -5 -6 11 -7 12 -2 -13 17 22 -16 -12 -8 26 -9 24 -10 -19 -4 -11 -14 -27 -1 -17
right_child=2 3 5 7 8 10 18 20 15 25 14 13 19 -15 16 29 -18 23 -20 -21 -22 -23 -24 -25 -26 27 -28 -29 -30 -31
leaf_value=-0.063442088692210533 0.0072597250555606003 -0.085790753268484107 0.0036028788911521186 -0.028887256850636485 0.015681460677765394 0.038993454488290842 -0.065591685554645937 -0.017408648811046711 0.017094777874558501 0.07588758885768547 0.04067046205910075 -0.030221158041311962 0.16764549322632655 0.42953238321643994 0.016060966639813577 -0.0038808632825448534 0.059171680480148169 0.01023354232670811 -0.036284794047436751 0.3653232410965222 -0.0056439044355666166 0.0072767096969008965 -0.0098970010348273796 0.005116720608717624 -0.0038628987957057691 -0.039469156622706593 0.0045032625531905464 0.048814436379733039 0.017744633451181376 0.0033769787684368464
leaf_weight=15627.529015615582 2017.369614481926 2780.3238265663385 106441.25651758909 28595.57910309732 9735.938719779253 3712.6544417142868 3654.587720066309 62131.001433312893 3574.4709911942482 136.49877989292145 2794.2613365650177 2504.1376417279243 144.22686715424061 17.682436019182205 39727.48626935482 85788.544374704361 1626.8446559906006 200050.20152670145 25445.685243055224 43.45116925239563 27738.830574184656 154442.67629414797 89709.892823815346 117521.79430568218 44814.144403427839 8573.5716145932674 110.76155823469162 204.62368276715279 239.65035161375999 44849.741746723652
leaf_count=87043 5197 16252 58512 92326 9964 1012 20875 136120 5328 257 509 6656 108 22 1831 79397 29 32858 95128 6 54715 80119 134815 21891 25862 32133 44 239 670 39904
internal_value=0 -0.0267905 0.00412503 -0.0189924 -0.00479562 0.00741361 -0.0478166 -0.0174247 -0.00366157 -0.0240636 0.0099643 -0.00266364 0.0238349 -0.0269975 0.00966635 -0.00450259 0.0177569 0.00862198 -0.0399653 0.135878 -0.0137774 0.00436449 -0.00886273 0.00833999 0.00139091 -0.0356764 0.09678 -0.0374112 -0.0622159 -0.00138916
internal_weight=0 166213 918542 121246 247411 671131 44967.5 118465 233659 13752.3 365433 4837.63 2315.81 2521.82 361721 223923 41354.3 320366 29100.3 298.44 89869.8 305698 93284.4 317572 151255 8914.69 254.988 8778.2 15867.2 130638
internal_count=1039822 503129 536693 299413 314070 222623 203716 283161 269408 44662 58130 12033 5355 6678 57118 259444 1860 55258 116003 158 190835 164493 140143 54749 84374 32629 152 32372 87713 119301
is_linear=0
shrinkage=0.0785678


Tree=25
num_leaves=31
num_cat=1
split_feature=13 2 2 13 2 7 14 1 3 31 13 25 31 21 28 12 21 3 5 21 23 10 26 31 13 20 27 22 23 28
split_gain=18911 4082.08 3727.96 1965.3 804.32 787.51 744.633 643.083 745.941 458.179 431.046 384.763 374.448 367.874 358.892 411.691 348.676 328.303 313.467 305.367 303.223 296.357 291.562 282.703 280.479 261.408 311.348 339.315 334.101 276.43
threshold=0.43676757812500006 0.12496948242187501 1.1606445312500002 1.0000000180025095e-35 1.0000000180025095e-35 6.1250000000000009 0.24114990234375003 1.0000000180025095e-35 1.0000000180025095e-35 0.045166015625000007 0.064300537109375014 0 0.21948242187500003 3.5000000000000004 -1.1249999999999998 8.0312500000000018 4.5000000000000009 1.5180664062500002 0.016807556152343753 4.5000000000000009 329.50000000000006 4.7773437500000009 1.0000000180025095e-35 0.013427734375000002 19.914062500000004 36.500000000000007 1.8750000000000002 12.500000000000002 122.50000000000001 0.041748046875000007
decision_type=10 8 8 10 10 10 2 10 8 2 10 9 2 2 2 2 2 8 8 2 2 2 2 2 10 2 2 2 2 2
left_child=1 4 7 -3 -1 9 -5 18 -9 13 -6 16 14 -4 15 -7 22 23 -2 -8 -14 -20 -10 -16 -15 26 27 28 -23 -28
right_child=2 3 5 6 10 12 19 8 11 -11 -12 -13 20 24 17 -17 -18 -19 21 -21 -22 25 -24 -25 -26 -27 29 -29 -30 -31
leaf_value=-0.060056650132955913 -0.042844615031290383 -0.086424594163564725 0.0014376802462805914 -0.02439011721088203 -0.063517638442682031 -0.010461500552454544 -0.014830175368816405 0.021695677328415541 -0.010776225761985364 0.012335641150905775 -0.034168650779148872 0.0083630309705534818 0.039275073565670428 0.0060630189398408101 0.026385059585632222 0.15098366970317592 -0.00057360419868451471 0.0091359216670817422 -0.016651310610871401 -0.0040705211677725681 -0.042787249640074292 0.030907716014161715 -0.0024489645035386887 0.10152924383075555 0.095266684827484086 -0.030533924093827023 -0.029059244313636507 0.015002811139124045 0.17904221409094007 0.14923853201046294
leaf_weight=15029.637787744403 2532.988485917449 2459.6636648029089 210588.11326950788 42452.730689972639 3450.8995148539543 163.78516936302185 51272.423737734556 6778.1345122456551 76806.88647352159 40711.028910756111 24681.322931498289 12922.278813704848 3753.9133118391037 188939.13392037153 1416.5282635688782 229.41324615478516 56930.471078798175 258286.30978649855 20656.949961304665 23169.686558485031 293.7332329750061 155.81335791945457 38035.476788833737 385.28723222017288 213.49338245391846 525.29852440953255 494.90648223459721 385.76059192419052 225.31618313491344 58.865616798400879
leaf_count=87713 8650 15575 104759 130321 20875 28 109586 6745 102122 18343 95128 14027 297 80147 296 24 64279 34031 51941 43931 22 125 49017 60 18 645 667 312 128 10
internal_value=0 -0.0250304 0.00374756 -0.0176172 -0.0455298 0.00648926 -0.0161694 -0.00517975 -0.00364689 0.00447458 -0.0377688 -0.00457694 0.00984379 0.00367398 0.00947899 0.0837344 -0.00555056 0.00936674 -0.016903 -0.0114813 0.0333199 -0.0139829 -0.00801826 0.0424534 0.0061637 0.0158771 0.0343372 0.0664299 0.118482 -0.0101063
internal_weight=0 162516 921490 119355 43161.9 704981 116895 216509 191473 440452 28132.2 184695 264529 399741 260481 393.198 171773 260088 25035.9 74442.1 4047.65 22502.9 114842 1801.82 189153 1845.96 1320.66 766.89 381.13 553.772
internal_count=1039822 503129 536693 299413 203716 238025 283838 298668 236190 203267 116003 229445 34758 184924 34439 52 215418 34387 62478 153517 319 53828 151139 356 80165 1887 1242 565 253 677
cat_boundaries=0 1
cat_threshold=1142980672
is_linear=0
shrinkage=0.0777821


Tree=26
num_leaves=31
num_cat=1
split_feature=2 13 13 13 2 13 31 13 2 13 1 8 8 28 21 0 28 23 5 15 22 23 25 13 3 21 31 22 2 13
split_gain=16625.2 3132.15 2961.7 1110.4 1022.76 1001.14 712.149 702.522 663.13 632.748 441.211 406.817 365.468 359.756 353.184 350.18 349.491 342.592 353.615 370.627 388.428 336.225 324.191 299.058 349.883 298.619 298.525 294.122 289.684 279.396
threshold=0.41064453125000006 0.11138916015625001 1.0976562500000002 1.0000000180025095e-35 0.16070556640625003 1.4438476562500002 0.047119140625000007 0.034194946289062507 1.0000000180025095e-35 3.5830078125000004 0.55004882812500011 3.3710937500000004 1.0522460937500002 1.0000000180025095e-35 4.5000000000000009 1310.5000000000002 -1.0000000180025095e-35 301.50000000000006 0.011138916015625002 662.50000000000011 11.500000000000002 16.500000000000004 0 0.31103515625000006 1.0000000180025095e-35 5.5000000000000009 -0.025878906249999997 22.500000000000004 1.0000000180025095e-35 0.48974609375000006
decision_type=8 10 10 10 10 10 2 10 10 10 10 2 2 2 2 2 2 2 8 2 2 2 9 10 8 2 2 2 10 10
left_child=1 7 3 -2 5 8 9 -1 13 12 -5 -11 -4 16 -6 -13 -3 18 21 26 -21 -7 25 -10 -25 -12 -20 -14 -9 -18
right_child=2 4 6 10 14 17 -8 28 23 11 22 15 27 -15 -16 -17 29 -19 19 20 -22 -23 -24 24 -26 -27 -28 -29 -30 -31
leaf_value=-0.08259225991807885 -0.085560350577056701 0.054138561661224507 0.022951459046421572 -0.0083716298274843417 -0.017294936163503267 0.11802803588723969 0.013764897708388847 -0.062872018332977175 -0.029708492245531508 0.029828451863072186 -0.0020573618950343866 0.0089805590445474585 0.0036163590749498276 0.026437392493423428 -0.0066496884364720711 0.0039251393568050363 -0.05538112505359688 -0.039020146666134674 -0.043637493785406281 0.071076905976477547 0.0088353955284189815 -0.05646200037013889 -0.015944615051807109 0.017489284859827328 -0.020635547150237823 0.0073520991674216694 0.011378532968728766 -0.0020332250564871887 -0.039284641740947548 -0.034183224937314162
leaf_weight=3536.714052811265 990.23415426909924 204.08563080430031 5075.168531358242 81252.169755533338 59493.69200591743 71.927296608686447 62969.087612867355 4048.0511386245489 22335.943311214447 4717.846825003624 110616.77531415224 214106.88117980957 203562.57817047834 417.52362567186356 26808.326075091958 130931.21515274048 9655.2991229146719 1155.8411566615105 832.49510684609413 1060.8243933022022 1352.6084991395473 730.69909738004208 8393.2619435191154 1781.4579336345196 7181.2724358141422 24413.328231334686 1965.8800865709782 74690.707374095917 13010.218470215797 5964.4942295104265
leaf_count=25184 6150 589 3623 125674 143433 113 16319 26606 80058 1378 126744 33947 108080 841 58005 23597 56925 2540 1922 1229 1988 1853 9082 3717 18612 25164 3645 41274 64340 27190
internal_value=0 -0.0233066 0.00346957 -0.00419653 -0.0192097 -0.0274463 0.00595498 -0.0513579 -0.0314917 0.00517818 -0.00383793 0.00736928 0.00247337 -0.0441169 -0.0139882 0.00706218 -0.0459785 -0.000624329 0.0067545 0.0140818 0.0361937 -0.0408251 -0.0012695 -0.0249404 -0.0130577 -0.000356113 -0.00498831 0.00209986 -0.0448821 -0.0472866
internal_weight=0 161607 921719 225666 141012 54710.4 696053 20595 47540.1 633084 224676 349756 283328 16241.4 86302 345038 15823.9 7170.28 6014.43 5211.81 2413.43 802.626 143423 31298.7 8962.73 135030 2798.38 278253 17058.3 15619.8
internal_count=1039822 518790 521032 292814 402660 201222 228218 116130 187932 211899 286664 58922 152977 85545 201438 57544 84704 13290 10750 8784 3217 1966 160990 102387 22329 151908 5567 149354 90946 84115
cat_boundaries=0 1
cat_threshold=1077947393
is_linear=0
shrinkage=0.0770043


Tree=27
num_leaves=31
num_cat=1
split_feature=13 1 13 2 2 13 3 26 10 28 7 2 2 13 14 2 16 8 21 13 2 26 27 2 0 5 0 23 30 23
split_gain=14582 3894.64 2499.3 1724.65 924.008 670.01 554.516 503.242 481.908 479.549 528.891 464.759 452.031 449.158 440.697 422.988 358.811 346.471 341.091 331.601 318.372 286.72 286.325 270.253 247.48 247.194 281.074 240.539 277.646 431.835
threshold=0.32360839843750006 1.0834960937500002 0.064300537109375014 0.089263916015625014 1.0000000180025095e-35 11.421875000000002 1.0000000180025095e-35 1.0000000180025095e-35 2.6113281250000004 0.58618164062500011 9.1250000000000018 0.51782226562500011 7.4824218750000009 19.914062500000004 0.19903564453125003 1.0000000180025095e-35 0 0.31054687500000006 5.5000000000000009 1.0000000180025095e-35 1.9106445312500002 1.0000000180025095e-35 0.31506347656250006 20.765625000000004 1650.5000000000002 1.0000000180025095e-35 1798.5000000000002 310.50000000000006 0.88500976562500011 261.50000000000006
decision_type=8 8 10 10 10 10 8 2 2 2 10 10 10 10 2 8 1 2 2 10 10 2 2 10 2 8 2 2 2 2
left_child=2 4 19 15 8 7 -6 18 -2 16 -11 17 13 -7 -5 -4 24 -8 20 -1 -3 -13 23 -22 -9 26 -10 28 -27 -30
right_child=1 5 3 14 6 12 11 9 25 10 -12 21 -14 -15 -16 -17 -18 -19 -20 -21 22 -23 -24 -25 -26 27 -28 -29 29 -31
leaf_value=-0.084704747309134701 -0.031230386302447444 -0.0025793157189041094 -0.054763951617312609 -0.025147280037405323 0.012452924556829444 0.02392257866975012 0.017812479985938292 0.01089578532743315 -0.060736258075164584 0.005284251619459536 0.2110937870014562 -0.00523879981580811 0.009630055826503418 0.090354787373275125 -0.013382674320488067 -0.033733795259950627 0.0027684252370326766 -0.011230525689362706 0.0075061279330769027 -0.053794034616549982 -0.010231142638992856 0.0015953001972326289 0.0035975024389693819 0.092418050495701176 0.001873690274652568 0.034191853022851861 0.18751390313037369 -0.043779425951734015 -0.0413132675824604 0.13357858599645006
