tree
version=v3
num_class=1
num_tree_per_iteration=1
label_index=0
max_feature_idx=32
objective=tweedie
feature_names=d rolling_mean_dayofweek rolling_mean_7_28 rolling_mean_28_28 rolling_mean_28_90 rolling_mean_28_180 rolling_mean_28_365 rolling_mean_dayofmonth avg_item_store std_item_store avg_item_state avg_dept_store avg_snap avg_event avg_weekofmonth n_items dept_id cat_id release weekofmonth weekofyear dayofweek dayofmonth dayofyear month event_name_1 snap_WI sell_price price_last_week price_next_week price_same_dept price_mean price_std
feature_infos=[637:1969] [0:77.5] [0:56.34375] [0:54.15625] [0:53.625] [0:53.625] [0:53.625] [0:80] [0.0078277587890625:45.375] [0.1185302734375:18.890625] [0.0264129638671875:46.5625] [0.2252197265625:1.9892578125] [0.0047607421875:45.78125] [0:51.25] [0:45.625] [100:823] -1:2:5:6:3:1:0:4 -1:0:2:1 [1:1842] [1:5] [1:53] [0:6] [1:31] [1:366] [1:12] -1:30:24:17:16:21:14:15:19:13:26:23:25:4:0:28:1:29:18:8:12:22:11:6:27:2:20:5:9:3:10 [0:1] [0.01000213623046875:30.984375] [-896.5:0.998046875] [-896.5:0.998046875] [0.001983642578125:6.8125] [-3.28125:0.998046875] [0:2.408203125]
tree_sizes=3462 3504 3508 3511 3519 3505 3527 3553 3527 3532 3571 3536 3571 3569 3556 3573 3582 3568 3581 3575 3587 3586 3571 3593 3588 3590 3583 3580 3552 3554 3564 3563 3577 3553 3554 3580 3586 3575 3586 3594 3534 3576 3551 3597 3581 3588 3566 3555 3566 3604 3568 3584 3567 3600 3600 3591 3563 3593 3552 3567 3557 3563 3545 3558 3553 3565 3561 3511 3581 3527 3522 3556 3544 3545 3581 3522 3554 3527 3521 3554 3545 3546 3545 3495 3541 3525 3559 3512 3532 3527 3539 3574 3524 3546 3547 3514 3538 3532 3557 3534 3533 3547 3539 3544 3519 3547 3549 3547 3540 3525 3522 3517 3524 3494 3514 3502 3510 3499 3502 3505 3553 3580 3521 3558 3534 3564 3516 3510 3497 3538 3473 3440 3485 3470 3539 3468 3526 3544 3588 3447 3474 3535 3517 3532 3458 3461 3516 3569 3519 3523 3476 3481 3488 3510 3480 3503 3521 3603 3498 3505 3479 3505 3475 3496 3517 3522 3532 3524 3499 3558 3492 3547 3506 3539 3512 3531 3526 3508 3573 3536 3519 3576 3485 3504 3466 3583 3568 3466 3577

Tree=0
num_leaves=31
num_cat=0
split_feature=2 2 2 13 1 13 13 2 13 13 21 21 1 13 21 13 13 13 13 1 13 13 13 2 13 2 2 13 13 1
split_gain=783065 131617 105693 33537.2 16058.6 14133.7 14018.6 12259.2 8178.1 5479.85 3888.71 3562.82 3443.29 3417.97 3226.21 2526.9 2526.36 2376.2 2350.34 2256.06 2115.07 1726.48 1687.75 1659.73 1583.09 1520.57 1475.55 1370.97 1332.49 1120.91
threshold=1.6606445312500002 0.55346679687500011 4.3027343750000009 1.0581054687500002 9.4179687500000018 2.2177734375000004 3.1962890625000004 0.23211669921875003 0.54003906250000011 0.47436523437500006 4.5000000000000009 4.5000000000000009 3.1826171875000004 5.2324218750000009 4.5000000000000009 0.15710449218750003 4.2929687500000009 7.2558593750000009 1.7944335937500002 18.085937500000004 0.50073242187500011 0.18054199218750003 1.6230468750000002 1.0000000180025095e-35 0.60961914062500011 2.2675781250000004 1.0180664062500002 3.1962890625000004 0.25036621093750006 6.7089843750000009
decision_type=10 8 10 10 10 10 10 10 10 10 2 2 10 10 2 10 10 10 10 10 10 10 10 10 10 10 10 10 10 10
left_child=1 7 5 8 16 10 11 13 15 28 20 22 27 21 26 -3 -4 -8 -11 -6 -2 -1 -5 -23 -25 -22 -10 -7 -9 -18
right_child=2 3 4 6 19 12 17 9 14 18 -12 -13 -14 -15 -16 -17 29 -19 -20 -21 25 23 -24 24 -26 -27 -28 -29 -30 -31
leaf_value=0.012508153713118697 0.061391143487505503 0.0098950337123968612 0.29239427790989064 0.13891700798902179 0.37862919774502701 0.22568669467370092 0.26601668027797976 0.032607987772744373 0.096449680833990234 0.082404515259964076 0.22886846347185788 0.18717344202892758 0.27810986421726902 0.16689834115787666 0.13910892226342467 0.077359539950019304 0.31965677617959404 0.39126932636337752 0.19103245483908926 0.42624179531903539 0.17512967572452065 0.017961099685012 0.17143119026244877 0.036313401968908407 0.086626741970737803 0.20711275643525096 0.12366460674874966 0.25910882974744526 0.055860781501870349 0.35061869400952583
leaf_weight=89306.896277189255 1354.4875071048737 6285.0347412824631 24621.20979809761 52793.106551647186 30376.563331127167 32834.944823384285 6118.3918808698654 37969.961774706841 61539.697921395302 52765.72610604763 29634.761844754219 35428.898220658302 36718.621243834496 1663.5244379043579 40775.250715255737 47590.715482115746 30273.766502380371 2012.9558594226837 2069.9497731924057 14800.975480079651 37811.877561450005 53393.693446755409 22885.309312582016 56706.792308688164 7028.8929516077042 24494.716763138771 29459.052692532539 19599.038861513138 70219.942636728287 19050.665053248405
leaf_count=111961 1518 7924 12125 48035 7835 22127 3452 45526 63101 56120 19714 27586 19509 1387 37079 51269 12664 450 1590 1901 30680 66146 18799 67420 7395 17744 28026 11426 79753 6365
internal_value=0.140133 0.0802117 0.273989 0.128894 0.347255 0.226153 0.170278 0.0402183 0.102314 0.0607526 0.198945 0.161002 0.254625 0.0241318 0.115734 0.0694893 0.318556 0.297024 0.086505 0.394228 0.185016 0.0229813 0.148749 0.0309667 0.0418621 0.187703 0.10526 0.238179 0.0477001 0.331615
internal_weight=0 676014 301572 304888 119123 182448 119239 371125 185650 163026 93295.8 111107 89152.6 208100 131774 53875.8 73945.6 8131.35 54835.7 45177.5 63661.1 206436 75678.4 117129 63735.7 62306.6 90998.8 52434 108190 49324.4
internal_count=886627 723019 163608 285721 40890 122718 98322 437298 187399 182989 69656 94420 53062 254309 128206 59193 31154 3902 57710 9736 49942 252922 66834 140961 74815 48424 91127 33553 125279 19029
is_linear=0
shrinkage=1


Tree=1
num_leaves=31
num_cat=0
split_feature=13 2 2 1 13 2 2 1 13 1 13 13 1 13 2 2 21 13 12 13 2 2 13 21 13 1 13 21 21 21
split_gain=641259 111805 102714 23030.5 20895.3 19064.8 11031.8 9875.92 5832.46 5438.89 4294.14 4181.81 3872.84 3358.05 2641.22 1742.92 1639.75 1605.52 1602.1 1427.51 1421.42 1388.66 1382.77 1231.44 1170.71 1147.9 1128.68 1119.34 1098.45 894.729
threshold=1.5009765625000002 3.7675781250000004 0.51782226562500011 8.0820312500000018 0.82275390625000011 0.16070556640625003 0.19641113281250003 2.3671875000000004 0.30334472656250006 1.5498046875000002 0.37890625000000006 3.9990234375000004 15.707031250000002 2.6289062500000004 0.98217773437500011 1.9106445312500002 3.5000000000000004 2.9667968750000004 9.3398437500000018 7.2558593750000009 0.053558349609375007 1.1250000000000002 0.29284667968750006 3.5000000000000004 0.076446533203125014 2.6328125000000004 0.085540771484375014 3.5000000000000004 3.5000000000000004 4.5000000000000009
decision_type=10 8 8 10 10 10 10 10 10 10 10 10 10 10 10 10 2 10 2 10 10 8 10 2 10 10 10 2 2 2
left_child=2 5 6 11 8 18 20 13 26 21 24 27 -5 15 16 23 -10 28 -2 -13 -1 -6 -22 -7 -8 -11 -4 -3 -9 -12
right_child=1 3 4 12 9 7 10 17 14 25 29 19 -14 -15 -16 -17 -18 -19 -20 -21 22 -23 -24 -25 -26 -27 -28 -29 -30 -31
leaf_value=-0.12724166630601078 -0.070044599749644415 0.10219594943995466 -0.13886974363089361 0.20722891015219297 -0.01586772792822656 0.014450799529194484 -0.14021638387798446 0.063999081299819183 -0.057198726856296928 0.026741439933002691 -0.069298275290220451 0.15322582996693118 0.26323419335223824 0.081663705473165385 -0.011715016792487362 0.056866379675477849 -0.031634755702796828 0.11571398823441922 0.16000493302206983 0.19190568355066287 -0.11477754278597381 0.0067376877457625628 -0.082200055377715839 0.045834496965915454 -0.091914777120902333 0.062749591272420385 -0.083045588795735023 0.13719508661006832 0.095865070489655702 -0.044463719710326415
leaf_weight=77041.866233289242 11158.623157680035 19512.194989323616 5014.3538687825203 36554.321630775928 54928.186410069466 29081.080452263355 5210.3131218552589 16098.057311654091 54234.656428515911 33785.346791446209 47256.225339889526 42849.017421960831 18090.629734754562 23517.816481292248 29158.23279607296 33347.889511704445 44993.27681350708 25775.356369793415 304.80453771352768 11962.084840118885 66717.102712988853 51706.460467100143 15792.585656881332 21177.591478228569 87686.829491198063 11675.734308123589 12153.290021777153 16554.758796393871 31054.945929944515 20337.430599629879
leaf_count=105476 13180 11258 6998 10537 52681 24756 7278 11149 59864 27640 54379 18460 2744 14998 27669 23913 45873 13885 140 3969 88640 45660 19092 16053 108836 8204 14545 8059 18748 21943
internal_value=0 0.109568 -0.0602045 0.17498 -0.018343 0.059864 -0.099137 0.0677454 -0.0451566 0.00731719 -0.0808105 0.14444 0.22577 0.0486148 -0.0379098 0.0393185 -0.0456072 0.0958463 -0.0639277 0.161667 -0.117571 -0.00490651 -0.108542 0.027675 -0.0946239 0.0359894 -0.0993508 0.118261 0.084986 -0.0618261
internal_weight=0 337039 617692 145523 297650 191516 320042 180053 145554 152096 160491 90878.1 54645 107124 128386 83606.6 99227.9 72928.4 11463.4 54811.1 159552 106635 82509.7 50258.7 92897.1 45461.1 17167.6 36067 47153 67593.7
internal_count=886627 191849 694778 55027 289134 136822 405644 123502 154949 134185 192436 41746 13281 79720 133406 64722 105737 43782 13320 22429 213208 98341 107732 40809 116114 35844 21543 19317 29897 76322
is_linear=0
shrinkage=0.099


Tree=2
num_leaves=31
num_cat=0
split_feature=2 2 1 13 2 1 13 13 13 2 13 21 13 13 13 21 1 21 13 13 13 13 13 13 2 3 13 3 21 8
split_gain=527963 95319.5 86288 23941 14292.4 13526.5 11378.1 9457.07 5051.53 5023.72 3589.86 3277.59 3094.13 3031.4 2994.7 2916.16 2521.94 2268.03 2124.37 1528.15 1496.83 1490.91 1319.33 1311.84 1218.74 1210.95 1205.45 1198.58 1191.47 1025.26
threshold=1.5180664062500002 0.48217773437500006 4.7089843750000009 0.86450195312500011 2.5898437500000004 10.183593750000002 2.4580078125000004 0.25036621093750006 0.35681152343750006 1.0000000180025095e-35 0.96923828125000011 3.5000000000000004 3.6591796875000004 7.2558593750000009 2.6865234375000004 4.5000000000000009 22.414062500000004 4.5000000000000009 5.2324218750000009 1.9067382812500002 0.12988281250000003 0.097167968750000014 1.3110351562500002 1.7792968750000002 0.76782226562500011 1.0000000180025095e-35 0.40942382812500006 0.41064453125000006 3.5000000000000004 14.253906250000002
decision_type=10 8 10 10 10 10 8 10 10 10 10 2 10 10 10 2 10 2 10 10 10 10 10 10 10 8 10 10 2 2
left_child=1 7 4 8 11 18 15 20 21 14 26 19 28 27 -9 22 -7 24 -4 -2 -1 -3 -5 -13 -10 -12 -11 -8 -6 -16
right_child=2 3 5 6 12 16 13 9 17 10 25 23 -14 -15 29 -17 -18 -19 -20 -21 -22 -23 -24 -25 -26 -27 -28 -29 -30 -31
leaf_value=-0.12562833718327157 0.016207591594630904 -0.13546052307867415 0.13076646967692729 -0.015046252952653431 0.069359876998389428 0.20491196054036245 0.11093421930379459 -0.11614206751035308 -0.053439740725770901 -0.082181112083217753 0.053235739185780943 0.045375820845942584 0.11730750685748287 0.21616980517237094 -0.036203352414118789 0.025037380358989586 0.2650837352456355 -0.015809132942661126 0.16517776234515741 0.046495875283872029 -0.10459852593515293 -0.072032567049826246 0.0091124351071232203 0.075004851873979844 -0.0305874720553867 -0.029634978831697328 -0.061869992514078868 0.043866715989468834 0.09664533449441387 0.26186494024779272
leaf_weight=53575.623730242252 41211.44618678093 4290.5635542869568 39027.229878664017 56620.651551902294 38411.745461344719 29091.329592764378 5874.4783090353012 37462.158562600613 51807.231601059437 62083.066878497601 2162.8573305010796 29419.466463685036 32771.940010249615 1905.4713973402977 3985.9858747124672 43444.747854053974 8689.5584247112274 41024.766779184341 30860.526383042336 26157.753208816051 82694.792742371559 20902.029979705811 35222.357073128223 28031.794569671154 39518.067466378212 7810.3257020711899 51230.723623037338 4536.1958134770393 25631.182679533958 114.02295976877213
leaf_count=79870 34314 6621 17344 54554 24304 7108 3035 54491 58920 79967 1717 21482 15576 435 4424 35212 1012 40464 10629 18517 115666 25643 30353 17451 41129 8216 60761 3210 14184 18
internal_value=0 -0.0546412 0.0995218 -0.0160361 0.0645537 0.171503 0.0123259 -0.0937626 -0.0426089 -0.0779707 -0.0680365 0.0426342 0.0928139 0.102514 -0.107439 0.00411549 0.218751 -0.0349519 0.145962 0.0279678 -0.112867 -0.082835 -0.00578125 0.0598325 -0.0435512 -0.011663 -0.0729982 0.0817112 0.08028 -0.0279139
internal_weight=0 606266 329304 305147 221635 107669 147604 301120 157543 164849 123287 124820 96814.9 12316.1 41562.2 135288 37780.9 132350 69887.8 67369.2 136270 25192.6 91843 57451.3 91325.3 9973.18 113314 10410.7 64042.9 4100.01
internal_count=886627 704706 181921 299576 145828 36093 126799 405130 172777 209594 150661 91764 54064 6680 58933 120119 8120 140513 27973 52831 195536 32264 84907 38933 100049 9933 140728 6245 38488 4442
is_linear=0
shrinkage=0.09801


Tree=3
num_leaves=31
num_cat=0
split_feature=13 1 2 2 13 2 2 2 1 13 13 13 1 1 21 13 21 2 2 13 2 13 1 13 21 13 13 2 21 3
split_gain=435490 82684.4 77135 18146.1 14562.9 14256 9976.22 8625.03 4673.25 4621.88 4013.91 3925.89 2716.84 2328.18 1920.63 1803.19 1483.75 1443 1205.62 1205.37 1202.6 1261.6 1126.56 1082.85 873.481 852.174 844.469 826.365 738.346 727.387
threshold=1.3955078125000002 4.3652343750000009 0.48217773437500006 2.0898437500000004 0.67724609375000011 9.5546875000000018 0.16070556640625003 1.0000000180025095e-35 1.1835937500000002 3.2753906250000004 0.32287597656250006 0.15710449218750003 21.085937500000004 6.7089843750000009 3.5000000000000004 7.2558593750000009 3.5000000000000004 0.73217773437500011 0.98217773437500011 0.076446533203125014 1.0000000180025095e-35 0.33117675781250006 2.1826171875000004 5.2324218750000009 4.5000000000000009 5.4921875000000009 3.9990234375000004 3.1601562500000004 3.5000000000000004 1.0000000180025095e-35
decision_type=10 10 8 8 10 10 10 10 10 10 10 10 10 10 2 10 2 10 8 10 10 10 10 10 2 10 10 10 2 8
left_child=2 3 6 7 11 13 20 23 18 16 19 -4 -7 26 25 -11 27 28 -6 -8 -1 -22 -10 -2 -12 -9 -3 -5 -13 -16
right_child=1 5 4 9 8 12 10 14 22 15 24 17 -14 -15 29 -17 -18 -19 -20 -21 21 -23 -24 -25 -26 -27 -28 -29 -30 -31
leaf_value=-0.1239129722868897 -0.076583844685286021 0.097846770545928982 -0.12281930742699988 0.042232531664800191 -0.02459199576552799 0.18364718926010964 -0.13598659927585843 0.015412061019346357 0.010095720896662098 0.092372864433358001 -0.065946317474290986 -0.062045591446312817 0.24447499295388561 0.14573079434205022 0.097649302009299083 0.15885462912149681 0.07531109090905462 -0.028100473475013009 -0.0045017749839657917 -0.087397001893829734 -0.10941961453225105 -0.07012885833669262 0.039146493494263288 0.01367633708513359 -0.042977007083366991 0.126691140266177 0.12398596679878146 0.069310092595027809 -0.040849680921053011 0.041195409273170315
leaf_weight=51615.180582225323 8856.3192189335823 21370.816519200802 6239.3518474698067 36682.875294089317 58959.391782820225 28517.007074594498 5149.8010419607162 51965.961050331593 53009.584872663021 42829.320304572582 51658.875479698181 34045.929255187511 9125.1876649856567 32950.420800507069 2260.5386322140694 4219.440633058548 38094.417983949184 36383.389793932438 53768.943585753441 72139.224923491478 57657.831610798836 8878.7785199284554 16472.895523130894 1457.2767367959023 22322.736032545567 656.08678168058395 25545.364194452763 14929.958112537861 28362.53717392683 43457.026658594608
leaf_count=83700 12186 10484 9909 25465 60832 7149 8627 42554 45850 21505 65624 41849 1149 11220 1301 1390 22083 38542 49859 102371 89310 11613 12008 1313 26343 295 10293 8869 31910 31024
internal_value=0 0.0822344 -0.0543777 0.0501862 -0.0193971 0.149165 -0.091672 0.0205854 -0.00280971 0.0737041 -0.0751708 -0.0481733 0.198393 0.125963 0.0294387 0.0983351 0.0607859 -0.043459 -0.0150094 -0.0906345 -0.112799 -0.104177 0.0169831 -0.0638304 -0.0590157 0.0167995 0.112079 0.0500652 -0.0524128 0.0439868
internal_weight=0 362918 556664 245409 287242 117509 269422 108653 182211 136756 151271 105031 37642.2 79866.6 98339.6 47048.8 89707.3 98791.9 112728 77289 118152 66536.6 69482.5 10313.6 73981.6 52622 46916.2 51612.8 62408.5 45717.6
internal_count=886627 208280 678347 167985 290759 40295 387588 88673 168549 79312 202965 122210 8298 31997 75174 22895 56417 112301 110691 110998 184623 100923 57858 13499 91967 42849 20777 34334 73759 32325
is_linear=0
shrinkage=0.0970299


Tree=4
num_leaves=31
num_cat=0
split_feature=13 2 2 2 1 13 2 2 2 13 13 13 1 1 21 13 21 21 13 21 21 13 13 21 13 2 13 13 13 2
split_gain=359504 79416.4 57580.2 15891 14882.3 11914.9 7200.25 6782.95 4143.97 3884.72 3354.27 3275.44 2679.97 2654.44 2313.7 2297.08 1829.19 1478.47 1365.99 1169.29 1164.22 932.859 932.197 927.868 892.789 865.928 837.304 817.615 817.186 784.88
threshold=1.2236328125000002 3.9101562500000004 0.41064453125000006 1.7319335937500002 10.582031250000002 0.54003906250000011 0.12496948242187501 1.0000000180025095e-35 1.1250000000000002 2.9667968750000004 0.25036621093750006 0.085540771484375014 28.250000000000004 6.1835937500000009 4.5000000000000009 8.7070312500000018 4.5000000000000009 3.5000000000000004 5.2324218750000009 4.5000000000000009 3.5000000000000004 5.9433593750000009 0.076446533203125014 3.5000000000000004 0.46972656250000006 1.0000000180025095e-35 0.22552490234375003 8.7070312500000018 6.7148437500000009 2.5175781250000004
decision_type=10 10 8 8 10 10 10 10 10 10 10 10 10 10 2 10 2 2 10 2 2 10 10 2 10 10 10 10 10 10
left_child=2 3 6 7 13 11 25 18 16 14 22 -4 27 28 29 19 -7 21 -2 -11 -10 -9 -8 -13 -12 -1 -27 -6 -3 -5
right_child=1 4 5 9 12 8 10 17 20 15 24 23 -14 -15 -16 -17 -18 -19 -20 -21 -22 -23 -24 -25 -26 26 -28 -29 -30 -31
leaf_value=-0.12162727700917994 -0.074935204071543512 0.0904470431232232 -0.13384963512458564 0.029428353225141653 0.15061509509110402 -0.029922390098665378 -0.13167398045692535 0.0040169063926336884 -0.0041018050272165884 0.06347529710957997 -0.070964777558789993 -0.060978587601866183 0.24215084900746178 0.12708479154825314 0.065235183843625408 0.18355742240626324 -0.0054669760617747573 0.029058102230407879 0.022210100007464491 0.095942322824274714 0.02275660150476207 0.13575963029781252 -0.090635784780606354 -0.039891615288127451 -0.048382772315201786 -0.1102813801710659 -0.079484477699451259 0.18293690571739835 0.12391769874218338 0.049121416631714113
leaf_weight=46108.110716342926 9902.4790903329849 50867.680575430393 4731.3279232978821 50769.680576443672 12522.084010601044 88964.576443135738 5655.8421348929405 51372.934174895287 32081.082059562206 31266.530587077141 51879.844512701035 42980.634515702724 5522.638846039772 39531.148653626442 38816.615483939648 1839.2956269979477 41334.798977375031 45175.644378423691 1543.8613931536674 15217.404298067093 27794.071631073952 500.79198008775711 52686.37893307209 34881.13778334856 23460.277506649494 33698.067744672298 10743.145101606846 17061.125485539436 7757.3855246305466 29541.223939061165
leaf_count=81355 14533 23319 8539 37119 3353 97202 10289 44690 29316 17255 72254 55576 582 13489 22514 446 39527 34086 1333 7092 22359 188 81928 41458 29065 57033 15744 3570 2767 18646
internal_value=0 0.0661504 -0.0554279 0.0367425 0.127046 -0.0257829 -0.0914898 0.00810457 -0.0125522 0.0552977 -0.077323 -0.0562474 0.180723 0.107848 0.0459792 0.0782701 -0.0221644 0.0163532 -0.0618324 0.074104 0.00836588 0.00528876 -0.0946141 -0.0515319 -0.0639329 -0.112405 -0.102837 0.169256 0.0948759 0.0366722
internal_weight=0 409209 496999 275946 133262 272768 224232 108496 190175 167451 133682 82593.1 35105.8 98156.2 119128 48323.2 130299 97049.4 11446.3 46483.9 59875.2 51873.7 58342.2 77861.8 75340.1 90549.3 44441.2 29583.2 58625.1 80310.9
internal_count=886627 244982 641645 197902 47080 293977 347668 94830 188404 103072 193536 105573 7505 39575 78279 24793 136729 78964 15866 24347 51675 44878 92217 97034 101319 154132 72777 6923 26086 55765
is_linear=0
shrinkage=0.0960596


Tree=5
num_leaves=31
num_cat=0
split_feature=13 2 2 2 13 1 2 2 1 13 1 13 13 13 21 21 13 13 2 2 21 2 13 21 1 13 28 21 3 13
split_gain=297019 64937.8 51953 17511.4 11301.3 9686.94 6115 5872.74 3816.48 3524.65 3309.95 2875.11 2729.3 2128.99 1483.32 1413.38 1333.79 1310.13 1208.44 1061.13 967.753 926.83 851.283 848.913 843.255 834.163 808.461 768.475 757.991 718.987
threshold=1.2055664062500002 3.3750000000000004 0.37500000000000006 8.0546875000000018 0.56958007812500011 1.4501953125000002 0.12496948242187501 1.0000000180025095e-35 18.085937500000004 0.085540771484375014 1.1835937500000002 4.2929687500000009 0.23712158203125003 2.2177734375000004 3.5000000000000004 4.5000000000000009 1.9506835937500002 7.2558593750000009 0.66088867187500011 0.76782226562500011 4.5000000000000009 1.0000000180025095e-35 0.32287597656250006 3.5000000000000004 32.421875000000007 0.071777343750000014 0.0068359375000000009 4.5000000000000009 0.053558349609375007 10.125000000000002
decision_type=10 8 8 10 10 10 10 10 10 10 10 10 10 10 2 2 10 10 10 8 2 10 10 2 10 10 2 2 8 10
left_child=2 5 6 11 9 7 21 26 29 -4 19 15 25 20 -13 -3 -9 23 -11 -6 -7 -1 -23 -15 -10 -8 -2 -14 -18 -5
right_child=1 3 4 8 10 13 12 16 24 18 -12 14 27 17 -16 -17 28 -19 -20 -21 -22 22 -24 -25 -26 -27 -28 -29 -30 -31
leaf_value=-0.11851134444573268 -0.067300686843526969 0.059742353388197521 -0.13192150261178798 0.12657720747426296 -0.029953118224127901 0.023744886444341196 -0.13081694869396077 0.0034704980461658088 0.17801202385037593 -0.053809764952754011 0.0087138951314375251 0.084290454870297557 -0.068877365457231943 0.040965321285700268 0.1150223132114664 0.089547019832691796 0.079167365848262949 0.13921841869500717 -0.02986349171032994 -0.012304123276075054 0.043693981508807739 -0.10374153503726354 -0.063062450653736279 0.063461529709374701 0.23027394125892248 -0.087892900213480438 0.095540197702496873 -0.046419116703241906 0.024362375922993788 0.15528914579037784
leaf_weight=42331.291282892227 10653.18817794323 43216.816434383392 4655.5807157158852 26554.217356085777 52329.360586702824 52990.608516097069 4517.9886859059334 58446.763333022594 8151.2031120061874 68793.50188845396 53048.538902580738 29759.436734557152 45535.206258893013 29324.848513364792 27173.661646962166 21571.982744574547 2566.6263929605484 1621.4975371360779 26362.898367762566 74917.35943031311 37595.023947417736 36313.962606191635 5336.1259432435036 31429.609033107758 4246.9259445667267 43682.658636748791 283.0562379360199 19758.509647250175 20603.60904610157 11220.638205528259
leaf_count=80976 15791 23129 9223 7781 59152 39359 9023 50360 1421 91482 45913 12257 65903 18253 9278 9522 1468 552 30451 74675 24131 65064 7683 16901 424 72226 242 26500 14883 2604
internal_value=0 0.0580264 -0.0517913 0.102855 -0.0254552 0.0266404 -0.0891474 0.00235607 0.150132 -0.0511283 -0.0112425 0.083367 -0.0747521 0.0413342 0.0989585 0.0696661 0.011125 0.0548547 -0.0471755 -0.0195622 0.0320242 -0.108602 -0.0985298 0.0526031 0.195914 -0.0919163 -0.063086 -0.0620813 0.0304333 0.135106
internal_weight=0 417410 477583 171895 280107 245515 197476 92553.2 50173 99812 180295 121722 113494 152962 56933.1 64788.8 81617 62376 95156.4 127247 90585.6 83981.4 41650.1 60754.5 12398.1 48200.6 10936.2 65293.7 23170.2 37774.9
internal_count=886627 248356 638271 66416 310896 181940 327375 82744 12230 131156 179740 54186 173652 99196 21535 32651 66711 35706 121933 133827 63490 153723 72747 35154 1845 81249 16033 92403 16351 10385
is_linear=0
shrinkage=0.095099


Tree=6
num_leaves=31
num_cat=0
split_feature=2 13 2 13 13 13 13 13 1 1 13 13 2 1 1 21 13 21 13 28 2 3 13 15 1 21 3 21 12 2
split_gain=247891 59624.6 38202.8 11848 11704.1 8934.29 6678.06 4290.72 3940.79 3611.22 2712.84 2191.64 3404.89 1783.59 1734.16 1678.3 1539.43 1323.45 1108.57 980.411 882.319 881.856 812.298 786.871 766.71 739.008 714.992 708.348 672.875 654.883
threshold=1.1250000000000002 3.5185546875000004 0.30358886718750006 1.5405273437500002 10.125000000000002 0.58422851562500011 0.36083984375000006 0.18054199218750003 6.9160156250000009 2.8173828125000004 0.071777343750000014 2.2910156250000004 1.0000000180025095e-35 29.335937500000004 1.7749023437500002 4.5000000000000009 0.49230957031250006 3.5000000000000004 0.91821289062500011 1.0000000180025095e-35 4.9472656250000009 1.0000000180025095e-35 0.081024169921875014 716.50000000000011 12.917968750000002 3.5000000000000004 1.0000000180025095e-35 4.5000000000000009 8.3554687500000018 1.0000000180025095e-35
decision_type=8 10 10 10 8 10 10 10 10 8 10 10 10 8 10 2 10 2 10 2 8 8 10 2 10 2 8 2 2 10
left_child=2 3 7 6 8 10 -2 22 20 -5 -4 12 19 -6 -8 18 -14 -12 -7 -9 25 -18 -1 -13 -10 -3 -17 -11 -25 -24
right_child=1 4 5 9 13 15 14 11 24 27 17 23 16 -15 -16 26 21 -19 -20 -21 -22 -23 29 28 -26 -27 -28 -29 -30 -31
leaf_value=-0.12233615758358414 -0.080320989833899709 0.052712702099667608 -0.13419365777070019 0.029153141103567641 0.14512013648507158 -0.029287333868146793 0.00069677246300320816 -0.10593655275422306 0.10285648202474183 0.047595716433190292 -0.055908264304414201 -0.053074460012965334 -0.073149345670223034 0.20675437486873127 0.02435749776145436 0.058498814233887322 0.011549191168722337 -0.035012508820205783 -0.0093976667022558514 0.019687151593117687 0.084595361936582472 -0.049627440673260935 -0.12276061689363978 0.0010238147641761851 0.13366848395362099 0.07829167987269732 -0.0015283862890731691 0.065702439062669732 0.13938565537565645 -0.093272898322020681
leaf_weight=18316.701423585415 7941.1819145083427 22339.329329013824 3214.6594167947769 103944.49556916952 18194.01756799221 57013.331589102745 80379.298023462296 30842.167350530624 33791.35889852047 40961.990991353989 59246.987060248852 2617.8795727491379 59377.176281273365 5395.99817943573 41702.466946005821 1828.4806224107742 2579.451852440834 49158.257219731808 44014.43133187294 560.67504632472992 34953.220742225647 10974.830247998238 8199.118333876133 2396.6620218753815 9082.3654679059982 18142.34958422184 46183.030050337315 35966.082352876663 358.09691607952118 35932.128449857235
leaf_count=38317 12426 11109 7191 70737 3898 65775 72448 60962 10447 22843 83540 3498 96239 603 30815 1300 2777 63108 42470 753 13482 14644 17280 2714 2089 7785 43137 17636 160 66444
internal_value=0 0.0480956 -0.0515508 0.0250146 0.0986654 -0.0288191 0.00333734 -0.0859687 0.0865916 0.0405976 -0.0489602 -0.0747547 -0.0777744 0.159218 0.00877915 -0.0137348 -0.0666141 -0.0464327 -0.0206221 -0.103694 0.0736376 -0.0379852 -0.105669 -0.0161141 0.109384 0.0641762 0.000757702 0.0560611 0.0190098 -0.0987514
internal_weight=0 452794 432814 310896 141899 260659 130023 172155 118309 180873 111620 109707 104334 23590 122082 149039 72931.5 108405 101028 31402.8 75434.9 13554.3 62447.9 5372.64 42873.7 40481.7 48011.5 76928.1 2754.76 44131.2
internal_count=886627 276318 610309 226905 49413 306521 115689 303788 44912 111216 153839 181747 175375 4501 103263 152682 113660 146648 108245 61715 32376 17421 122041 6372 12536 18894 44437 40479 2874 83724
is_linear=0
shrinkage=0.094148


Tree=7
num_leaves=31
num_cat=2
split_feature=2 13 2 13 2 13 13 13 1 21 13 1 2 13 13 1 3 21 13 3 21 13 12 28 13 13 2 13 25 25
split_gain=206767 53570.2 28893.9 11451.2 9746.79 6050.16 5398.56 4288.94 3118.32 2280.12 2270.38 2258.81 2034.88 3035.17 1766.26 1617.61 1547.07 1284.4 1071.39 1047.92 873.088 843.388 778.013 745.23 696.297 692.884 668.049 667.756 658.69 653.023
threshold=0.98217773437500011 3.1962890625000004 0.30358886718750006 8.7070312500000018 1.9106445312500002 0.51025390625000011 0.42224121093750006 0.17694091796875003 5.7089843750000009 3.5000000000000004 0.071777343750000014 24.585937500000004 1.0000000180025095e-35 1.7944335937500002 0.49230957031250006 2.9169921875000004 1.0000000180025095e-35 3.5000000000000004 1.0854492187500002 0.053558349609375007 3.5000000000000004 0.081024169921875014 9.3398437500000018 1.0000000180025095e-35 0.30334472656250006 1.5600585937500002 1.0000000180025095e-35 0.21270751953125003 0 1
decision_type=8 10 10 10 10 10 10 10 10 2 10 8 10 10 10 10 8 2 10 8 2 10 2 2 10 10 10 10 9 9
left_child=2 4 7 8 6 10 27 21 -3 18 -4 -5 13 23 -14 24 -7 29 -8 -16 -12 -1 -15 -9 -6 -11 -23 -2 -17 -18
right_child=1 3 5 11 15 16 9 12 -10 25 20 -13 14 22 19 28 17 -19 -20 -21 -22 26 -24 -25 -26 -27 -28 -29 -30 -31
leaf_value=-0.1195939244771255 -0.097405622503143177 0.05858294709466863 -0.13278398592455731 0.11861327997843692 -0.11586037130118983 0.033118856574954086 -0.015178538379004939 -0.10524266639101898 0.08787336799816646 0.013138262893588104 -0.055115726323082731 0.1775768159032538 -0.068715978637221328 -0.040648279461253198 0.015382983376175193 0.051615924603627149 -0.030572852920990767 -0.0096817691892692858 0.0051742754768981623 -0.045602328507754343 -0.035974343085319056 -0.12018832269546523 0.11272414663780184 0.0095885634089632396 0.028671631045858133 0.031458383824836081 -0.089066183639582172 -0.045665093879509101 0.011887609745142377 0.005754084042700296
leaf_weight=16872.78060784936 3596.3675473332405 79205.565180599689 2731.0539948046207 26477.026480317116 290.64499604701996 5031.4024292826653 35472.215922951698 26775.958727121353 52510.320340752602 60435.244567334652 45584.054699331522 7173.4246728420258 58187.961166501045 6609.6861234903336 3158.2722155451775 52138.839684098959 65259.342693686485 61130.358589887619 61297.155283808708 10880.495502471924 37924.855812728405 7332.3687765300274 300.39090383052826 500.15012159943581 78568.979168951511 25503.10350805521 32774.82551124692 5451.9742003679276 3921.370493799448 4605.8667212128639
leaf_count=38317 6854 35999 6706 6253 529 4235 35928 57558 16709 49905 67873 902 98480 9571 3291 27001 76492 62446 51143 14738 51105 16791 140 699 51650 16612 64203 7388 2548 4561
internal_value=0 0.0394315 -0.0517186 0.0826572 0.0175503 -0.0298447 0.00404567 -0.0814742 0.07026 0.00752597 -0.0491577 0.131183 -0.070424 -0.0891585 -0.0615566 0.0367438 -0.0176004 -0.0195484 -0.00228634 -0.0318826 -0.0464228 -0.102111 -0.033981 -0.103137 0.0281389 0.018575 -0.0947559 -0.06623 0.0488483 -0.0281816
internal_weight=0 492042 385660 165366 326676 222267 191756 163393 131716 182708 86240 33650.5 106413 34186.2 72226.7 134920 136027 130996 96769.4 14038.8 83508.9 56980 6910.08 27276.1 78859.6 85938.3 40107.2 9048.34 56060.2 69865.2
internal_count=886627 309421 577206 59863 249558 273418 167830 303788 52708 153588 125684 7155 184477 67968 116509 81728 147734 143499 87071 18029 118978 119311 9711 58257 52179 66517 80994 14242 29549 81053
cat_boundaries=0 1 2
cat_threshold=1073743904 1082131264
is_linear=0
shrinkage=0.0932065


Tree=8
num_leaves=31
num_cat=0
split_feature=13 2 2 1 2 13 2 2 2 13 13 13 21 2 1 3 5 21 13 21 21 13 28 13 21 13 13 15 21 14
split_gain=173295 42065.3 30113.9 9383.75 8204.93 6740.63 4399.34 3681.52 2808.78 2639.74 2555.82 2385.33 2054.36 1970.91 1745.08 1207.69 1197.26 1069.26 1043.36 1033.93 963.309 943.881 760.453 730.219 679.005 628.383 584.876 580.588 578.301 472.762
threshold=0.98168945312500011 3.3750000000000004 0.30358886718750006 11.367187500000002 1.3393554687500002 0.36083984375000006 0.053558349609375007 1.0000000180025095e-35 0.76782226562500011 0.051895141601562507 0.22088623046875003 5.2324218750000009 4.5000000000000009 5.6972656250000009 30.914062500000004 1.0000000180025095e-35 3.7197265625000004 3.5000000000000004 1.9067382812500002 3.5000000000000004 4.5000000000000009 0.058471679687500007 0.0068359375000000009 5.4921875000000009 4.5000000000000009 14.210937500000002 1.8588867187500002 622.00000000000011 3.5000000000000004 0.13287353515625003
decision_type=8 10 8 10 8 8 10 8 10 10 10 10 2 10 10 8 10 2 10 2 2 10 2 10 2 10 10 2 2 2
left_child=2 4 6 13 7 9 -1 16 19 -4 21 12 18 17 -5 -9 22 -3 -6 -7 -10 -8 -2 24 -17 -13 -14 -18 -12 -23
right_child=1 3 5 14 11 8 10 15 20 -11 28 25 26 -15 -16 23 27 -19 -20 -21 -22 29 -24 -25 -26 -27 -28 -29 -30 -31
leaf_value=-0.10677900710817012 -0.067268829712875566 0.042955684271098124 -0.131068084991668 0.10966784516919238 0.010786978021623931 -0.037920033812254242 -0.12470458666121344 0.043591750342153388 -0.013860967317209524 -0.051522910552458834 -0.06465905087786486 0.073686455760571604 0.029042379927392975 0.075745969714415787 0.17186561220558899 -0.0077646447982805565 -0.076953433404522334 0.064509485056774993 0.026624829654818639 -0.01991887003518714 0.0072914345417635536 -0.093469174975375449 0.073603194086571372 0.10458330512745642 0.0097321381433001196 0.17548738998004576 0.046042446044850603 0.055816779796869949 -0.044209091209346643 -0.074006167830984806
leaf_weight=41071.104732692242 10567.982262134552 41124.326336562634 3844.0006832182407 27309.623868823051 73262.11184066534 58084.400322914124 4696.4411260187626 5415.8758872151375 56951.883361399174 46792.275152415037 26202.042330235243 5578.6572726964951 33244.517594158649 57177.16999399662 4469.4430859088898 57445.716575086117 368.77506712079048 37438.480042755604 68559.496935486794 51041.264826178551 27033.744114995003 16930.843383938074 336.6708390712738 550.70693755149841 28134.145634055138 568.92992353439331 35774.660443127155 1170.6463467180729 21382.888187110424 28537.600912004709
leaf_count=96247 19501 19595 9920 5856 56980 77827 11824 3871 60127 72648 44371 2147 21620 18720 472 54503 539 15002 42319 59733 24377 36374 317 217 22939 84 18534 998 33695 55270
internal_value=0 0.035798 -0.0471325 0.0732796 0.0162363 -0.0275951 -0.0814372 -0.0050746 -0.0197375 -0.0575615 -0.0707894 0.0264495 0.0247975 0.0627126 0.118415 0.00132656 -0.0521656 0.053227 0.0184433 -0.0295004 -0.00705232 -0.0853214 -0.0629195 -0.00133107 -0.00201263 0.0831076 0.037854 0.0240111 -0.0554696 -0.0812535
internal_weight=0 488498 382568 167519 320979 243748 138821 103991 193111 50636.3 97749.8 216988 210841 135740 31779.1 91546.4 12444.1 78562.8 141822 109126 83985.6 50164.9 10904.7 86130.6 85579.9 6147.59 69019.2 1539.42 47584.9 45468.4
internal_count=886627 304214 582413 59645 244569 304632 277781 102885 222064 82568 181534 141684 139453 53317 6328 81530 21355 34597 99299 137560 84504 103468 19818 77659 77442 2231 40154 1537 78066 91644
is_linear=0
shrinkage=0.0922745


Tree=9
num_leaves=31
num_cat=0
split_feature=2 13 2 13 13 13 13 13 13 1 1 13 13 2 13 13 21 28 2 21 21 3 13 21 21 23 2 21 2 15
split_gain=145944 38147 20321.3 9952.42 5778.7 4574.03 3511.22 3487.5 2903.72 2445.39 2083.91 2067.87 1968.5 3000.46 1368.96 1210.49 994.06 857.931 817.119 804.214 803.026 771.942 724.01 718.13 714.072 614.084 583.535 577.276 573.761 570.865
threshold=0.87500000000000011 2.5693359375000004 0.26782226562500006 6.7148437500000009 1.0004882812500002 0.45275878906250006 0.13299560546875003 0.25964355468750006 14.210937500000002 2.0830078125000004 3.8173828125000004 0.071777343750000014 2.0917968750000004 1.0000000180025095e-35 0.36657714843750006 2.5693359375000004 4.5000000000000009 1.0000000180025095e-35 32.890625000000007 3.5000000000000004 3.5000000000000004 1.0000000180025095e-35 0.71020507812500011 3.5000000000000004 3.5000000000000004 296.50000000000006 5.0175781250000009 3.5000000000000004 1.6250000000000002 720.50000000000011
decision_type=8 10 10 10 10 10 10 10 10 10 8 10 10 10 10 10 2 2 8 2 2 8 10 2 2 2 8 2 10 2
left_child=2 4 6 10 7 11 -1 -2 23 27 -3 -4 13 17 -15 16 -7 22 -10 -9 -12 -16 -8 -5 -13 29 -22 28 -6 -14
right_child=1 3 5 8 9 15 12 19 18 -11 20 24 25 14 21 -17 -18 -19 -20 -21 26 -23 -24 -25 -26 -27 -28 -29 -30 -31
leaf_value=-0.10205356527816731 -0.080943382441588482 0.034967176232412127 -0.12992247415069352 0.068987713067985776 -0.0015814638286526734 -0.025535672740654294 -0.10833192814614157 -0.014625141807710391 0.11377989069874625 0.028937578480058467 0.046066213024772956 -0.052662297723848207 -0.032593086592538068 -0.066940014328158395 0.0072109203139191164 0.050474094270729249 -0.0081555642525297026 0.015377484367888331 0.1625459046405193 0.0037033045852883466 0.05383978621917556 -0.045653373275870691 -0.077838141674889533 0.092359478665441516 -0.034535724682101344 -0.078126793929227875 0.073412504967571068 0.016827673548874208 0.013238096902320822 0.031245550343113895
leaf_weight=31047.753562003374 5554.02998021245 66162.636890590191 2436.4006266593933 23359.559475183487 49520.922378897667 84756.444940656424 17812.816155344248 42916.61478292942 10222.06598007679 86794.167567431927 36147.149675607681 39650.999635666609 2346.211976736784 52586.935519576073 2775.1136592924595 2073.1945376992226 40626.149661362171 576.43913087248802 3985.2742943763733 37377.814741194248 24796.065830945969 13610.70345556736 10228.839793920517 20687.290205478668 33424.06284314394 1048.9336542487144 26082.661566495895 55504.178252100945 38949.775316476822 2329.6853782236576
leaf_count=76891 10830 34365 7160 6895 43933 104331 45654 45867 1837 51931 14644 64943 3371 102069 3259 1244 42436 813 412 34593 10049 20944 22512 5082 49186 1655 8164 40590 28545 2422
internal_value=0 0.0293634 -0.0475578 0.0594087 0.00929867 -0.029315 -0.0751151 -0.0109356 0.0915478 0.016826 0.0471869 -0.0471317 -0.0670197 -0.0700738 -0.059756 -0.0187594 -0.0199042 -0.0949409 0.127459 -0.00609308 0.0564771 -0.0367002 -0.0972086 0.0799646 -0.0443713 -0.0149573 0.0638736 0.00952466 0.00494294 -0.000786584
internal_weight=0 528060 337331 211443 316618 202967 134363 85848.5 58254.2 230769 153189 75511.5 103316 97590.8 68972.8 127456 125383 28618.1 14207.3 80294.4 87025.9 16385.8 28041.7 44046.8 73075.1 5724.83 50878.7 143975 88470.7 4675.9
internal_count=886627 337737 548890 81448 256289 269300 279590 91290 14226 164999 67222 121289 202699 195251 126272 148011 146767 68979 2249 80460 32857 24203 68166 11977 114129 7448 18213 113068 72478 5793
is_linear=0
shrinkage=0.0913517


Tree=10
num_leaves=31
num_cat=1
split_feature=2 13 13 13 2 13 13 13 1 13 2 13 1 1 3 21 21 21 13 21 13 1 25 28 3 1 15 14 28 2
split_gain=122039 33567.1 16359.1 8446.73 5294.37 5079.77 3319.56 3057.47 2411.55 2397.31 2341.02 2100.35 2017.38 1720.41 1253.27 918.518 815.049 793.775 691.391 689.825 683.352 607.597 576.281 537.538 525.45 491.321 479.376 472.447 466.749 459.6
threshold=0.80346679687500011 2.4580078125000004 0.28686523437500006 7.9414062500000009 1.0000000180025095e-35 1.0004882812500002 0.11639404296875001 0.25964355468750006 4.1835937500000009 0.64965820312500011 1.0000000180025095e-35 1.4941406250000002 2.0830078125000004 17.085937500000004 1.0000000180025095e-35 3.5000000000000004 3.5000000000000004 4.5000000000000009 0.081024169921875014 4.5000000000000009 0.042907714843750007 4.0839843750000009 0 -1.0000000180025095e-35 0.48217773437500006 36.828125000000007 716.50000000000011 1.8237304687500002 -1.0000000180025095e-35 0.41064453125000006
decision_type=8 8 10 10 10 10 10 10 8 10 10 10 10 8 8 2 2 2 10 2 10 10 9 2 8 10 2 2 2 10
left_child=2 5 6 8 11 7 20 18 24 15 -8 28 27 -5 -11 29 -9 -10 -2 -12 -1 -14 -16 -13 -3 -15 -25 -7 -4 -6
right_child=1 3 4 13 9 12 10 16 17 14 19 23 21 25 22 -17 -18 -19 -20 -21 -22 -23 -24 26 -26 -27 -28 -29 -30 -31
leaf_value=-0.12636272767069365 -0.12490593358471351 0.070331031098288407 0.054414089387153745 0.075409201632571699 -0.050371513971049081 0.0047942642255974725 -0.11006429264829722 -0.014614993826598584 0.046438031544563857 0.02781906556017804 -0.066384713114873317 0.12251473992705751 0.021969532276983929 0.10546250785506274 -0.019242785018869162 -0.025129312617205201 0.0022951564567078096 0.06361737704612222 -0.055036802985591514 -0.046922994330361852 -0.093895996859287442 0.043388165989174117 0.0081701507249697311 -0.054921374130622751 0.031733240472325862 0.14776408936619986 -0.0091870092632413206 0.017057716217340136 -0.090661653584009377 -0.034392806941816276
leaf_weight=7540.1604092419147 1655.6403241753578 2982.6659710407257 183.42542946338654 29297.91986644268 26851.201384723186 112687.65456002951 8763.9836099743843 49899.764933645725 50538.856251776218 5794.4251898527145 49345.223399698734 179.22592285275459 68788.276865959167 11174.306827783585 55479.645724922419 51725.546453207731 43754.305769622326 38953.853342294693 3857.028483748436 21337.873996883631 17866.318445801735 12857.450502634048 7070.4752078652382 4510.991170078516 87886.585029244423 2810.5646412372589 3207.352872222662 33282.811696231365 16293.840854078531 32596.746581196785
leaf_count=22880 4643 1331 300 7342 45372 92785 24488 54626 18581 5044 99175 145 42781 1831 63807 70764 41130 12731 6659 39986 46266 6043 7329 8035 44634 272 4404 22906 42079 47234
internal_value=0 0.0249915 -0.0460464 0.0519881 -0.0311178 0.00651549 -0.0750759 -0.0105675 0.0433781 -0.0257478 -0.0659761 -0.0706673 0.0139581 0.0878664 -0.0124184 -0.0339421 -0.00671473 0.0539158 -0.0760209 -0.0605096 -0.103532 0.0253425 -0.0161459 -0.0323211 0.0330002 0.113964 -0.0359165 0.00759046 -0.0890467 -0.04161
internal_weight=0 550428 308746 223645 203893 326783 104854 99166.7 180362 179518 79447.1 24374.8 227616 43282.8 68344.5 111173 93654.1 89492.7 5512.67 70683.1 25406.5 81645.7 62550.1 7897.57 90869.3 13984.9 7718.34 145970 16477.3 59447.9
internal_count=885603 358295 527308 86722 294513 271573 232795 107058 77277 239550 163649 54963 164515 9445 76180 163370 95756 31312 11302 139161 69146 48824 71136 12584 45965 2103 12439 115691 42379 92606
cat_boundaries=0 1
cat_threshold=1073741824
is_linear=0
shrinkage=0.0904382


Tree=11
num_leaves=31
num_cat=0
split_feature=2 2 2 2 13 13 13 13 13 13 2 21 13 21 3 21 2 2 9 21 13 2 5 13 21 13 2 2 28 31
split_gain=102863 28304.7 14043.5 5831.4 5595.62 3509.84 2931.1 2908.54 1862.68 1849.02 2933 1840.54 1725.5 1101.24 1068.23 1047.16 807.539 793.134 731.852 695.903 674.949 613.513 608.788 580.447 532.127 510.864 472.105 466.215 455.259 449.543
threshold=0.76782226562500011 3.0175781250000004 0.23211669921875003 11.554687500000002 1.2700195312500002 0.37170410156250006 0.13299560546875003 0.25964355468750006 1.0000000180025095e-35 0.98168945312500011 1.0000000180025095e-35 4.5000000000000009 3.9990234375000004 3.5000000000000004 1.0000000180025095e-35 4.5000000000000009 26.929687500000004 6.6972656250000009 9.1835937500000018 4.5000000000000009 0.081024169921875014 6.4121093750000009 0.072235107421875014 0.051895141601562507 4.5000000000000009 0.22894287109375003 1.2319335937500002 1.6250000000000002 -1.0000000180025095e-35 -0.010253906249999998
decision_type=8 10 10 10 10 10 10 10 10 10 10 2 10 2 8 2 10 10 2 2 10 10 10 10 2 10 10 8 2 2
left_child=2 4 6 11 7 8 23 20 -4 10 28 17 15 26 -7 27 -5 -3 -14 -16 -2 -13 29 -1 -10 -12 -9 -6 -8 -11
right_child=1 3 5 16 12 14 9 13 24 22 25 21 18 -15 19 -17 -18 -19 -20 -21 -22 -23 -24 -25 -26 -27 -28 -29 -30 -31
leaf_value=-0.11999985225622188 -0.12285283807892107 0.031720912834070379 -0.12790546507330464 0.079637190617796269 0.0023707182597427312 0.020004617696479342 0.038904120558687721 -0.015382306950354785 -0.049159086503391534 -0.10910022628063695 -0.064946160939293951 0.050031944374241216 0.043988388353397502 0.004786750965264765 -0.02634463962625945 0.024131248608530421 0.1208613542353838 0.049111728816236315 0.14096961010131936 -0.011614521697690306 -0.051081106520131335 0.070767430439625981 -0.023123968259837174 -0.087950001902397476 -0.030264604072457242 -0.046849055457610381 -0.0012376321810504318 0.013853653250488668 -0.098224230122372316 -0.034620576965472938
leaf_weight=5808.3695743978024 1445.331958681345 83359.942384004593 2169.6806736886501 25010.324645638466 41756.808436572552 5169.5585608184338 196.1010933816433 52650.495354712009 38933.646654993296 1268.2372198104858 23989.050209969282 39255.165073305368 11853.395063400269 73446.823398292065 79499.292841374874 64334.967157304287 4493.6013318300247 28111.771520584822 658.41497611999512 37999.865314006805 3843.6205053925514 16142.171387523413 11894.122208356857 20579.591513723135 17239.437758475542 26118.949592590332 29522.549479365349 88236.547120153904 18822.638203203678 1331.8626962900162
leaf_count=18453 4554 37953 7590 5041 34532 4813 343 59013 70544 3085 53172 14682 5042 65420 107484 37898 491 8751 102 43662 6822 4097 19209 55703 27987 47544 26909 58083 54292 2332
internal_value=0 0.021778 -0.0437594 0.0492231 0.00712266 -0.0284265 -0.0689885 -0.00539903 -0.0465045 -0.0607786 -0.0668751 0.0427354 0.0168638 -0.00317988 -0.0198283 0.0147888 0.0859158 0.0361067 0.0490919 -0.0215808 -0.0706944 0.056074 -0.0317033 -0.0950046 -0.0433604 -0.055513 -0.0103005 0.0101651 -0.0968103 -0.0709491
internal_weight=0 564122 291020 196373 367749 181011 110009 160909 58342.8 83621 69126.7 166869 206840 155620 122669 194328 29503.9 111472 12511.8 117499 5288.95 55397.3 14494.2 26388 56173.1 50108 82173 129993 19018.7 2600.1
internal_count=885603 369390 516213 71015 298375 262080 254133 162718 106121 179977 155351 65483 135657 151342 155959 130513 5532 46704 5144 151146 11376 18779 24626 74156 98531 100716 85922 92615 54635 5417
is_linear=0
shrinkage=0.0895338


Tree=12
num_leaves=31
num_cat=1
split_feature=13 2 2 1 1 13 2 2 2 13 13 14 2 2 21 3 21 8 13 25 21 2 13 21 2 21 23 13 2 31
split_gain=87128.6 22369.1 15756.8 5017.48 4362.27 4290.82 3153.24 2859.33 2410.34 1866.81 1484.71 1150.39 1083.84 956.545 939.656 684.901 668.614 631.242 595.707 550.648 541.254 536.363 495.084 487.432 464.441 449.335 416.887 411.212 396.794 375.344
threshold=0.79028320312500011 2.8398437500000004 0.23211669921875003 10.367187500000002 0.91674804687500011 0.076446533203125014 0.053558349609375007 0.55346679687500011 1.0000000180025095e-35 4.1523437500000009 0.13299560546875003 0.30993652343750006 4.8027343750000009 20.359375000000004 4.5000000000000009 1.0000000180025095e-35 3.5000000000000004 14.253906250000002 2.6289062500000004 0 3.5000000000000004 1.3750000000000002 1.0000000180025095e-35 4.5000000000000009 0.66088867187500011 4.5000000000000009 161.50000000000003 0.23321533203125003 1.3037109375000002 -0.015136718749999998
decision_type=10 10 8 10 8 10 10 10 10 10 10 2 10 10 2 8 2 2 10 9 2 8 10 2 10 2 2 10 8 2
left_child=2 4 6 12 8 -4 -1 11 18 14 22 -7 16 -5 21 -10 -3 -11 29 24 -9 -6 -8 -13 -17 -14 -20 -12 -16 -2
right_child=1 3 5 13 9 7 10 20 15 17 27 23 25 -15 28 19 -18 -19 26 -21 -22 -23 -24 -25 -26 -27 -28 -29 -30 -31
leaf_value=-0.094112286431716749 -0.0804449341683494 0.022661911276684175 -0.12319123154315845 0.06438680278353863 -0.0022575644454511218 -0.046397948062825302 -0.12662641269810559 -0.019285923474942786 0.025456333947328644 0.044127361392889544 -0.059358378030459576 -0.03241237014695926 0.039976084075657427 0.099065951536571703 0.0090760206549611814 -0.022524550372127906 0.037678701351343657 0.13347037286210534 0.019528625450262124 0.017458670895107425 -0.0057165592499372224 0.0098085983708935606 -0.077229492375922179 -0.01661643113996918 -0.004904126619464347 0.055357259851911457 -0.04350245586602855 -0.042251514887126626 0.021941341857117262 -0.043621331805956759
leaf_weight=30058.700016379356 3183.9396261274815 49027.205683469772 3512.5775323808193 32200.981943011284 39455.162616580725 38606.274888932705 1824.615732640028 49320.91297763586 5762.7495085000992 9294.9425287246704 21893.966851979494 48071.377424389124 57479.3611536026 7753.7608261108398 26890.670509070158 14750.873876810074 44384.240897893906 665.83414876461029 1654.7875153124332 7044.0135900378227 43434.515745162964 108651.54547595978 12619.83703276515 22547.763002038002 57825.687141597271 20154.663334608078 1642.9752609431744 22269.295728027821 62874.386278510094 6861.8036060035229
leaf_count=90824 7827 24728 12614 6866 36909 72306 6511 63157 4538 3853 49723 74098 19775 980 21665 17894 18617 93 1965 6239 47153 76820 34491 29714 54504 6018 2462 41254 37378 14627
internal_value=0 0.0200822 -0.0395407 0.0428357 0.00622891 -0.0260652 -0.0707716 -0.0243762 -0.0095273 0.0125056 -0.0588006 -0.0340948 0.0362295 0.0711168 0.0109313 -0.00405219 0.0297971 0.0500995 -0.0445618 -0.00618794 -0.0129318 0.00659421 -0.0834693 -0.0273689 -0.00848423 0.0439692 -0.011874 -0.0507323 0.0180873 -0.0552924
internal_weight=0 557560 294160 211000 346559 205493 88666.4 201981 98726.8 247833 58607.7 109225 171045 39954.7 237872 85383.3 93411.4 9960.78 13343.5 79620.6 92755.4 148107 14444.5 70619.1 72576.6 77634 3297.76 44163.3 89765.1 10045.7
internal_count=885603 363758 521845 76984 286774 299042 222803 286428 110056 176718 131979 176118 69138 7846 172772 83175 43345 3946 26881 78637 110310 113729 41002 103812 72398 25793 4427 90977 59043 22454
cat_boundaries=0 1
cat_threshold=1073741824
is_linear=0
shrinkage=0.0886385


Tree=13
num_leaves=31
num_cat=1
split_feature=13 2 2 2 13 2 13 2 2 13 21 13 21 1 3 13 21 21 1 25 13 13 28 0 31 2 14 13 2 8
split_gain=73448.5 18771.4 13732.1 4371.36 4281.05 3721.76 2805.23 2615.52 2256.26 1375.97 1187.2 1135.59 991.376 980.646 929.747 724.741 677.832 623.564 595.088 553.622 521.561 453.168 414.634 409.831 401.265 398.479 389.865 367.59 359.5 356.329
threshold=0.75610351562500011 3.1601562500000004 0.19641113281250003 1.3037109375000002 0.076446533203125014 11.554687500000002 0.39062500000000006 1.0000000180025095e-35 1.0000000180025095e-35 0.097167968750000014 3.5000000000000004 5.2324218750000009 3.5000000000000004 0.81665039062500011 1.0000000180025095e-35 2.6289062500000004 3.5000000000000004 4.5000000000000009 36.828125000000007 0 0.22552490234375003 5.0039062500000009 0.0012207031250000002 1322.5000000000002 0.060791015625000007 6.2324218750000009 0.24432373046875003 1.9506835937500002 0.62500000000000011 14.253906250000002
decision_type=10 10 8 8 10 10 10 10 10 10 2 10 2 10 8 10 2 2 10 9 10 10 2 2 2 10 2 10 10 2
left_child=2 3 7 8 -4 10 16 22 15 -9 25 12 27 -8 -10 23 26 19 -7 28 -11 -12 -1 -2 -25 -3 -6 -5 -16 -13
right_child=1 5 4 11 6 18 13 9 14 20 21 29 -14 -15 17 -17 -18 -19 -20 -21 -22 -23 -24 24 -26 -27 -28 -29 -30 -31
leaf_value=-0.097991607677083079 -0.070131437000433686 0.023176816753562354 -0.12086259005616269 0.0029954999133241659 -0.055841317700680376 0.064144769728950238 -0.022045562698153099 -0.090878246904202098 0.029325114410495377 -0.061182806021937437 0.037060755325270048 0.045014737286573486 0.018883202113088929 -0.0060223878812138967 -0.023893389185770757 -0.0062301837554647049 -0.02841229393989609 0.0048876111443645273 0.10617468844487324 0.018193021575475924 -0.041390008267097787 0.050780817378461109 0.0057655946146993832 -0.041735918983572588 0.051624509641030741 0.036153950992514679 -0.038354115588405069 0.012980255065841427 -0.0075338397036561946 0.11728004610040298
leaf_weight=20574.057714760303 5034.6317821145058 56363.09873008728 3589.4254055470228 67272.432530760765 15696.476884514093 27612.905311465263 79627.476437926292 8967.4658755064011 6856.6253772377968 24915.524677872658 47180.643468022346 5141.5432010889053 107995.68180030584 46640.06917527318 12206.002465993166 3497.2092925906181 35404.687466740608 42210.233747422695 2863.0171093940735 5728.212659239769 17419.495597690344 30536.033945560455 300.91900351643562 4108.5749932825565 387.97953289747238 26924.54449403286 26210.014901310205 49126.430979967117 67789.87379783392 585.22498440742493
leaf_count=69226 12752 25503 14027 53928 33455 5241 108782 28928 5220 62694 17707 1794 64949 52551 15498 4638 60574 36263 267 5113 34013 8249 607 9466 586 8556 46869 30096 67977 74
internal_value=0 0.0175895 -0.0373463 0.00624877 -0.0258623 0.0399735 -0.0241873 -0.0703085 -0.00552639 -0.0596529 0.0346509 0.0138126 0.0128278 -0.016127 -0.00215583 -0.0403979 -0.0373517 -0.00384305 0.0680932 -0.008142 -0.0530387 0.0424516 -0.0964959 -0.0529348 -0.0336804 0.027372 -0.0449041 0.00720959 -0.0100288 0.0523996
internal_weight=0 569421 279346 377941 207168 191480 203579 72177.5 147819 51302.5 161004 230121 224395 126268 134791 13028.4 77311.2 127934 30475.9 85724.1 42335 77716.7 20875 9531.19 4496.55 83287.6 41906.5 116399 79995.9 5726.77
internal_count=885603 373877 511726 308354 316258 65523 302231 195468 157513 125635 60015 150841 148973 161333 130071 27442 140898 124851 5508 88588 96707 25956 69833 22804 10052 34059 80324 84024 83475 1868
cat_boundaries=0 1
cat_threshold=1082130496
is_linear=0
shrinkage=0.0877521


Tree=14
num_leaves=31
num_cat=0
split_feature=2 13 13 13 2 2 13 13 13 13 2 2 13 3 21 21 21 21 13 28 31 13 32 3 5 14 2 13 13 14
split_gain=62464.8 17004.5 9547.31 3939.68 3598.59 3131.11 2218.89 2068.96 1790.56 1615.12 1395.2 1158.82 1040.1 897.796 780.568 714.125 699.658 682.92 651.377 543.483 560.282 500.716 494.094 488.067 476.901 474.535 461.316 442.999 417.017 413.781
threshold=0.69653320312500011 2.4580078125000004 0.21612548828125003 8.7070312500000018 1.0000000180025095e-35 1.2680664062500002 0.076446533203125014 1.0688476562500002 0.49731445312500006 0.25036621093750006 1.0000000180025095e-35 4.0175781250000009 0.11944580078125001 1.0000000180025095e-35 4.5000000000000009 3.5000000000000004 3.5000000000000004 3.5000000000000004 14.210937500000002 -1.0000000180025095e-35 0.010009765625000002 0.071777343750000014 0.029724121093750003 0.23211669921875003 0.26135253906250006 0.12945556640625003 2.1962890625000004 1.0000000180025095e-35 2.2910156250000004 0.31445312500000006
decision_type=8 10 10 10 10 10 10 10 10 10 10 8 10 8 2 2 2 2 10 2 2 10 2 8 10 2 10 10 10 2
left_child=2 5 6 11 7 9 27 -4 14 21 -8 23 -7 -10 29 -14 -11 -13 -5 -9 24 -2 -22 -3 -21 -12 -17 -1 -15 -6
right_child=1 3 4 18 8 12 10 19 13 16 25 17 15 28 -16 26 -18 -19 -20 20 22 -23 -24 -25 -26 -27 -28 -29 -30 -31
leaf_value=-0.12410654308073968 -0.11777491059884193 0.058152588208918991 -0.081324466198515452 0.049466800674889955 -0.045062379912826536 -0.12410654632658549 -0.098253504017547108 0.11118941305421022 0.017881425785055149 -0.010174499239546815 -0.067835684642941665 0.027436199727468868 0.0056041548415919672 -0.01703934598878519 -0.019258400751725219 0.011667432020109935 0.0015120999332378993 0.041015396725384713 0.072871027024195525 -0.085921604573681892 0.086392302817365388 -0.043639835710495178 -0.014585533077436675 0.019507725070515659 -0.032026364027962093 -0.04785637434764356 0.024435985391752103 -0.088024197428624329 0.026089859729458341 -0.030675018853425221
leaf_weight=4410.7773617655039 855.06069588661194 2541.61046230793 13486.224526971579 21817.569016218185 25620.526086062193 433.64182385802269 6058.2628715634346 204.47997489571571 6425.4219563603401 80765.099282890558 12713.275740981102 57291.52229142189 103811.04875266552 70544.064035087824 28617.170888394117 62514.646744906902 74167.590976834297 54580.731307625771 15246.857110977173 1573.8756637573242 459.14718088507652 3510.6625896692276 1797.2171767950058 83461.971516370773 5825.7651605010033 30488.664000153542 32434.76726680994 6146.7402626276016 1733.5633366703987 36694.038249790668
leaf_count=18786 3644 1078 44869 4830 52003 1498 22072 178 6025 88573 35594 20948 78451 91683 45744 42639 68264 16292 2265 3941 413 6769 3289 41571 11082 70949 16613 21440 1335 62765
internal_value=0 0.0149354 -0.0366327 0.033101 -0.0272332 0.0030305 -0.0669568 -0.0592109 -0.0228322 -0.00604843 -0.0592108 0.0282322 0.010291 -0.0132384 -0.0311358 0.0105843 -0.00458003 0.0340613 0.0590944 -0.028966 -0.031934 -0.0581598 0.00596243 0.0206498 -0.0434897 -0.0537358 0.0160292 -0.103099 -0.0160049 -0.0365904
internal_weight=0 593433 252799 234940 192981 358493 59817.7 23346.7 169635 159298 49260.2 197876 199194 78703 90931.7 198760 154933 111872 37064.4 9860.49 9656.01 4365.72 2256.36 86003.6 7399.64 43201.9 94949.4 10557.5 72277.6 62314.6
internal_count=885603 393435 492168 86984 323327 306451 168841 63772 259555 167250 128615 79889 139201 99043 160512 137703 156837 37240 7095 18903 18725 10413 3702 42649 15023 106543 59252 40226 93018 114768
is_linear=0
shrinkage=0.0868746


Tree=15
num_leaves=31
num_cat=1
split_feature=13 2 2 13 1 2 2 2 13 2 13 13 14 21 1 1 3 21 28 28 5 21 25 28 8 2 21 28 13 3
split_gain=53068.4 13232.3 10842.1 4016.75 3048.47 2883.05 2589.44 1941.38 1521.31 1218.07 927.683 904.471 855.208 751.771 681.281 666.376 592.574 589.633 568.599 559.441 534.029 442.605 435.682 416.137 402.251 364.718 359.455 352.771 347.768 399
threshold=0.72851562500000011 2.8398437500000004 0.16070556640625003 1.0000000180025095e-35 0.63330078125000011 8.4101562500000018 0.41064453125000006 1.0000000180025095e-35 1.8588867187500002 1.0000000180025095e-35 0.097167968750000014 5.9433593750000009 0.24432373046875003 4.5000000000000009 16.585937500000004 0.81665039062500011 0.23211669921875003 4.5000000000000009 0.011230468750000002 -0.0092773437499999983 0.10028076171875001 3.5000000000000004 0 0.0012207031250000002 0.73999023437500011 2.0175781250000004 3.5000000000000004 -1.0000000180025095e-35 1.9506835937500002 0.16070556640625003
decision_type=8 10 8 10 8 10 10 10 10 10 10 10 2 2 10 10 8 2 2 2 8 2 9 2 2 10 2 2 10 8
left_child=2 4 7 -4 9 13 12 23 17 18 -9 16 -5 -3 -7 -8 -10 -6 19 -2 -21 -14 26 27 25 -17 -18 -1 -22 -30
right_child=1 5 3 6 8 14 15 10 11 -11 -12 -13 21 -15 -16 24 22 -19 -20 20 28 -23 -24 -25 -26 -27 -28 -29 29 -31
leaf_value=0.039164349075737945 0.088824717587298777 0.020902492799167487 -0.12286547806331122 -0.045229441241124727 -0.00032377876370545238 0.041609847279466872 -0.019161563864932032 -0.082909353087031901 0.052062726601913752 -0.0073614727458808345 -0.04873680558515428 0.053468305276541485 -0.034433659236197567 0.033213535614644248 0.062794722070523251 -0.0047848845924130141 0.0056521850767350832 0.0092465338882838019 0.067214626623593079 -0.079944570448327021 -0.046906300864789703 -0.019217673579572596 0.032130166655971099 0.01297062974457088 -0.038004000256066026 0.050960229565522805 0.016807863533811973 -0.092839313582477073 0.002982616105071815 -0.059223066245531121
leaf_weight=151.03495201468468 243.6315601170063 110160.96442675591 2985.8477507680655 30143.882701456547 131337.70859184861 37051.121649742126 67656.978149399161 7357.1763441562653 2972.8352254629135 48430.669957846403 29193.076846390963 4557.5907040834427 30186.900722563267 55013.071902811527 16111.461556911469 41484.955684304237 42578.935999184847 74705.984947681427 375.24907991290092 2320.7055986821651 6103.0025536119938 26602.273265659809 8089.8784397542477 285.35837055742741 2675.3933619260788 886.71638852357864 42883.193487554789 17648.743441388011 2808.5290919840336 1047.0902129709721
leaf_count=328 260 47098 14068 68812 117012 8688 97136 26395 1449 51368 72237 1370 54994 19014 2312 49409 27741 55667 391 6530 15710 42007 4520 594 3412 631 23269 67270 4161 1750
internal_value=0 0.013832 -0.0330173 -0.0238489 0.00389004 0.0306097 -0.022368 -0.0670195 0.00738588 -0.0136166 -0.0556154 0.016028 -0.0335209 0.0250028 0.0480301 -0.0137653 0.0142602 0.00314616 -0.0371036 -0.0402294 -0.04279 -0.0273059 0.0130589 -0.0900674 -0.0056605 -0.0036183 0.0112486 -0.0917192 -0.0341317 -0.0139109
internal_weight=0 586792 257258 202623 368455 218337 199637 54635.4 307126 61328.9 36550.3 101082 86933.1 165174 53162.6 112704 96524.8 206044 12898.2 12523 12279.3 56789.2 93552 18085.1 45047.1 42371.7 85462.1 17799.8 9958.62 3855.62
internal_count=885603 388310 497293 330469 311198 77112 316401 166824 231028 80170 98632 58349 165813 66112 11000 150588 56979 172679 28802 28411 28151 97001 55530 68192 53452 50040 51010 67598 21621 5911
cat_boundaries=0 1
cat_threshold=1073774608
is_linear=0
shrinkage=0.0860058


Tree=16
num_leaves=31
num_cat=1
split_feature=2 13 13 13 2 13 2 13 13 13 2 13 21 3 21 21 14 25 1 31 5 21 14 32 8 28 28 13 1 12
split_gain=45240.3 12580.3 7030.72 2987.28 2653.54 2346.43 2175.78 1995.53 1862.44 1362.4 1153.84 1010.83 736.293 728.364 698.683 666.587 495.666 484.686 571.616 430.498 437.988 414.161 407.289 381.314 374.847 365.006 375.767 345.363 345.312 342.77
threshold=0.62500000000000011 2.2177734375000004 0.19537353515625003 5.9433593750000009 1.0000000180025095e-35 0.14788818359375003 1.3037109375000002 0.051895141601562507 1.0688476562500002 0.49731445312500006 1.0000000180025095e-35 14.210937500000002 4.5000000000000009 1.0000000180025095e-35 3.5000000000000004 3.5000000000000004 0.12258911132812501 0 3.3671875000000004 0.010009765625000002 0.26135253906250006 4.5000000000000009 0.30993652343750006 0.029724121093750003 0.48303222656250006 -1.0000000180025095e-35 0.0012207031250000002 0.65673828125000011 41.828125000000007 8.3554687500000018
decision_type=8 10 10 10 10 10 10 10 10 10 10 10 2 8 2 2 2 9 10 2 10 2 2 2 2 2 2 10 8 2
left_child=2 5 7 14 8 -2 15 -1 25 12 -9 21 22 -11 -3 27 -12 18 -8 20 -10 -5 -6 -21 -15 -4 -27 -7 -13 -22
right_child=1 3 4 11 9 6 17 10 19 13 16 28 -14 24 -16 -17 -18 -19 -20 23 29 -23 -24 -25 -26 26 -28 -29 -30 -31
leaf_value=-0.11162264509220436 -0.091221644649961464 0.014445619318414161 0.049496014356926799 0.029628479036914342 -0.040775735595027493 -0.018785659785068208 0.0075847541117608696 -0.091249394151378227 -0.076254454870766014 0.016743038729699299 -0.064062901880896639 0.053068282620095476 -0.016868129220778644 0.011520030753715242 0.02493915984719482 0.00035782844142163842 -0.043135003697900902 -0.01207353847352184 0.023551343539770061 0.07684823205039798 -0.029163566598996788 0.044087334015705783 -0.026996803775063721 -0.0097640682189146701 -0.016581293550458384 -0.078062229176911913 0.020364510654038642 -0.00696071848681931 0.087541991568358957 0.058825484236298992
leaf_weight=5323.1769700199366 1991.3437503427267 95254.376164615154 170.79141691327095 42787.041093111038 28574.486002296209 23965.795317023993 144211.616189152 5874.049683123827 1453.9742720127106 5888.5458235442638 12698.252353280783 13216.447624921799 28996.409204244614 3683.2542718350887 88962.33429646492 87423.68988391757 23185.722989201546 8001.1809559464455 18320.886177182198 465.4493388235569 5501.0327896773815 21619.449190855026 34126.893415093422 1769.3910623192787 52395.072102457285 12332.159127667546 287.76418021321297 70819.397638261318 2505.9089217185974 340.86377000808716
leaf_count=25063 7605 46379 313 11928 62230 34182 103797 24127 3962 5579 40398 2038 49002 4728 35527 83324 58244 6322 9019 413 11010 4915 60733 3296 70103 46190 529 74197 228 222
internal_value=0 0.0114223 -0.0333005 0.0254828 -0.0254819 0.000944454 0.00146476 -0.0625259 -0.0529142 -0.021497 -0.0562672 0.0392069 -0.0280877 -0.0117443 0.0195132 -0.00500461 -0.0505408 0.00837704 0.00938395 -0.0244219 -0.0344373 0.0344819 -0.0332762 0.00827464 -0.0147356 -0.0741446 -0.0758179 -0.00995057 0.0585629 -0.0240296
internal_weight=0 619079 223067 264346 175986 354734 352743 47081.2 22321.4 153665 41758 80128.8 91697.8 61966.9 184217 182209 35884 170534 162533 9530.71 7295.87 64406.5 62701.4 2234.84 56078.3 12790.7 12619.9 94785.2 15722.4 5841.9
internal_count=885603 419461 466142 101015 318310 318446 310841 147832 65935 252375 122769 19109 171965 80410 81906 191703 98642 119138 112816 18903 15194 16843 122963 3709 74831 47032 46719 108379 2266 11232
cat_boundaries=0 1
cat_threshold=1074686984
is_linear=0
shrinkage=0.0851458


Tree=17
num_leaves=31
num_cat=1
split_feature=13 1 2 13 2 1 2 2 13 14 3 2 13 13 25 5 21 21 13 21 21 28 31 21 23 28 2 30 15 3
split_gain=38545.1 10431.4 7880.77 3805.38 2515.8 2258.19 2078.81 1357.48 1310.32 756.69 754.85 582.59 563.472 562.776 552.802 542.166 521.529 455.872 443.143 392.752 357.617 348.531 333.76 322.187 341.705 320.406 306.58 295.623 360.236 427.099
threshold=0.64965820312500011 2.5498046875000004 0.12496948242187501 1.0000000180025095e-35 7.2675781250000009 1.0000000180025095e-35 0.37500000000000006 1.0000000180025095e-35 1.4492187500000002 0.20074462890625003 0.41064453125000006 17.734375000000004 2.5087890625000004 0.076446533203125014 0 0.022346496582031253 3.5000000000000004 3.5000000000000004 10.125000000000002 3.5000000000000004 2.5000000000000004 -0.0092773437499999983 -0.010253906249999998 4.5000000000000009 324.50000000000006 0.0012207031250000002 1.8037109375000002 0.38171386718750006 763.50000000000011 0.48217773437500006
decision_type=10 8 8 10 10 10 10 10 10 2 8 10 10 10 9 10 2 2 8 2 2 2 2 2 2 2 10 2 2 10
left_child=2 5 7 -4 12 15 9 25 16 -5 -10 23 -3 -9 26 22 -7 -8 20 -11 -14 -17 -2 24 -6 -1 -12 28 -23 -30
right_child=1 4 3 6 11 8 17 13 10 19 14 -13 18 -15 -16 21 -18 -19 -20 -21 -22 27 -24 -25 -26 -27 -28 -29 29 -31
leaf_value=-0.086424941714038084 -0.093203283694589883 0.011993207203164954 -0.12042045427941296 -0.044455040127473006 0.025941637565046811 -0.0063288769039268403 -0.018938685785335696 -0.082611455663432157 0.033844669886740855 -0.033069350379812575 0.00065834227860744822 0.054256082148567475 0.014460412739596074 -0.046977093443252585 0.026044898236763616 0.065691557890640337 0.0025585920255382288 -0.007314250588133832 0.060033136582310659 -0.019137261750280011 0.023969464511143464 -0.015334359089339866 -0.037012116949647345 0.04228331855598761 0.050915557157813138 0.010676602161919234 0.0089533282949803769 -0.028312694381366684 0.095063900057904493 -0.06940778901474752
leaf_weight=14949.25368860364 1262.2450207471848 69109.783500790596 2825.3378197103739 23594.515834733844 33205.548524796963 101068.02809983492 50549.649963334203 3737.7999740689993 7839.6626512110233 30670.754229933023 54252.665823191404 11439.479515075684 42169.827760756016 19996.749454885721 10012.864216417074 320.90888655185699 87562.130749821663 45592.138299509883 2079.0215139389038 27064.455480754375 84240.72887134552 1874.4738324582577 1854.7687560617924 19226.679935216904 4409.9218105077744 245.42434588074684 76025.538206160069 12685.636185392737 496.06248134374619 144.97360678017139
leaf_count=63811 4043 40371 15515 61198 8478 107265 79074 15511 4618 61730 41855 1484 17608 55228 6118 317 79539 59761 399 47141 30620 2801 4292 3921 1009 520 44700 26075 396 205
internal_value=0 0.0103228 -0.0307887 -0.0233623 0.022951 0.000875453 -0.0218171 -0.0651835 0.00245623 -0.0317362 0.00838971 0.0368997 0.0181309 -0.0525889 0.00696725 -0.0276852 -0.00220331 -0.0134262 0.0214322 -0.0265384 0.0207973 -0.0212428 -0.0597669 0.0334067 0.0288695 -0.0848566 0.00549857 -0.0230781 0.00332 0.0578678
internal_weight=0 621281 219226 180297 265881 355400 177472 38929.2 336761 81329.7 148131 68281.6 197599 23734.5 140291 18639.1 188630 96141.8 128490 57735.2 126411 15522.1 3117.01 56842.2 37615.5 15194.7 130278 15201.1 2515.51 641.036
internal_count=885603 426114 459489 324419 103890 322224 308904 135070 284095 170069 97291 14892 88998 70739 92673 38129 186804 138835 48627 108871 48228 29794 8335 13408 9487 64331 86555 29477 3402 601
cat_boundaries=0 1
cat_threshold=1887469632
is_linear=0
shrinkage=0.0842943


Tree=18
num_leaves=31
num_cat=2
split_feature=2 13 13 2 13 13 13 13 1 13 1 3 2 21 21 13 28 0 23 25 1 25 5 21 3 31 2 13 31 14
split_gain=33033.4 8595.8 5774.61 2535.76 2444.21 1944.68 1704.64 1592.46 1428.78 1344.46 870.181 778.195 632.412 527.028 476.17 447.246 405.393 450.899 407.052 403.868 497.654 372.086 371.767 358.142 326.221 309.59 311.069 300.726 297.948 290.111
threshold=0.62500000000000011 1.9506835937500002 0.15710449218750003 0.053558349609375007 5.0039062500000009 0.081024169921875014 1.0688476562500002 1.0000000180025095e-35 0.91674804687500011 0.37890625000000006 14.207031250000002 1.0000000180025095e-35 1.0000000180025095e-35 4.5000000000000009 4.5000000000000009 0.33361816406250006 0.011230468750000002 1083.5000000000002 76.500000000000014 0 1.9165039062500002 1 0.033416748046875007 3.5000000000000004 1.4819335937500002 0.073974609375000014 4.7675781250000009 0.43774414062500006 0.086669921875000014 0.10217285156250001
decision_type=8 8 10 10 10 10 10 10 10 10 8 8 10 2 2 10 2 2 2 9 10 9 10 2 8 2 10 10 2 2
left_child=2 5 7 6 14 -2 22 -1 15 13 24 -11 -9 -5 28 -7 17 -8 -19 20 -10 23 -4 -13 -6 -22 -27 -24 -3 -14
right_child=1 4 3 9 10 8 16 12 19 11 -12 21 29 -15 -16 -17 -18 18 -20 -21 25 -23 27 -25 -26 26 -28 -29 -30 -31
leaf_value=-0.11921625288396114 -0.11167668081268348 0.010379567715755381 -0.086678272653845201 -0.032481944607836634 0.055098172943949322 -0.029423725501454934 -0.054607458708534722 -0.084622593610290175 0.0020841494127870558 0.015914198138227781 0.043163793673445819 -0.021592787917750312 -0.062460832963575436 -0.017178797189311153 0.019698671115294438 -0.0060243879962373252 0.071265171129403199 0.021131367469901931 -0.024493088563161399 -0.011891833382576183 0.009673521129769427 0.0051996154188989297 -0.069396858093505473 -0.010131340151847088 0.024451767454610661 0.022618070518860618 0.084983357920335761 -0.042995599794009368 0.033863291275600366 -0.042503269983167849
leaf_weight=3146.7909969836473 1086.408781811595 128669.41214609146 3895.6205617487431 49780.715228497982 2497.0217884778976 6000.5136388838291 2375.4790155142546 4538.4427465647459 123307.01830127835 6302.2267947793007 25327.505509614944 39704.419165194035 8332.7238309979439 22873.986505270004 66992.43872743845 109442.54375484586 327.64109203219414 1843.4850115031004 5212.196929693222 10062.01719802618 65170.167201220989 6169.8599166870117 6413.0809954702854 36385.928208470345 77329.716168642044 2689.8535980582237 702.42557227611542 5653.2432403117418 3875.8040533065796 12964.22351898253
leaf_count=18225 5875 66474 16578 110113 725 11076 5733 20973 108811 6295 4052 62655 30387 43962 27987 117498 285 3028 10394 9016 42584 7542 24886 48610 21848 1707 233 19204 1575 37272
internal_value=0 0.0093702 -0.028506 -0.0231324 0.0193904 -0.000216774 -0.0474658 -0.0631662 0.000164766 -0.0192502 0.0296865 -0.0123477 -0.0563392 -0.027664 0.0139645 -0.00724064 -0.0199898 -0.0231601 -0.0125725 0.00439839 0.00525303 -0.0145129 -0.064264 -0.0161099 0.0254104 0.0109529 0.0355318 -0.0570275 0.0110663 -0.0503119
internal_weight=0 623153 215920 186938 304692 318461 25720.7 28982.2 317375 161217 105154 88562.4 25835.4 72654.7 199538 115443 9758.8 9431.16 7055.68 201931 191869 82260.2 15961.9 76090.3 79826.7 68562.4 3392.28 12066.3 132545 21296.9
internal_count=885603 419461 466142 359285 122661 296800 80108 106857 290925 279177 26625 125102 88632 154075 96036 128574 19440 19155 13422 162351 153335 118807 60668 111265 22573 44524 1940 44090 68049 67659
cat_boundaries=0 1 2
cat_threshold=1614815308 1073742080
is_linear=0
shrinkage=0.0834514


Tree=19
num_leaves=31
num_cat=3
split_feature=1 13 13 2 13 13 13 2 13 13 2 2 3 21 14 31 13 21 25 32 3 21 2 14 25 28 5 5 25 21
split_gain=28176.8 7041.47 5705.75 2261.25 1973.01 1901.89 1722.64 1544.5 1245.8 1173.34 1086.53 719.439 500.505 475.695 455.524 416.691 375.011 372.272 350.028 335.677 330.956 328.453 327.192 324.716 319.845 316.203 350.037 305.894 303.488 277.639
threshold=0.63330078125000011 2.3701171875000004 0.20587158203125003 1.0000000180025095e-35 0.042907714843750007 0.042907714843750007 10.125000000000002 0.94653320312500011 1.0688476562500002 0.55834960937500011 1.0000000180025095e-35 3.9824218750000004 0.23211669921875003 4.5000000000000009 0.10217285156250001 0.010009765625000002 0.42761230468750006 4.5000000000000009 0 0.033874511718750007 1.0000000180025095e-35 3.5000000000000004 1.8037109375000002 0.36071777343750006 1 0.0012207031250000002 0.038925170898437507 0.26135253906250006 2 4.5000000000000009
decision_type=8 8 10 10 10 10 10 10 10 10 8 8 8 2 2 2 10 2 9 2 8 2 10 2 9 2 8 10 9 2
left_child=2 5 4 8 -1 -2 11 16 25 23 -6 12 -3 22 -12 27 -7 -13 -14 -17 -11 -8 -9 -5 -22 26 -4 -10 -15 -16
right_child=1 6 3 9 10 7 21 13 15 20 14 17 18 28 29 19 -18 -19 -20 -21 24 -23 -24 -25 -26 -27 -28 -29 -30 -31
leaf_value=-0.11093876769018687 -0.11734418556930738 0.045713957271727598 -0.08937026666799476 -0.026677947641360111 -0.081123767194323376 -0.016316178798618824 0.029834786342371418 -0.00058516781830215254 -0.063549484165075817 0.010925066464846797 -0.059219842359542627 0.017747938843736318 0.0091242622592271755 0.011409117208646612 -0.041943327001626 0.068013706262659929 -0.0041009950407103358 0.027067264407650195 0.028996607307803124 -0.0077686807710015161 -0.011044612054263622 0.047733887510476476 0.0069680851149429594 -0.016517738836938922 0.0098800675111250791 0.023905805104705607 -0.055805349252227826 -0.021581706694516648 -0.011280484954344293 -0.024096729862837826
leaf_weight=3532.7557066529989 919.35983376204967 2837.2768393158913 2778.2160009294748 45848.016992807388 5420.0225186496973 21163.904586225748 14251.86900305748 91494.896950423717 1533.3484724909067 6009.0264352560043 7744.9501079767942 86037.931300222874 87825.128393411636 81115.890641242266 19938.799486577511 524.13817867636681 90554.872156128287 44331.842386364937 6493.7606531977654 1670.3819763958454 60651.948377132416 13747.546840310097 68414.593133985996 40379.630689948797 5427.3304268717766 287.78611925244331 8960.7209414541721 5224.4770961105824 4228.2225633859634 8480.5100509077311
leaf_count=21267 5648 1136 12909 96003 26146 37496 2541 82338 4143 5423 29061 28830 43453 52395 55898 478 100804 11915 3026 3163 72914 1980 44367 66463 5662 532 33990 10701 3151 21770
internal_value=0 0.00881043 -0.0254026 -0.0187943 -0.0516638 0.00133108 0.0192861 0.00163672 -0.0442818 -0.0154168 -0.0466282 0.0169065 0.011525 0.00530449 -0.0414582 -0.020947 -0.00641503 0.0209169 0.0104965 0.0103311 -0.0076381 0.0386231 0.00264636 -0.02192 -0.00932617 -0.0616516 -0.063749 -0.0311042 0.010285 -0.0366178
internal_weight=0 613417 224412 179295 45117 357892 255525 356972 20979.1 158316 41584.3 227526 97156.2 245254 36164.3 8952.35 111719 130370 94318.9 2194.52 72088.3 27999.4 159909 86227.6 66079.3 12026.7 11738.9 6757.83 85344.1 28419.3
internal_count=885603 419080 466523 312381 154142 326199 92881 320551 65916 246465 132875 88360 47615 182251 106729 18485 138300 40745 46479 3641 83999 4521 126705 162466 78576 47431 46899 14844 55546 77668
cat_boundaries=0 1 2 3
cat_threshold=1409319440 1174405120 1377829121
is_linear=0
shrinkage=0.0826169


Tree=20
num_leaves=31
num_cat=3
split_feature=2 2 13 2 13 2 13 13 13 13 3 2 1 21 3 21 23 21 1 13 14 3 25 25 21 21 25 28 6 5
split_gain=24410.8 5663.47 4695.74 2049.19 1782.69 1446.22 1387.82 1287.77 1010.9 1003.46 786.061 583.222 573.333 478.088 469.464 449.324 441.992 434.315 429.323 402.045 329.958 324.843 312.721 307.556 305.494 293.79 286.986 283.093 296.173 270.276
threshold=0.66088867187500011 2.3750000000000004 0.16009521484375003 1.0000000180025095e-35 0.042907714843750007 5.9472656250000009 0.71020507812500011 0.051895141601562507 0.34753417968750006 0.84008789062500011 1.0000000180025095e-35 1.0000000180025095e-35 44.093750000000007 3.5000000000000004 0.089263916015625014 4.5000000000000009 331.50000000000006 3.5000000000000004 0.29162597656250006 2.4326171875000004 7.4335937500000009 0.58911132812500011 0 1 4.5000000000000009 3.5000000000000004 2 0.0026855468750000004 0.035659790039062507 0.033416748046875007
decision_type=8 10 10 10 10 10 10 10 10 10 8 10 10 2 8 2 2 2 10 10 2 8 9 9 2 2 9 2 10 10
left_child=2 7 4 6 -1 21 29 -2 15 18 -10 -6 -7 22 -11 -5 19 23 -9 27 -19 -3 -12 -16 -23 -13 -20 28 -8 -4
right_child=1 5 3 8 11 12 16 9 10 14 13 25 -14 -15 17 -17 -18 20 26 -21 -22 24 -24 -25 -26 -27 -28 -29 -30 -31
leaf_value=-0.11061621788406401 -0.11450579721132555 0.039639532742840461 -0.088940914829623352 -0.02889457894135937 -0.076628357252447016 0.02421134462900934 -0.082926204043754601 -0.019247672513130455 0.014830817266537184 0.028078731531845667 -0.020189517013057452 -0.050682965920933118 0.067446577657337997 -0.0071514702047597457 -0.00060711141175770836 -0.014059980573010573 -0.073232360879527308 0.0067258089806115284 -0.0021502686608684944 0.0045235934393252821 0.056041148822000481 0.0097367434480672699 0.0046118115370678524 0.017048399024088251 0.017063043698920567 -0.031257724619619232 -0.022116983349203929 0.048491369626273671 -0.027601240334069126 -0.057961145071688203
leaf_weight=3359.9991976171732 640.95498329401016 2934.0477338284254 2654.0302266031504 43003.743777453899 3796.7035189568996 94118.638612478971 717.77588833868504 13845.238562881947 7270.3501939177513 5345.4801929593086 48462.353807300329 11379.969897449017 2097.5472240447998 48229.708226025105 124763.08238917589 20016.632262900472 1134.1682585328817 121470.88366687298 68638.531457304955 3246.7558201849461 914.44978332519531 113613.79637983441 3660.5080171227455 6959.0860092639923 57266.661949381232 9604.2585736513138 5169.6831539571285 296.50296312570572 6593.4010025113821 6492.3662889152765
leaf_count=22023 4333 1175 13301 100412 19252 22701 2869 20965 7489 3202 78999 38692 165 65068 104028 40217 3267 83314 77585 4626 171 54897 4603 5079 22169 30061 6701 349 18524 28772
internal_value=0 0.00822176 -0.0235097 -0.0189316 -0.0547098 0.0171087 -0.0429552 0.0013209 -0.0159561 0.00153478 -0.0111388 -0.0471295 0.0251539 -0.0130203 0.00409088 -0.0241828 -0.0246485 0.00358627 -0.00603126 -0.0195721 0.00709429 0.0126553 -0.0184507 0.000326905 0.012192 -0.0417922 -0.00355207 -0.0298554 -0.0330328 -0.0669506
internal_weight=0 617778 219919 191778 28140.9 270031 21135 347747 170643 347106 107623 24780.9 96216.2 100353 259453 63020.4 11988.6 254108 87653.5 10854.4 122385 173815 52122.9 131722 170880 20984.2 73808.2 7607.68 7311.18 9146.4
internal_count=885009 406485 478524 368496 110028 101107 71708 305378 296788 301045 156159 88005 22866 148670 195794 140629 29635 192592 105251 26368 83485 78241 83602 109107 77066 68753 84286 21742 21393 42073
cat_boundaries=0 1 2 3
cat_threshold=1350828352 1889798976 1073744896
is_linear=0
shrinkage=0.0817907


Tree=21
num_leaves=31
num_cat=1
split_feature=2 2 13 13 2 13 13 2 13 21 2 13 3 7 8 23 21 1 1 30 21 5 21 15 25 2 21 5 3 8
split_gain=20823.7 5177.82 3834.59 1675.73 1661.94 1338.29 1285.94 1212.59 977.61 844.377 512.336 502.053 477.555 432.003 422.718 420.932 393.26 352.233 341.612 316.781 310.037 302.742 281.584 279.101 269.549 267.176 261.866 260.185 245.954 241.892
threshold=0.58911132812500011 2.3750000000000004 0.15710449218750003 0.042907714843750007 1.0000000180025095e-35 0.051895141601562507 0.71020507812500011 7.5527343750000009 0.84008789062500011 3.5000000000000004 1.0000000180025095e-35 0.49230957031250006 1.0000000180025095e-35 35.796875000000007 7.5859375000000009 76.500000000000014 3.5000000000000004 0.29162597656250006 0.44995117187500006 0.63647460937500011 4.5000000000000009 0.033416748046875007 3.5000000000000004 804.50000000000011 0 0.26782226562500006 4.5000000000000009 0.033416748046875007 0.26782226562500006 0.85620117187500011
decision_type=8 10 10 10 10 10 10 10 10 2 10 10 8 10 2 2 2 10 10 2 2 10 2 2 9 10 2 10 8 2
left_child=2 5 3 -1 6 -2 27 20 17 11 -5 25 -11 22 16 19 24 -7 -14 23 -3 -17 -9 -8 -10 -6 -12 -4 -18 -19
right_child=1 7 4 10 9 8 15 13 14 12 26 -13 18 -15 -16 21 28 29 -20 -21 -22 -23 -24 -25 -26 -27 -28 -29 -30 -31
leaf_value=-0.10861923688666307 -0.11339258774537114 0.010097277795098098 -0.085495414187230709 -0.072964675875807766 -0.033286316351721662 -0.016749235671447125 0.0089284264827013508 0.018047932584095615 -0.00066612683117442991 0.017133173110480224 -0.045742578710786436 -0.012977201009332614 -0.016511784750892686 0.051283851668773757 0.039729052727712273 -0.065862151328290527 0.027833330685091053 -0.0029029297172506654 -0.004927668563260823 -0.023879240909242847 0.016776700276468146 -0.025108231473508217 0.028820868568729997 0.087977066648231017 0.014888351821861415 -0.02132892772316021 -0.025442659650627596 -0.054771301541028196 0.0058960443104046807 -0.026016142691168965
leaf_weight=3034.8686978071928 672.61031851917505 135479.34394295514 2523.3383474349976 3538.0889199078083 21339.911217674613 16121.841116398573 1189.0963827967644 32792.57698905468 128113.88643974066 4196.752421438694 13496.959039554 28611.618256241083 35236.144185394049 3827.2644326686859 2099.0717422366142 1426.8151663541794 3444.6109759807587 84009.594029262662 31713.638917446136 1466.5557516515255 68651.355296701193 7359.7968984097242 30896.329681992531 388.54506254196167 7736.3800804615021 28769.190715104342 6026.9749197810888 6367.4970126748085 123216.70963919163 3077.5376386642456
leaf_count=21366 4990 62051 13365 18774 54386 24524 2469 7748 107806 5287 47010 41475 66509 342 423 4975 1987 98625 46884 3952 25095 17891 5871 348 5675 58193 18962 29186 84887 3953
internal_value=0 0.00697317 -0.0231508 -0.0520571 -0.0187286 0.000720523 -0.0402224 0.015455 0.000929195 -0.0157568 -0.0446138 -0.0215349 -0.00936352 0.0248618 0.00353631 -0.022736 0.00324691 -0.005755 -0.0110245 0.00321253 0.0123436 -0.0317261 0.023274 0.0283967 0.000220714 -0.0264212 -0.0394761 -0.0634912 0.00649264 -0.00371972
internal_weight=0 640139 196686 26096.9 170589 368492 20721.6 271647 367820 149867 23062 78720.7 71146.5 67516.2 264611 11830.8 262512 103209 66949.8 3044.2 204131 8786.61 63688.9 1577.64 135850 50109.1 19523.9 8890.84 126661 87087.1
internal_count=885009 433977 451032 106112 344920 332870 72186 101107 327880 272734 84746 154054 118680 13961 200778 29635 200355 127102 113393 6769 87146 22866 13619 2817 113481 112579 65972 42551 86874 102578
cat_boundaries=0 1
cat_threshold=1889796960
is_linear=0
shrinkage=0.0809728


Tree=22
num_leaves=31
num_cat=0
split_feature=13 2 2 13 2 1 2 2 3 13 14 3 2 23 12 5 31 21 8 0 31 21 13 21 8 21 2 21 1 28
split_gain=17786.2 4630.44 4235.06 2918.7 1426.65 1120.77 1010.27 960.406 590.129 524.653 496.896 437.809 423.912 407.619 383.509 371.424 345.53 330.512 313.477 310.622 282.996 276.384 252.075 249.686 242.174 226.33 223.831 222.835 220.317 213.942
threshold=0.65673828125000011 0.12496948242187501 1.9106445312500002 1.0000000180025095e-35 5.6250000000000009 0.44995117187500006 1.0000000180025095e-35 1.0000000180025095e-35 0.089263916015625014 1.0000000180025095e-35 0.26452636718750006 33.109375000000007 0.91088867187500011 331.50000000000006 2.2099609375000004 0.050155639648437507 0.070068359375000014 3.5000000000000004 0.63378906250000011 1322.5000000000002 -0.022949218749999997 3.5000000000000004 0.43261718750000006 4.5000000000000009 5.7363281250000009 4.5000000000000009 0.30358886718750006 4.5000000000000009 0.91674804687500011 1.0000000180025095e-35
decision_type=8 8 8 10 10 10 10 10 8 10 2 8 10 2 2 10 2 2 2 2 2 2 10 2 2 2 10 2 10 2
left_child=1 6 7 -3 16 10 15 13 28 -8 -5 21 18 14 19 29 17 -4 -10 20 -2 -6 -17 -7 26 -11 -20 -14 -9 -1
right_child=2 3 4 5 11 23 9 8 12 25 -12 -13 27 -15 -16 22 -18 -19 24 -21 -22 -23 -24 -25 -26 -27 -28 -29 -30 -31
leaf_value=-0.08781999556775584 -0.076267510050782542 -0.11451865537703612 0.0055899589096757721 -0.027741561438234488 0.014938972279551837 -0.010835644529399906 -0.11451865557569868 0.011685856082974014 0.016106063412037318 -0.040736178779620165 -0.015603702837884146 0.041423127757358076 -0.00034680443371426918 -0.06884683659552511 0.004104273077833529 -0.063781167917541556 0.023912328859779126 0.011627432011069291 -0.024731265206282098 -0.010928824616152971 -0.029701651322808394 0.023375807970802673 -0.030201465100947181 -0.0017041384463611932 0.070437333186798484 -0.022608211438238539 -0.0058128901450315773 0.0056658618720893819 0.037523481296232897 0.016187863863485776
leaf_weight=4272.3288491517305 1179.4066505730152 1880.0051350295544 120211.56232380867 34238.354068934917 51486.616383254528 47198.30417586863 548.98461866378784 7810.7010387182236 4111.2519128918648 14284.895677730441 59059.161790043116 5943.0709908008575 118692.68993866444 1115.3045243024826 3470.7582832425833 5898.6957922428846 9759.297058224678 113075.85530531406 4267.1417938768864 3632.2358073890209 2902.9729008972645 48415.157873511314 1899.0551254153252 32486.966422200203 261.02732568979263 6412.5661229640245 69066.972015857697 59447.922930300236 2911.2091164588928 130.98689197003841
leaf_count=25183 4682 15268 66375 89018 14013 75459 3988 6593 4422 47419 103276 806 103346 3540 5151 30895 4763 50927 6545 10137 8953 10566 8154 44620 102 18990 78195 41675 1614 334
internal_value=0 -0.0204016 0.00663081 -0.0151745 0.0125174 -0.0140948 -0.0477289 -0.000733835 0.000276722 -0.0371713 -0.0200581 0.0202852 -0.000495405 -0.0226337 -0.0180257 -0.0661135 0.00913457 0.00851636 -0.00543595 -0.0279819 -0.0431546 0.0190277 -0.0556032 -0.00711281 -0.00663936 -0.0351197 -0.00691371 0.0016597 0.0187013 -0.084726
internal_weight=0 208310 627761 174863 348892 172983 33447.5 278870 266569 21246.4 93297.5 105845 255847 12300.7 11185.4 12201.1 243047 233287 77706.4 7714.62 4082.38 99901.8 7797.75 79685.3 73595.1 20697.5 73334.1 178141 10721.9 4403.32
internal_count=885009 462604 422405 327641 147450 312373 134963 274955 242492 70397 192294 25385 234285 32463 28923 64566 122065 117302 89264 23772 13635 24579 39049 120079 84842 66409 84740 145021 8207 25517
is_linear=0
shrinkage=0.0801631


Tree=23
num_leaves=31
num_cat=1
split_feature=2 13 13 2 1 13 13 2 21 13 1 13 13 23 5 14 21 28 31 31 25 21 28 13 1 28 5 3 3 5
split_gain=15294.4 3533.72 3354.62 2292.43 1428.87 829.595 757.562 1088.22 620.573 514.444 469.889 441.497 415.618 376.226 362.067 341.462 340.16 455.417 339.765 338.194 269.849 259.107 240.226 240.125 233.148 225.634 229.131 239.49 224.893 221.338
threshold=0.62500000000000011 4.2929687500000009 0.064331054687500014 0.16070556640625003 1.3666992187500002 0.051895141601562507 0.74340820312500011 1.0000000180025095e-35 3.5000000000000004 1.0000000180025095e-35 14.917968750000002 0.097167968750000014 0.84008789062500011 331.50000000000006 0.050155639648437507 0.29943847656250006 4.5000000000000009 0.0026855468750000004 0.24438476562500003 0.057373046875000007 0 4.5000000000000009 1.0000000180025095e-35 5.9433593750000009 54.000000000000007 -1.0000000180025095e-35 0.033416748046875007 0.23211669921875003 1.0000000180025095e-35 3.5283203125000004
decision_type=8 10 10 10 10 10 10 10 2 10 8 10 10 2 10 2 2 2 2 2 9 2 2 10 10 2 10 10 8 10
left_child=2 4 9 6 5 -2 7 14 15 -1 18 -6 -7 16 22 -5 17 25 20 -13 -3 -9 -4 -18 -12 -8 -27 29 -10 -28
right_child=1 10 3 8 11 12 13 21 28 -11 24 19 -14 -15 -16 -17 23 -19 -20 -21 -22 -23 -24 -25 -26 26 27 -29 -30 -31
leaf_value=-0.11337346843705108 -0.10986740614243537 0.013684032890550507 -0.083114490452333295 -0.025337713195507039 -0.11337346979506276 -0.0063206897717397546 0.070622173115559392 -0.033922316895434838 0.014352281866335791 -0.061280711798175569 0.025187784512774956 0.0060125839361250188 0.00088431224621535437 -0.057700961415219132 -0.048299667950282919 -0.013722228480885919 0.0022363288770589698 0.069890725858442804 0.067279295409504156 0.017660494234988753 0.03062150551710123 -0.017583747382928699 0.022837236000905588 0.075663787458036355 0.0597339832594206 -0.058556605566043911 -0.016440858738132946 -0.042765682385912794 -0.0078158975160942216 0.03905583192028645
leaf_weight=2143.4113091081381 447.78984204679728 105996.60344409943 3411.4165114015341 22936.033534929156 192.9401476457715 79247.573326036334 156.0944542735815 19539.110251560807 3013.5308563709259 2695.5775492787361 24033.675151109695 259030.53847014904 138642.66087955236 1213.8692812919617 7701.9225733429193 52257.835547327995 3632.5406084209681 339.38733586668968 777.5020033121109 16712.555785059929 6281.8313374519348 8896.7546243816614 140.32316935062408 303.97751668095589 1296.8037304878235 1148.8866699188948 4421.8112109303474 2100.3307412266731 66175.129086345434 504.24402229487896
leaf_count=18298 3881 30747 20602 57720 1265 100603 176 60542 3313 14313 3836 152160 116534 3470 38151 87271 7845 315 152 8825 1772 24308 335 228 94 3968 10491 4558 108716 520
internal_value=0 0.00597733 -0.0190708 -0.0174744 0.00283897 -0.00195794 -0.0315051 -0.0370774 -0.0122744 -0.084355 0.0171866 0.00663458 -0.00173618 -0.0155035 -0.0579664 -0.0172652 -0.0114406 -0.0202241 0.0149976 0.00671855 0.0146356 -0.0288105 -0.0789285 0.00790639 0.0269564 -0.023895 -0.0256997 -0.0203272 -0.00685036 -0.0107601
internal_weight=0 632660 202732 197893 494274 218338 53510.7 39689.5 144383 4838.99 138386 275936 217890 13821.1 11253.7 75193.9 12607.3 8670.75 113056 275743 112278 28435.9 3551.74 3936.52 25330.5 8331.37 8175.27 7026.39 69188.7 4926.06
internal_count=885009 419869 465140 432529 383268 221018 175509 143938 257020 32611 36601 162250 217137 31571 59088 144991 28101 20028 32671 160985 32519 84850 20937 8073 3930 19713 19537 15569 112029 11011
cat_boundaries=0 1
cat_threshold=1722057264
is_linear=0
shrinkage=0.0793614


Tree=24
num_leaves=31
num_cat=1
split_feature=1 13 13 13 2 13 2 13 13 2 1 28 5 3 21 23 21 13 31 14 31 3 31 23 3 4 25 20 14 21
split_gain=13242.6 3155.29 2930.21 1643.11 1406.25 1295.76 1101 866.381 797.374 537.664 419.6 401.909 482.474 376.403 361.577 334.899 377.622 324.388 303.473 302.692 297.223 296.154 295.098 268.053 266.147 250.71 235.63 218.715 216.844 213.973
threshold=0.63330078125000011 0.16302490234375003 4.1523437500000009 1.0000000180025095e-35 1.0000000180025095e-35 1.0000000180025095e-35 1.5180664062500002 0.43261718750000006 0.60961914062500011 1.0000000180025095e-35 14.917968750000002 0.011230468750000002 0.083587646484375014 0.053558349609375007 4.5000000000000009 136.50000000000003 4.5000000000000009 0.48132324218750006 -0.010253906249999998 0.29943847656250006 0.040771484375000007 1.0000000180025095e-35 0.24438476562500003 110.50000000000001 0.41064453125000006 0.033523559570312507 0 1.5000000000000002 0.081695556640625014 2.5000000000000004
decision_type=8 10 8 10 10 10 10 10 10 8 8 2 10 8 2 2 2 10 2 2 2 10 2 2 8 8 9 2 2 2
left_child=1 3 5 -1 7 -2 13 -3 19 21 22 12 18 -7 17 16 -14 -15 -9 -6 -8 -5 24 -16 -4 -21 29 -20 -11 -26
right_child=2 4 10 9 8 6 20 11 -10 28 -12 -13 15 14 23 -17 -18 -19 27 25 -22 -23 -24 -25 26 -27 -28 -29 -30 -31
leaf_value=-0.11223973430063718 -0.11223973560482051 -0.060522444489441218 0.039970029530865134 -0.081259802788584287 -0.020532055767024899 0.022384574907058703 0.0055043302042072093 -0.082281120279346656 -0.0041948808129780597 -0.047679653465092099 0.024506889960883391 0.046386655040085399 -0.017106820457588563 -0.014620640500417148 0.008376073263056602 -0.029543748990604263 0.031083107301128812 -0.0027371184629545434 0.083828706034420844 0.019494557683921918 0.014487344100648522 -0.033745870626216659 0.06144752826111323 -0.00083389240578089058 0.0077159532043176932 -0.01266237376956046 0.028550224754719907 -0.039016266375543757 -0.027917456762859331 0.014718529403715938
leaf_weight=1940.8164048120379 604.65250176936388 5263.6606163233519 2242.0928436815739 2374.9957972466946 41786.03655153513 4111.1334913223982 227179.27315053344 1247.9423145055771 63724.397127658129 4358.792471408844 25859.55343067646 492.71801561117172 3096.6593405455351 16135.252938598394 29834.693055674434 6152.1198274791241 1485.1865196675062 116989.78373028338 93.404645666480064 1535.2083384394646 25265.331708878279 1228.7180923223495 786.27964752912521 56352.95519477129 45537.716879993677 59545.161423712969 5478.6136302947998 2121.1189646869898 16040.153783261776 65940.109876126051
leaf_count=17866 5402 27656 673 15305 101698 3148 127585 5640 73078 19614 4016 574 8748 29484 28155 18841 3401 119617 168 2387 13074 6688 151 54317 14389 104140 1532 6947 52313 18402
internal_value=0 -0.0170323 0.00568475 -0.0427051 -0.0134618 0.00270202 0.00284807 -0.0331728 -0.011101 -0.0370826 0.0154293 -0.0233724 -0.0257936 -0.00116904 -0.00161057 -0.0175673 -0.00148625 -0.00417745 -0.0512959 -0.0153792 0.00640337 -0.0650595 0.0134729 0.00235423 0.0131564 -0.0118541 0.0126424 -0.0338349 -0.0321402 0.011857
internal_weight=0 212487 622317 25943.5 186544 476473 475868 19952.8 166591 24002.7 145844 14689.1 14196.4 223424 219313 10734 4581.85 133125 3462.47 102866 252445 3603.71 119985 86187.6 119199 61080.4 116956 2214.52 20398.9 111478
internal_count=885009 465064 419945 111786 353278 380782 375380 71975 281303 93920 39163 44319 43745 234721 231573 30990 12149 149101 12755 208225 140659 21993 35147 82472 34996 106527 34323 7115 71927 32791
cat_boundaries=0 1
cat_threshold=1723107440
is_linear=0
shrinkage=0.0785678


Tree=25
num_leaves=31
num_cat=1
split_feature=2 13 13 13 1 2 2 5 3 2 28 21 13 3 13 8 31 31 25 2 2 23 21 2 32 3 21 21 31 12
split_gain=11451.6 3389.08 2370.32 1388.89 1177.22 982.367 747.61 632.83 599.224 530.086 499.165 452.732 426.801 412.327 384.415 375.645 347.866 336.481 327.366 292.561 282.638 279.751 279.197 266.79 238.37 280.55 234.932 209.626 196.956 190.557
threshold=0.44641113281250006 1.7207031250000002 0.058471679687500007 1.0000000180025095e-35 1.0000000180025095e-35 4.8750000000000009 0.94653320312500011 0.088958740234375014 1.0000000180025095e-35 1.0000000180025095e-35 0.0036621093750000004 4.5000000000000009 0.74340820312500011 0.58911132812500011 1.0000000180025095e-35 1.7314453125000002 0.074951171875000014 0.040283203125000007 0 0.089263916015625014 15.019531250000002 161.50000000000003 4.5000000000000009 0.19641113281250003 0.21429443359375003 0.19641113281250003 3.5000000000000004 2.5000000000000004 -0.017089843749999997 8.3554687500000018
decision_type=8 10 10 10 10 8 10 10 8 10 2 2 10 8 10 2 2 2 9 10 10 2 2 10 2 10 2 2 2 2
left_child=2 3 14 -2 7 13 22 9 -6 10 28 23 19 -3 -1 16 -8 20 -15 -9 27 24 -5 29 25 -14 -20 -7 -4 -10
right_child=1 5 4 6 8 17 15 12 11 -11 -12 -13 21 18 -16 -17 -18 -19 26 -21 -22 -23 -24 -25 -26 -27 -28 -29 -30 -31
leaf_value=-0.11111733805393206 -0.11111733748744482 0.023478365210061379 -0.086192089287909016 -0.0077728618590538609 0.01283682299921117 0.0073937360137038633 0.0018224164538055488 -0.038261317759723391 -0.028722867203465955 -0.025301735278118836 0.042073712637294126 -0.0069807128894110422 0.019425692844399919 0.020703094005943456 -0.05850544936761138 -0.022352816802805042 0.018876654494981389 0.025168187324194704 0.0021805239026990385 -0.022230331946827612 0.023200047771668317 -0.022125865665861496 -0.00063561539893213024 -0.015583180981607395 -0.052344772516487281 -0.025908900417899148 0.0075111813191530569 0.014441785336214132 -0.054915867054481191 0.085593794231561077
leaf_weight=1654.928477704525 698.20319976657629 7972.8512687683105 1705.7697060257196 99239.69452612102 5129.9515798389912 41330.58110678196 171787.26420047879 10455.263175562024 13975.325777366757 5109.4048570841551 281.84245009720325 30802.495629534125 3534.9527958929539 8174.9269164204597 1706.7467092946172 3743.9879963696003 7554.3479941189289 15855.10907638073 100626.86106163263 20182.889134824276 14824.896960735321 5099.1813159435987 49799.413654878736 40924.448679775 420.42701275646687 1077.6359182298183 99458.34410738945 66787.257552802563 4261.26596352458 88.780278027057648
leaf_count=16340 6928 3922 10308 137017 7541 13236 142048 45406 40955 16945 483 59339 6534 4046 10085 2987 5566 3610 57389 50420 2073 11974 55582 83889 1138 2219 45989 17848 23157 35
internal_value=0 0.00411072 -0.0198462 -0.00152824 -0.018329 0.00939696 -0.00129785 -0.0276478 -0.0129862 -0.0438846 -0.0590789 -0.0145303 -0.0231243 0.00611892 -0.0844059 0.00203173 0.00254079 0.0145038 0.00545434 -0.0277009 0.0131285 -0.00928549 -0.00538805 -0.0187593 0.00372369 0.0088342 0.00483005 0.0117475 -0.0638567 -0.0280012
internal_weight=0 687854 146411 332823 143050 355031 332125 52128.6 90921 11358.3 6248.88 85791.1 40770.3 216233 3361.68 183086 179342 138798 208260 30638.2 122943 10132.2 149039 54988.6 5033.02 4612.59 200085 108118 5967.04 14064.1
internal_count=885009 498241 386768 350128 360343 148113 343200 168584 191759 50893 33948 184218 117691 111346 26425 150601 147614 36767 107424 95826 33157 21865 192599 124879 9891 8753 103378 31084 33465 40990
cat_boundaries=0 1
cat_threshold=22772781
is_linear=0
shrinkage=0.0777821


Tree=26
num_leaves=31
num_cat=1
split_feature=1 13 13 2 13 13 5 2 13 14 2 28 8 3 3 8 2 2 21 23 1 6 0 22 31 28 25 31 20 27
split_gain=9933.71 2697.06 2237.67 1553.76 1354.76 845.27 658.54 623.475 556.461 373.453 369.207 446.412 344.317 344.065 329.549 329.294 392.587 323.923 299.325 261.892 261.247 241.043 233.253 348.86 232.936 213.296 201.23 198.995 217.169 261.7
threshold=0.44995117187500006 1.7792968750000002 0.042907714843750007 0.16070556640625003 1.0000000180025095e-35 5.9433593750000009 0.055740356445312507 1.1606445312500002 0.44714355468750006 0.26452636718750006 1.0000000180025095e-35 0.0036621093750000004 1.7729492187500002 0.23211669921875003 0.58911132812500011 1.7314453125000002 2.4824218750000004 1.0000000180025095e-35 3.5000000000000004 161.50000000000003 44.093750000000007 0.42761230468750006 1443.5000000000002 16.500000000000004 0.084716796875000014 -0.010253906249999998 0 -0.015136718749999998 1.5000000000000002 0.57495117187500011
decision_type=8 10 10 10 10 10 10 10 10 2 10 2 2 10 8 2 8 10 2 2 10 8 2 2 2 2 9 2 2 2
left_child=2 4 -1 6 -2 14 10 18 17 -5 11 25 21 19 -3 -16 -17 -8 -6 22 24 -9 -10 -24 26 -4 -7 -27 29 -29
right_child=1 5 3 9 7 20 8 12 13 -11 -12 -13 -14 -15 15 16 -18 -19 -20 -21 -22 -23 23 -25 -26 27 -28 28 -30 -31
leaf_value=-0.098653885982612322 -0.11000616376687111 0.022872924330095402 0.085747623876314447 -0.019291978901989991 -0.007076541843676217 0.013070417560894844 -0.047528276195349849 0.022592378471916318 -0.0080464463765253565 -0.0085368612180837661 -0.024488865195872466 0.037994611622877816 -0.019698673514913508 -0.031921427055362467 0.026572126611240029 0.001049513242270002 0.0077263278804739991 -0.025613700094125506 -0.00085768953359018605 -0.015970338490990048 0.041126502877299569 0.003172240852892169 0.04502892665063405 -0.012283708554719693 0.041366909138432946 -0.084387423442398565 0.029434186355644036 0.18461063199102798 -0.056500977981541599 -0.032882356565452756
leaf_weight=1978.0966093987226 674.68188204616308 7125.3388157784939 58.536029845476151 24865.541170835495 84914.508806675673 78820.267915844917 4875.3928888291121 3901.0974664986134 2703.9719719737768 83201.465120941401 3316.1442483961582 285.36388908326626 3824.8518804013729 3463.2982396185398 4565.3717901706696 74954.498562425375 172154.01355046034 22261.946999967098 99870.868861868978 5444.3215742558241 2260.781946182251 132886.22038552165 1710.5621371567249 996.72821481525898 1886.11224848032 1690.2539573833346 4729.5501362085342 48.662221655249596 4217.3379811048508 100.67352397739887
leaf_count=19440 7230 3422 126 64727 117280 17918 27791 3086 7050 128471 12085 476 2933 8880 2470 46811 69896 72197 117813 15224 167 100546 3148 2395 302 10093 1030 19 21481 502
internal_value=0 0.00402559 -0.0172569 -0.0162458 -0.00100113 0.00875601 -0.0272995 -0.000775118 -0.0230703 -0.0110115 -0.0453427 -0.0561467 0.00308891 -0.0107884 0.00654203 0.00607968 0.00570107 -0.0295508 -0.00371544 -0.00404619 0.0152896 0.00372609 0.00795081 0.0239284 0.0146059 -0.0605395 0.0140018 -0.0619533 -0.0532695 0.0379894
internal_weight=0 672568 161218 159240 326072 346496 51173.2 325398 41456.2 108067 9716.97 6400.83 140612 14318.9 258799 251674 247109 27137.3 184785 10855.6 87696.7 136787 5411.26 2707.29 85435.9 6115.46 83549.8 6056.93 4366.67 149.336
internal_count=885009 490904 394105 374665 348888 142016 181467 341658 136685 193198 44782 32697 106565 36697 122599 119177 116707 99988 235093 27817 19417 103632 12593 5543 19250 32221 18948 32095 22002 521
cat_boundaries=0 1
cat_threshold=1990238504
is_linear=0
shrinkage=0.0770043


Tree=27
num_leaves=31
num_cat=4
split_feature=13 13 2 1 14 13 2 21 3 5 31 2 23 25 14 21 26 21 28 28 23 28 20 21 5 3 25 25 20 25
split_gain=8689.55 3130.91 2318.56 2119.77 1183.27 715.948 533.34 475.528 396.082 319.226 317.084 310.963 289.339 263.985 269.57 255.298 246.593 219.82 381.048 261.622 215.124 211.758 209.852 206.701 199.545 254.935 203.387 172.78 180.981 168.581
threshold=0.60961914062500011 1.0000000180025095e-35 1.0000000180025095e-35 1.8164062500000002 0.18395996093750003 5.4921875000000009 1.0000000180025095e-35 4.5000000000000009 0.19641113281250003 0.050155639648437507 0.057373046875000007 0.44641113281250006 339.50000000000006 0 0.77587890625000011 4.5000000000000009 1.0000000180025095e-35 4.5000000000000009 0.0026855468750000004 -1.0000000180025095e-35 136.50000000000003 0.27319335937500006 7.5000000000000009 3.5000000000000004 0.083587646484375014 0.16070556640625003 1 2 12.500000000000002 3
decision_type=10 10 8 8 2 10 10 2 8 10 2 10 2 9 2 2 2 2 2 2 2 2 2 2 8 10 9 9 2 9
left_child=1 -1 9 6 23 10 12 11 -8 -3 16 -6 17 14 -10 21 -5 18 19 -2 -11 29 -19 -4 -21 26 -26 28 -9 -7
right_child=3 2 4 5 7 15 8 27 13 20 -12 -13 -14 -15 -16 -17 -18 22 -20 24 -22 -23 -24 -25 25 -27 -28 -29 -30 -31
leaf_value=-0.10890610103359072 0.066264003440428293 -0.069182363363282401 -0.031138828992732868 0.0035256715565713278 -0.015675304982084318 0.028003395384165689 0.012239249201691364 0.0067327022256034883 -0.0066247004493793574 -0.02262002538608579 0.015767101550955735 -0.006906187680722208 -0.060174512500235415 0.0093927693585016507 -0.00024105556766899881 0.018938935645960896 0.008495793701031807 0.040863034851049411 0.055519987160524212 -0.054977469560835365 -0.051525194299828408 0.08657610487506795 -0.0060105110824002295 -0.018536393373082053 -0.016125487259156069 -0.049125396382646278 0.054807275819576971 -0.023815493886553334 -0.0042985163707169056 0.0094926954884782585
